0.045828413,0.12521681,0.00599384,0.023773815,-0.027961474,0.060035337,-0.052011445,0.09920857,0.038531348,-0.07805594,0.06753492,-0.0004247384,-0.04606977,0.056884132,0.09769179,-0.08559325,0.07669887,0.100329556,0.010456434,-0.020552889,-0.1005852,-0.102365375,0.06175568,0.047428776,0.008642324,-0.015065304,0.050631985,0.045715116,-0.09365323,0.05073354,-0.10677391,0.00410576,-0.017660279,-0.082134,0.08635249,-0.013333719,0.03848826,-0.019567931,0.06361411,0.060887467,0.10037081,0.11511234,0.07194305,-0.08753637,-0.008024531,0.10899843,-0.057887692,-0.08541978,-0.004747949,-0.05073782,0.10033116,-0.09393,-0.01206776,0.02257508,-0.09608021,-0.014132739,0.0038416765,0.019960895,-0.06868777,0.09937814,-0.08816204,0.0649731,0.07752379,-0.11803005,-0.06482534,0.08611643,-0.038946506,0.04756345,0.04895483,0.011302256,0.024531923,-0.10690968,0.10068639,-0.09961936,0.07415755,-0.039467562,-0.019153953,0.073115066,-0.08045716,0.14108728,-0.014538714,-0.03700839,0.11130017,0.022283316,4.399755e-05,0.01838314,-0.0140022095,-0.08570879,0.07570085,-0.00020549496,-0.09917637,-0.05934292,0.079403825,0.08526281,-0.113175355,-0.0039341156,0.097811565,-0.056984685,0.045900464,-0.068660624
-0.11683825,-0.033868603,0.041050617,-0.101656176,-0.00086387736,-0.0061647655,0.016941098,0.061900146,0.020219952,-0.044011824,-0.014627329,0.09475873,0.045604546,0.13139181,-0.09462513,-0.018655885,0.1279654,0.12535788,0.052734192,0.10151144,-0.012681552,-0.09843957,0.0028646856,-0.051368672,-0.04863141,0.107365005,0.063043095,0.04639646,0.06326997,-0.08645627,-0.009242023,-0.09485212,0.0034869309,0.0847407,0.05306991,-0.06860035,-0.058881797,-0.081885934,-0.011207204,-0.09151135,0.05690162,-0.021154743,-0.05908501,-0.016687112,-0.022194339,0.09342141,-0.08556084,-0.05263049,0.0883284,0.11376752,-0.034508295,0.014992245,0.1051504,0.06768603,0.046262607,-0.06021743,-0.0357224,0.07277525,-0.06718475,0.040264107,-0.006588354,-0.16942991,0.050504196,-0.0115529215,0.033328157,0.049613398,0.033984426,-0.039099403,-0.042302746,0.066756874,0.09217345,0.08997791,0.021951335,-0.0173619,0.1414677,-0.10253609,-0.058673374,-0.018406615,-0.023700312,0.06082525,-0.037192922,0.014810751,-0.015658313,0.03372216,-0.019377083,-0.025499243,-0.068097316,-0.11818662,-0.049591765,-0.035392575,0.06014754,0.047760274,-0.050500404,-0.013995191,0.08333743,0.04247623,-0.009450581,0.07079092,0.11941178,0.13900006
0.060082834,-0.03577706,0.02641128,0.07900615,-0.012133674,0.11276973,-0.042859606,0.049384974,-0.0685332,-0.11562242,0.08453297,0.100088045,-0.056939125,-0.07062713,0.07412772,0.048337575,-0.089625075,-0.1317493,-0.04974198,0.076059446,0.03572654,0.09268072,-0.010917599,0.08595429,0.070393056,0.104779914,-0.10257376,0.05477367,-0.04995467,-0.0656671,0.01110475,0.13296421,-0.034950353,0.09079648,-0.05080936,-0.0023262412,0.12118284,0.10429011,0.02177649,-0.01812921,0.07337475,0.101639174,0.076760516,0.023935942,0.12159694,0.049577475,0.008432058,0.05485684,-0.030008407,0.097104914,0.102162056,0.09997084,-0.08191387,0.10456084,-0.0022500067,-0.066946454,-0.043352436,0.09998139,0.0066394163,0.024517113,0.048112694,0.050470356,0.08712801,0.12635826,0.041897684,0.0728636,-0.039261557,0.13798358,-0.010299377,0.09202167,0.044697814,-0.08312396,-0.036969006,-0.12974866,0.0077483966,-0.10717248,-0.041492403,0.07232322,-0.017965874,0.045252312,0.11432269,-0.0925395,-0.0050385403,-0.04774488,0.035316184,0.11196719,0.02584584,-0.05918527,-0.05268848,0.046552148,-0.04308658,0.02558146,0.018885467,-0.12402728,-0.008313653,0.06841375,0.032956615,-0.08916282,0.11299247,-0.032136176
0.17496291,0.018540215,0.046504132,-0.014012427,-0.008881194,0.026313094,0.010193467,-0.09208704,0.08671674,0.09964357,-0.102474205,-0.006296829,0.060712717,0.023898209,0.088732995,0.024298364,-0.052841686,-0.07025972,0.099946395,0.09539221,-0.049614955,0.06991952,0.005401658,-0.052022375,-0.09123014,0.059511174,0.045448035,-0.038191732,0.012501111,0.03692916,-0.029782679,0.06849825,0.10159871,-0.05425636,0.01946106,0.04390131,-0.09804634,0.061855815,0.03462228,-0.07004411,-0.0139919035,0.07353394,-0.007514873,-0.09171585,0.10637383,-0.022768894,0.0008559246,0.0027199236,-0.06939072,0.017873192,0.02667919,-0.07006169,-0.08282868,-0.057836052,-0.07960059,-0.04289783,0.10470508,-0.037465576,-0.053081,-0.09363418,0.06147799,0.13655868,0.07440714,0.036034282,0.048132934,0.016860003,-0.007876293,0.017214756,-0.084976345,0.0554746,0.14233415,0.0140446145,-0.04325187,-0.08263118,-0.06802476,0.027523283,0.023413517,-0.09461968,0.10876697,-0.1097433,-0.045907516,0.020527035,0.062219262,0.029909808,-0.025224166,0.10364824,0.13492204,0.12875563,0.109132,0.07017942,-0.046375148,-0.04436161,-0.04848886,-0.11984172,-0.074470855,0.08831067,0.114234276,-0.06799288,-0.091322,-0.15779357
-0.057051186,0.0016683962,0.06298322,0.063180774,-0.044362113,0.009246357,0.07416752,-0.042865522,-0.035599705,-0.0996619,-0.041235268,0.08633119,-0.057769183,-0.065979354,-0.095352665,0.01439228,0.0013961592,-0.031065978,-0.06545223,-0.040918417,0.040579364,-0.0068194787,0.027677862,0.08568868,-0.09774687,0.09456119,0.04251854,-0.012832606,0.048616666,0.04940985,0.061451282,0.047837377,-0.085851796,-0.024234666,0.09202738,0.019065429,-0.06074832,-0.04765287,-0.072288506,-0.033421542,-0.019757593,-0.00018355767,0.0046986253,-0.045756657,-0.06699659,0.03661742,-0.07625161,0.023162942,-0.05588406,-0.08850356,0.04810788,-0.0118033225,-0.022511797,-0.036782283,-0.06804434,-0.01472518,0.0978274,0.00060723914,-0.0146199055,-0.03719426,0.058545526,-0.047740735,0.0113346465,0.09111777,-0.0451208,0.016324192,-0.057901297,0.045280833,0.08486004,0.066050954,-0.0501632,-0.024482489,0.04159616,-0.054227654,-0.051800173,0.07615039,0.07053314,-0.073473,-0.07610468,-0.08689202,-0.054337077,-0.010657219,0.049120963,-0.09184541,0.052042075,0.088077486,-0.06365547,-0.051228005,0.03607793,0.0769465,-0.096940644,0.040139437,-0.037529167,-0.081654705,0.021820089,-0.021040868,-0.0625519,0.060470637,0.036230966,0.005122986
-0.060665205,0.059952967,0.056691557,-0.011685013,0.017016271,-0.026291976,0.07546717,-0.061269004,-0.018949673,0.02722654,-0.08401735,-0.051780812,-0.060699176,-0.06715316,-0.027429607,0.056287978,0.058116972,-0.09706167,-0.08510635,0.060009457,0.08006718,-0.013169316,-0.09049395,-0.041694682,-0.0039588357,0.052931547,-0.017091885,-0.042570844,0.0020083154,-0.030134693,0.0399174,-0.014545778,-0.07908577,-0.0173586,-0.07898314,-0.07510141,0.014783436,-0.08843013,-0.056390785,0.047924276,-0.06011458,-0.042808373,-0.024572052,-0.07773955,-0.050074253,-0.0857703,-0.054338753,0.03334075,-0.009651036,-0.002660078,0.039169706,0.08519717,0.00984237,-0.08665427,0.059818182,-0.039920643,0.068629,0.052535515,0.06943719,0.046341144,0.04950638,0.012724568,-0.077820964,-0.039632984,-0.002307989,0.080237605,0.022145258,-0.0032397527,0.075548984,0.036370408,-0.06334997,-0.075060576,0.025120057,-0.05565194,-0.08440198,-0.063245274,0.032201413,0.057887167,0.09510399,0.015769131,-0.024546674,0.079777874,0.0074220696,-0.026698522,-0.026438868,0.05143953,0.081117384,0.020270951,0.009635563,-0.06409896,-0.063143335,0.06938345,0.026195193,-0.015369769,-0.08262402,-0.07093252,0.00050747476,0.0709384,-0.033958025,0.075808406
0.08500224,0.0816305,-0.036095053,0.046350513,-0.016380358,0.038139813,-0.056133263,0.01564669,-0.084738106,0.014068966,-0.059797034,-0.019093938,0.1277022,-0.001228779,-0.073696196,0.02100831,-0.022446642,0.05106176,0.04471081,-0.0938644,0.043322135,-0.054290242,0.0033337253,-0.10879479,-0.040830307,-0.064395174,-0.0510751,-0.08446812,0.10592146,-0.098361805,-0.0050672833,0.10449361,0.106821336,-0.029735945,0.117620446,0.04807634,-0.056740925,0.20303957,0.06355433,0.030373482,-0.08242194,0.123085454,0.061325114,-0.004580498,0.1380772,-0.09250895,-0.045272168,-0.0009282383,0.04367973,0.04966073,0.038201753,-0.0021988195,-0.016955603,0.10526214,-0.06725253,-0.05216386,-0.10565917,0.17352541,0.10504274,-0.10538483,-0.027236104,0.13795689,-0.005443888,0.043482315,-0.094112724,0.0069149733,0.023477085,0.11206992,-0.0730429,-0.016881121,0.11314229,-0.08371385,0.046043474,-0.0643645,0.026746405,0.038713675,0.016621834,-0.06026027,-0.061949633,0.09735434,-0.009579539,-0.036566995,-0.0056309444,0.06037302,-0.025786983,0.19834892,-0.089744575,0.099125154,0.0642618,0.067588605,-0.03235031,-0.020454792,-0.08847164,-0.07803775,-0.014406308,0.123413526,0.05684921,-0.09091525,-0.001910658,-0.12558234
-0.007027507,-0.00319929,-0.053821385,0.05108048,0.029836757,-0.07021212,0.09136684,0.046131425,-0.04849207,0.04994884,0.048827514,0.008965972,0.025284704,-0.06662519,-0.05071987,0.055740114,-0.062566295,0.019919991,-0.055506464,0.088057645,0.03911155,0.00036991262,-0.09086384,-0.024003176,-0.05470903,0.006313839,0.08174323,-0.056865696,-0.09604919,0.011294966,-0.08206139,0.033454258,-0.05037268,-0.08399825,-0.042216793,-0.049464483,-0.097990364,0.027876405,0.08517323,0.06556354,-0.08531507,-0.09464644,-0.10228864,0.09177631,0.005457917,-0.0448784,-0.09990149,0.05176367,-0.10641693,-0.05165793,0.015297587,-0.093196325,-0.029094849,-0.098606445,-0.030437732,0.08619197,0.0020706616,0.07863522,-0.04827687,0.012580954,0.042663395,-0.009325895,0.060539518,-0.007869059,0.045045573,0.09319537,0.028821329,-0.09583804,-0.033071514,0.0857032,-0.07632707,0.049713302,0.07916845,0.023048094,0.016300853,-0.057383414,0.03779062,0.007616669,0.084245004,0.03143597,0.022105027,0.046949957,-0.026356297,-0.097735435,-0.066676095,-0.10194896,0.011022377,0.029242126,-0.05384023,-0.047957208,0.08100486,0.080623634,0.050821085,0.0008324946,0.042533018,0.018687513,-0.050006308,0.07197232,-0.074774005,0.0041385544
0.017401846,0.122353435,-0.02517616,-0.050017368,0.106224135,-0.07551014,-0.007596571,0.028925352,-0.033497564,0.12639561,0.030841725,-0.0593339,-0.03148202,0.023111926,0.01193856,-0.088912144,0.024616988,0.046510488,-0.026446512,0.030501917,-0.011697617,0.0037606517,-0.006319566,-0.065213986,0.081927985,0.017191052,0.09864102,-0.057580244,-0.0059689744,-0.093352444,-0.09428571,-0.056826226,-0.011228909,0.08422536,0.14996244,0.08734349,-0.01912491,-0.12653679,-0.05815005,0.07560744,0.039763536,-0.031984586,0.009509586,0.08358747,0.05330571,0.13929991,0.070869036,-0.038245182,0.10688018,-0.09572697,0.08417943,0.07199559,0.056415297,0.015656078,-0.0774906,0.11475035,-0.04126867,0.099105455,-0.05716769,-0.014022716,-0.08930685,0.09019698,0.038483795,-0.035690118,0.12205777,-0.040623143,0.13016322,-0.09532972,-0.07344619,-0.08281419,-0.094801985,0.02272228,-0.061831385,0.14522676,0.12844633,0.01057345,0.14230444,0.06949836,-0.044282004,0.0064889514,0.044767946,-0.04249118,0.0021756415,-0.009770736,-0.024657438,-0.091926865,0.15968917,-0.04093788,0.101346284,0.109877236,0.010876043,0.087462164,0.010008356,0.014839629,0.06719585,-0.0863221,-0.082819216,-0.00978413,-0.013757898,0.17889912
0.10195424,0.039540727,-0.10969221,-0.0054773088,0.10124044,0.13178091,-0.013333004,-0.077449314,0.061512645,0.09912509,-0.090356775,0.023546163,-0.029189574,0.15426594,-0.0010804824,-0.10386061,0.022088882,0.05931144,-0.05493518,0.2096426,0.037767585,0.059324197,0.100312725,0.10256699,-0.030741949,-0.061749756,-0.13620082,-0.094945006,0.19173867,-0.017286366,-0.024050701,0.0664176,0.09638295,-0.0014594216,0.09280398,-0.08396991,0.00061897025,0.1181501,-0.019339724,-0.13497187,-0.13138184,0.07820002,-0.1389349,0.0651833,-0.021714695,-0.020899585,-0.0246711,0.027199244,0.12428333,0.14871691,-0.10198604,0.06485117,0.12624632,-0.041655365,0.083552875,0.05411616,0.13950807,0.0032050684,0.04694375,-0.10868781,-0.037552286,-0.11183486,0.013984137,0.056730635,0.009854955,-0.035457265,0.08639704,0.10420116,-0.030884746,0.07611068,0.016113171,0.1230258,-0.1134662,0.022454908,0.23536098,-0.085796185,0.15591195,0.070208766,-0.09977694,-0.0072961417,-0.107031755,0.08068052,-0.02637657,-0.078331105,0.058110125,0.12528129,0.12399532,0.047823578,-0.062232338,-0.109396815,0.0580568,0.061787054,0.06648481,0.06301798,0.02722039,0.07472813,-0.035619263,-0.05077435,0.12013357,-0.03780444
0.12922259,0.08333416,0.061839372,-0.082158625,-0.0077040372,0.06154346,0.029547589,-0.08488435,0.08985689,0.06934269,-0.12540062,-0.07423968,0.010428791,0.07864825,-0.041348036,-0.0912901,0.040177006,-0.005452104,0.026517084,0.15516396,0.10267654,0.124304175,-0.0967787,0.11892046,0.032265443,-0.11664425,0.0038031894,0.059425145,0.031871285,0.0425953,-0.022163812,-0.12562908,-0.023368537,0.009023961,0.0398274,0.05884327,-0.12810895,-0.039300658,-0.05058979,-0.062705666,0.01247532,-0.014025017,-0.0064531523,-0.026540054,0.08095249,0.004179288,0.0023482793,-0.0046888036,-0.041490622,0.06336058,0.023521444,-0.01293018,0.11200155,-0.11000904,0.13385318,0.09248389,0.066128805,-0.028092125,-0.0977625,-0.013519367,0.08249401,0.0904038,0.1696397,0.06515319,0.023325205,0.16936365,-0.011888699,0.0763209,0.028709145,-0.07345035,0.07746498,-0.09009603,0.08561683,0.005179605,0.100488424,-0.029188925,-0.03437996,-0.047711607,0.04686838,-0.1446575,-0.02109862,0.04129157,0.0009365525,-0.06767936,0.09941733,-0.10852608,0.11116384,0.023314454,0.043102182,0.09435322,-0.005307597,-0.020713966,-0.08581058,-0.005612363,0.028110487,-0.006505599,0.106539235,0.06212519,0.0031702882,-0.008333965
-0.09855875,0.019159047,-0.02805327,-0.027796797,-0.033718165,-0.009317889,0.073648445,-0.037772,0.054481212,0.048336912,-0.03144112,0.033467595,0.11071813,0.13613275,-0.059144124,0.0652682,0.16763124,0.16194771,-0.144054,0.15088685,0.026283683,-0.1030404,-0.09194056,-0.10902321,-0.024025852,0.10291702,-0.024108343,-0.02355851,0.13394934,-0.07034342,0.091134526,0.07790654,-0.046317227,0.044059873,0.07657681,0.04607325,-0.026183516,-0.064515166,-0.010100416,-0.036010273,-0.096386045,-0.0075470195,0.02994856,-0.00084364874,-0.040900305,0.035830118,0.0790951,0.117770165,0.030693134,0.22197309,0.006968193,-0.008536163,0.115676835,0.04953059,0.071147114,0.114020534,-0.099471085,0.15089187,-0.09753416,0.063426174,-0.030059783,-0.12675783,-0.06150235,-0.008118513,0.023234095,-0.048130374,0.21714091,0.037946384,0.118153565,-0.054057498,0.020995721,0.11974018,0.03587186,0.21405497,-0.03600695,-0.060352497,-0.017230762,-0.06584123,0.0024928176,0.035822786,-0.12682642,0.028937062,0.08017057,-0.14344163,-0.070270255,-0.00093992456,-0.0432893,-0.017776882,-0.069765314,-0.16857372,0.18922636,-0.10336102,0.073008396,0.17558742,0.16462176,-0.11359429,-0.1287532,0.09569591,0.030395431,0.19027992
0.1416843,0.099020526,-0.025132349,0.01466634,0.031652864,-0.031728778,0.008810735,-0.04320171,-0.08767323,0.035358325,-0.0647379,0.090763204,0.052847095,-0.04698166,0.0972075,0.09428335,-0.041315675,-0.0009943905,0.12664938,-0.016014649,-0.08144154,0.040775716,-0.057626586,0.072213605,-0.022204129,-0.012896429,-0.0910965,0.03461796,-0.037137754,-0.08083662,0.04944779,-0.07558422,0.09091127,0.060351234,0.031984534,-0.107375816,-0.08836876,-0.050345667,0.04776219,-0.014280457,-0.025115795,-0.06285084,-0.0018133549,-0.015849786,0.0953924,0.02766121,0.07379163,0.037460722,-0.0521237,-0.0985688,0.017281085,-0.05228522,0.07320268,-0.04530331,-0.009902124,0.045351416,0.08272199,0.09871058,-0.094458945,-0.041528683,-0.05667583,-0.032719284,0.091320135,0.033280335,0.07170404,0.1267857,0.0464241,0.113963455,0.0043010535,0.05556408,0.13674569,-0.110942885,-0.053717665,-0.06909055,-0.062981516,-0.059710905,0.121423475,-0.092972636,0.0019564745,-0.004410998,-0.016948506,-0.08118911,-0.1021914,-0.07666203,0.05936211,-0.08065539,-0.029016335,0.010237524,0.10294622,0.05234204,0.062117577,-0.09732255,0.04557743,-0.014348133,-0.0429318,0.060934853,0.059984908,0.070842735,0.044252247,-0.06327889
0.01387994,0.042449858,-0.029062346,0.06141544,0.012793537,0.049786195,0.07485244,0.07515167,-0.093737125,-0.07038591,0.13460372,-0.04222074,-0.0828864,-0.02685102,0.06975088,-0.074498594,-0.0591542,-0.016620353,0.10063122,-0.06409845,0.021243034,-0.009122394,0.05763566,0.028337823,-0.08171947,0.07242932,0.092729926,-0.06924852,0.087665826,0.094932996,-0.059462015,0.01189712,-0.08418285,-0.021932589,0.025056848,-0.06227927,-0.092795804,0.105017714,0.027281292,-0.037538126,-0.08594418,0.04524244,0.05145136,0.06491925,0.028171571,-0.027336134,0.07781751,0.10494197,0.04566078,0.05067764,0.06778629,0.06887634,0.026621712,-0.051881857,0.005625164,-0.054343827,-0.08150132,0.07038262,0.017941564,0.08333498,0.02227316,0.03781043,0.007859655,0.048184447,0.028230619,-0.051387127,-0.014298653,-0.0813189,-0.0147975795,0.008458058,-0.06953889,-0.106351644,-0.102715135,0.046239875,0.10942662,0.046471477,-0.042833164,0.088469334,-0.057763964,0.07268855,0.0039477195,0.010347522,-0.078466445,-0.06167113,0.038832527,-0.03282196,0.08523475,0.009744232,0.006503609,0.06348334,-0.114392884,-0.06368829,0.12632565,0.028181534,-0.09243493,-0.01688343,0.06102322,0.04780029,0.0129120955,0.010768384
-0.06880924,-0.079130806,-0.08720414,-0.0995395,-0.023699913,-0.011369909,-0.041308757,-0.061231166,0.054691214,-0.08931815,-0.019885162,0.06869445,-0.040960647,0.018855374,-0.061317854,0.023844218,-0.04733469,0.041303176,0.055854823,-0.005806197,0.05412482,-0.011762319,-0.057284337,0.050975334,0.076188534,0.03718755,0.0025168175,-0.047505807,0.08429445,-0.055492245,0.03591728,-0.023125965,0.0744284,-0.026085118,0.07107552,0.051152837,0.005397361,0.015061679,-0.016740974,-0.020375162,-0.056965444,-0.034042526,0.022963997,-0.07697945,-0.03311603,0.0005991612,0.0014629521,-0.091279045,0.024803659,0.063091695,0.0857539,0.06441684,-0.050496724,0.030526727,0.041420586,0.00063126633,0.003041262,-0.09361662,0.019868214,-0.055088647,0.032556593,0.0057949545,0.029972374,0.0070196693,-0.041509893,0.038830724,-0.09065518,0.057595883,0.08905297,0.055524953,-0.084556766,-0.07295534,-0.013913486,-0.08223307,-0.08679407,0.03596009,0.09262505,-0.054567657,0.0366141,0.06051698,0.059958637,0.027296567,0.07554015,-0.010419925,-0.07678205,-0.026419051,-0.021695323,-0.030166656,0.009957428,0.09584398,-0.039667457,0.079149835,-0.088329986,0.009309328,0.0011760349,-0.045364086,-0.09594365,-0.025494397,-0.037506804,-0.017965782
0.11742122,0.012620864,-0.06427961,-0.02275325,-0.017827636,0.10470965,-0.08583551,-0.033666752,0.049702633,-0.031545695,-0.120028965,-0.034699082,-0.01800561,-0.010629591,-0.061730076,0.101327695,-0.08876548,-0.041024692,0.14497136,-0.014918512,0.044876985,0.064759985,-0.08121627,0.10088119,0.040853653,-0.1156142,-0.15640755,0.024288766,0.06200859,-0.06553476,0.0031182184,-0.14260629,0.060141217,-0.067884535,0.056226924,-0.09969213,0.014761701,0.11937533,0.12261642,-0.07730889,-0.11415991,0.06076246,-0.07685566,-0.04721055,0.12819292,-0.06337121,0.0964043,-0.07786248,0.14291477,0.13344929,-0.08731004,-0.049332306,-0.101433545,0.057924494,-0.07598786,-0.039854534,0.036439847,0.025281854,-0.04834282,0.01445024,0.065915145,0.02179956,-0.060465727,0.15755959,0.13088915,0.042408608,0.005627943,0.15990287,0.09483722,0.018686345,0.14787439,-0.040485337,-0.05969016,0.03161427,0.15458107,-0.036929335,0.075573646,0.07656451,0.004160867,-0.12789895,-0.04454362,-0.11342719,-0.052963283,0.03382985,0.075216815,-0.043370582,0.014208952,0.05947298,0.116915636,0.06740056,-0.08860816,-0.027472517,-0.05832943,-0.06225379,-0.060010318,0.13163225,0.13130997,0.050387856,0.07506183,-0.06639998
-0.037564483,0.013334263,0.023310347,0.07887465,0.06027506,-0.014866767,-0.051932603,-0.090321854,-0.0667627,0.02319425,0.07705735,0.03955046,-0.09426964,0.001268792,0.0067385016,-0.09738706,0.07655134,-0.066553086,0.11892258,0.011717128,0.049683753,-0.020526057,-0.048651792,0.004172811,-0.018022165,-0.10371763,-0.04010511,0.028239865,-0.064933345,-0.07989617,-0.06333067,-0.06390094,-0.07429641,0.0027627125,-0.020462943,-0.0065242196,-0.08344656,-0.045885727,0.038001668,0.041471593,-0.061251506,0.027553309,-0.10093223,0.03353875,-0.06327801,-0.054274842,-0.046321116,0.0010952742,-0.003382141,0.08696908,0.11776225,0.03249823,-0.039095253,-0.0880415,-0.094598636,0.0050556045,0.0075458204,0.03361472,-0.044838823,-0.07515425,-0.01662395,0.06692886,0.08550231,0.08378721,0.006957669,0.09329577,0.01678685,0.068792604,0.018009827,0.051765807,0.0574866,-0.098801896,0.0694013,-0.015916027,0.007715819,-0.040521167,0.054672465,0.1338771,0.045075905,0.09076694,0.14115362,0.037028432,0.051649515,-0.010500325,-0.00033038176,-0.042839576,-0.036035404,-0.063588366,0.12703496,0.017023738,-0.03152678,0.01639598,0.11304328,0.07524471,-0.050564647,-0.016022783,0.060979888,0.12265538,0.056157865,-0.06085276
0.06263631,0.09619063,-0.01779681,0.052506227,0.053475548,0.07248225,0.13565299,0.09445795,0.00022754972,0.005220764,0.1635185,0.01316588,-0.035091903,0.010157554,-0.03500089,-0.08772719,0.027274096,-0.084461786,-0.02129168,-0.014912763,-0.07860717,-0.030575061,-0.009698338,-0.024656342,-0.052158933,0.0037277176,0.109008096,0.040768314,0.0654662,-0.047978368,0.005320238,-0.002794748,0.17339806,0.062990755,0.024112677,0.10762599,0.119302265,0.05760007,0.09587269,0.08925264,0.113969155,0.049486417,0.075492114,0.0057756547,0.12748632,0.10447622,-0.038771383,0.09033351,0.13140818,0.13873337,0.15620029,0.109327905,-0.06879386,0.025669904,-0.03593551,0.103333555,0.08070504,0.15602414,-0.010004656,-0.051215105,0.053914018,0.046904564,-0.08743579,-0.021583866,-0.074766755,-0.050583676,0.027994458,-0.077526234,-0.08109531,-0.06108584,0.13076265,0.021403613,-0.09221609,0.12122344,0.061140087,0.06516563,0.112246685,0.14403853,-0.067127444,0.19174515,0.10657097,-0.048027106,0.117468536,-0.051793195,0.014540525,0.14540662,0.08170028,0.109898254,0.0030757966,0.14295682,-0.06952805,0.053009313,0.08406409,0.04040113,-0.013434048,-0.0150596425,0.04201235,0.09285716,-0.04860417,0.13161129
-0.0044567194,-0.092639625,-0.03170697,0.06668378,0.02959034,0.08126229,-0.022291305,-0.055305585,0.027291104,0.066649325,-0.09130515,0.09777109,-0.013231223,0.09593207,-0.085443385,0.01850874,-0.037438385,-0.012600627,0.015551601,-0.064647175,-0.036638573,0.06138064,0.016911661,0.064808995,0.0964168,0.06632021,0.055749368,-0.03175292,-0.024534514,0.0008801337,-0.05871439,-0.09913264,-0.008601172,0.036914263,0.08873446,-0.017996889,-0.0052811424,-0.04242816,0.019522633,-0.089634076,0.07151693,-0.08731712,-0.071168035,-0.024323843,-0.06684522,-0.06315444,-0.05983622,-0.0014070125,-0.04958637,0.09419306,-0.049823444,0.020997362,-0.08223748,0.046249956,-0.07252643,-0.08242912,0.10226832,0.039473362,0.0065732347,0.0333965,0.07233596,0.022192448,0.049767636,0.042029765,0.030210445,0.017176017,0.06793278,0.054597452,-0.0067057763,-0.028605638,-0.012035766,-0.082282074,-0.055169843,0.095648825,0.08700358,0.03057538,-0.016346108,-0.05683713,0.023949765,-0.039417945,-0.049322043,-0.06751926,-0.07939892,-0.10181448,-0.02347153,-0.09356554,-0.068527065,-0.057594344,0.062403254,-0.007332515,0.0040947166,-0.018744608,0.017026,0.011646039,-0.06650506,-0.035531677,0.0442826,0.09188127,0.0023945984,0.061508216
-0.09731853,-0.09819888,0.0057712435,-0.08808218,-0.037137844,-0.07011891,-0.024083165,-0.008632691,0.0908778,0.0125738345,0.033317007,-0.048431545,-0.08876551,0.008517413,0.021674605,-0.099039815,0.04245383,-0.07535694,0.08816714,-0.09675979,-0.024710162,-0.08856805,-0.083574355,-0.08823161,0.071571924,0.09441567,-0.04964157,0.059736304,0.049694397,-0.068549916,0.07077511,0.081886105,0.07756791,0.038906027,0.038387954,0.0964678,0.0097969305,-0.022780696,-0.06665788,0.06662176,0.03707895,-0.066030815,0.0082763815,0.041404173,0.0181583,-0.09363834,0.06967253,0.079081774,-0.05826717,0.014771875,-0.053527717,0.034305096,-0.040285766,-0.009548054,0.096812114,0.06314646,-0.07866333,-0.051179744,0.058341134,8.640766e-05,0.02736011,0.020885207,0.00898216,-0.021500615,-0.043196358,0.016844932,-0.008234306,-0.012881331,-0.060292453,-0.06529135,0.069868825,0.0043503027,0.038737636,-0.061810736,0.013706203,-0.08261522,-0.090435036,-0.03168513,-0.03228306,-0.02555247,-0.031365827,-0.0049695224,0.011843546,0.09169695,-0.06304743,-0.023963165,-0.073594056,-0.06864904,-0.014759973,0.067512386,0.02994087,0.03935648,0.087865375,-0.07351798,-0.030906063,0.07897375,-0.056811273,-0.006414988,0.023233056,0.05883345
0.10809421,-0.06293996,0.06751038,0.038426183,0.16664293,-0.029465396,-0.078193925,-0.008490405,0.002690011,0.07380506,0.06161142,0.0877742,0.102111496,0.027700627,0.047810376,0.04736804,0.09300842,-0.03806571,0.023477755,0.116938874,0.098433025,0.076180086,-0.027383137,-0.081658475,-0.03452662,-0.017125696,-0.047819827,-0.0023597665,0.114672385,0.067385964,-0.018636182,0.1076808,-0.025870996,-0.090418585,0.17258191,-0.058861732,0.077619806,-0.00492652,0.08537783,-0.050941255,-0.03317724,0.028327497,-0.0429116,-0.09827693,0.10546511,0.008386883,-0.0037294135,-0.043321244,0.09636011,0.026613092,0.014218711,-0.03116498,0.11245607,0.095804,0.09927505,-0.08750527,0.07057679,0.06327085,0.060439397,-0.09869894,-0.080552705,-0.09099396,0.046037097,0.122219265,-0.051098406,0.028251806,0.078699104,0.11723073,0.026789414,-0.0850285,-0.020087168,-0.00963549,0.036193553,0.04730268,0.07294963,-0.035976112,-0.045570012,0.043685675,0.05692854,-0.13574903,-0.041107465,0.04901267,-0.0548272,-0.11052891,-0.033399284,0.10681553,0.1050961,-0.08971261,-0.13555148,-0.00810386,-0.004534924,0.08264302,-0.06902268,-0.052680667,0.07257291,0.06673272,-0.069429666,-0.097060405,-0.014378162,-0.08092081
-0.045258187,0.080542386,0.05253391,0.008208671,0.021359416,0.0829902,-0.0423683,-0.06985281,0.05347836,-0.06017156,-0.032744784,-0.024871249,0.054998897,-0.0492995,0.0065343045,0.007683361,-0.045892604,-0.065606415,-0.044195786,-0.0037193298,-0.02566633,0.089577846,-0.040277638,0.087541334,0.069425695,0.018248742,-0.049269453,-0.08081694,-0.0036790937,-0.0296949,0.08772931,-0.0068564615,-0.027467057,-0.090190776,-0.03127315,0.025257794,-0.042435803,-0.038137075,-0.015072687,-0.072322436,0.021683905,0.0042174435,0.081778765,-0.039721694,0.033300426,-0.04782535,0.07360201,0.056470703,0.0013275777,-0.07464459,-0.0947597,0.06647393,-0.025792217,-0.0056581604,-0.019821124,-0.08534598,-0.06589739,0.09807613,0.022403505,-0.056585938,0.05520373,0.014159264,-0.0066849925,0.08913333,0.05882679,-0.055407178,0.07360313,-0.08872989,-0.03407291,-0.068480015,-0.05040046,-0.03896064,0.08836965,-0.048060797,-0.009068367,0.025553776,-0.07060133,-0.018383125,-0.068715766,-0.042490497,-0.073054515,-0.021341356,0.0972607,0.0023515467,0.09261469,-0.08152839,-0.04247659,0.07402007,-0.0656278,-0.044358835,0.049424455,-0.05037937,-0.07579695,-0.0901591,0.0595665,0.09418423,0.0980561,-0.004858923,-0.030482752,-0.021533115
0.10771783,0.10869668,-0.051868167,0.052475404,-0.022399615,-0.10030294,0.008102946,-0.054229993,-0.09377304,0.011073652,0.122298814,-0.045510806,-0.0652111,-0.07657701,-0.09405251,-0.05194184,-0.015491498,0.10190883,0.04241321,0.09258393,0.004150785,0.07767908,-0.051842034,0.08718963,-0.0897983,-0.020719547,0.06492866,-0.06853811,-0.095462814,-0.020725112,-0.028005881,-0.055632357,-0.028952675,0.014317871,-0.04942764,0.051163416,-0.06725415,0.06645402,-0.0054197996,0.082951285,-0.049714923,-0.047229286,0.05528044,0.019867891,0.010737742,0.048052024,0.037447337,-0.018389007,-0.046760235,-0.012948778,0.13660544,-0.06501049,-0.031747747,-0.038143758,0.042681314,0.04737839,-0.0008855121,0.03498188,-0.014894371,0.11474291,0.07085969,0.09351514,0.007652949,0.022674348,0.0009337945,0.012081149,-0.06948592,-0.049407102,0.09466531,-0.054266907,-0.03278727,-0.0633135,0.019841468,0.023879372,-0.096438795,0.08747682,0.017879933,0.042097583,-0.06538862,0.06817907,-0.052485503,0.031232053,0.04964206,-0.06562557,-0.012300956,0.10338277,0.048714213,0.082108095,-0.02975512,0.1030911,-0.06309048,0.07514407,-0.033841312,-0.06477488,-0.11206443,-0.08507637,-0.01993822,-0.033345282,-0.04013475,0.07933527
0.12241302,0.039594322,0.012976466,-0.052787516,-0.114751145,0.08526777,0.06153664,0.050573148,-0.07448688,0.07655758,-0.035863634,0.056052364,-0.05165069,0.00062067533,-0.09058202,-0.03114368,0.07781723,0.062280055,0.011419952,-0.036343418,-0.022723095,-0.10898405,-0.033799965,-0.051096495,-0.06586773,-0.03928445,-0.0066861906,-0.09943363,-0.09361698,0.028528536,0.06570022,-0.043298323,0.09492393,-0.0073997276,-0.116466574,0.05295095,0.10785261,-0.058130324,0.12065566,0.012564221,0.029521478,-0.022494134,0.02370893,-0.09374967,-0.019881561,-0.001508961,0.0714508,0.06466652,0.036893316,0.08751359,0.102002226,-0.0091794375,0.0140468255,0.044040404,0.0468393,-0.008776852,0.018235832,0.15532671,-0.07800005,-0.07710522,0.07343725,-0.09843988,0.02067574,0.055865213,0.010518769,0.08662755,0.07809144,0.082113676,-0.03750972,0.005581801,0.13135509,-0.053412117,-0.10657678,-0.04350856,0.006117,-0.07567458,0.018827248,0.03468611,0.02321226,0.02931731,0.023406504,-0.04523989,-0.004661467,0.03372877,0.022059796,-0.043241248,-0.115857124,-0.054785807,0.0026875283,-0.073702276,0.050283484,0.038647987,-0.0028708056,0.07385644,-0.09171907,0.09808216,-0.052756652,-0.04145607,0.09970737,-0.08401566
0.10979183,0.02222963,0.07553701,-0.041679583,-0.016858935,0.005919692,0.027243491,0.034920674,-0.08954194,0.124351375,-0.12997197,0.0061311764,0.026032401,0.0075217816,0.024472121,0.04490186,0.018728422,-0.041716315,0.13128763,-0.07152328,0.08896559,-0.10402076,-0.09790104,-0.08440651,0.080844186,-0.075074635,0.11570143,0.09644175,-0.03655148,-0.08272516,0.1019579,-0.10209977,-0.0957674,0.10366698,-0.090147965,0.06759767,0.0016749797,0.06404907,0.09522244,-0.042049542,0.08195321,-0.03384105,0.16289014,0.09655834,-0.005517068,0.060895633,0.060874764,0.0672172,0.07650359,0.02090608,0.0118396925,0.09671151,-0.09771608,0.027502656,-0.07078243,0.008134805,-0.053282667,0.08651792,-0.014457053,0.08913416,0.060542423,0.06300147,0.040332563,0.0007565112,-0.06878643,0.035755284,0.07832191,0.12564644,-0.025872458,-0.0018269364,0.08227145,-0.019919101,0.0056677605,0.10570013,-0.032371406,0.07367799,-0.07013958,-0.07345026,-0.04605626,-0.0038119922,0.04158209,0.101458654,-0.015720574,-0.083230324,0.03297371,0.06682336,0.06875504,-0.0047699227,0.08325932,0.0998292,0.043331567,-0.055199213,-0.05591795,0.029988522,-0.11046027,-0.07286739,0.014913644,0.028237008,0.08013307,-0.008533284
0.0038145438,0.06913017,0.009913616,0.015508158,-0.17354375,0.018204223,0.13596249,0.009116453,0.06505311,0.1045978,0.057839103,0.06551645,-0.056232356,0.022070568,-0.10030884,0.095455475,0.09389523,0.11252484,-0.0724062,-0.0036076498,-0.07258485,-0.06630943,-0.024944348,0.07505694,0.007994644,-0.11503474,0.025167434,0.028539954,-0.08283747,0.022356885,0.03526257,-0.006866518,-0.012173032,0.066451505,-0.15831491,-0.033557307,-0.02088108,-0.07916734,-0.10412828,0.106463194,0.014607715,0.07094989,0.15755272,0.045095414,0.05652807,0.15069395,0.03598927,0.12598632,0.056019124,-0.10678289,0.07299334,-0.09786019,-0.027139341,0.011188875,0.09706268,0.1442182,0.09236048,-0.048400585,-0.043471918,0.014639218,0.13855909,0.02039765,0.15444443,-0.02846524,-0.02098655,-0.0034732528,-0.076981075,0.060623765,0.11107891,0.027403247,0.13157539,0.044683807,0.09657829,0.12431553,0.078489035,-0.003119999,0.010465804,0.09010807,0.05447277,0.13941127,0.14241615,0.091521144,0.1017712,-0.044077724,-0.043822978,-0.12277403,0.11234051,0.08983381,0.0067906436,-0.015126339,0.047840472,0.038047876,0.048471972,0.05904685,-0.09807264,-0.17721228,0.11004511,0.12164708,0.082496636,0.15597026
-0.088865295,0.020043677,0.07736948,-0.046458494,-0.076439284,0.03594288,-0.093524605,-0.09627898,0.09333757,0.09532441,0.037092928,0.02764149,-0.097164884,0.0010851078,-0.029309953,0.028729891,-0.073756084,-0.09305804,0.035250787,0.02733451,0.050643656,-0.050474863,-0.046467867,-0.015324251,0.010309839,0.018029682,-0.009972072,-0.04698046,-0.009554052,0.08681043,0.0008800033,0.09169931,-0.054983314,-0.06272056,0.08135939,-0.03534432,0.0040320037,-0.061080813,-0.034026224,0.07839898,-0.03140893,-0.062379915,-0.036875077,-0.044096462,0.081954405,-0.06441096,0.0907545,-0.015864043,-0.01477112,-0.09479046,-0.08253204,0.030780759,-0.043262992,-0.092268094,-0.03223748,0.046703964,-0.07256823,-0.07235548,-0.08777892,-0.027296782,0.06836764,-0.08010759,0.02108038,0.020673294,-0.046466667,-0.03378381,0.026277134,0.02871207,0.041805033,-0.071280986,0.044065084,-0.08994776,-0.030107021,0.046108797,-0.012588282,0.031081766,-0.054756872,0.0033467289,-0.008217461,-0.025570916,0.014971787,-0.032477178,-0.07305069,0.007004594,-0.064164765,-0.06269825,0.0063908678,-0.0734771,-0.086746916,-0.05097207,-0.038195435,-0.019389372,-0.026323747,-0.0060763233,-0.089295335,0.009355626,0.02785172,0.0014893464,-0.029594772,0.026206698
-0.027181953,-0.085376516,-0.06640912,0.066369094,-0.026379563,0.026001245,-0.09795272,-0.042634994,-0.015544845,0.09298157,-0.05364233,0.06108288,-0.023264272,0.034458876,-0.007972055,0.0968864,0.010442754,0.01397085,-0.0015394283,-0.0057089864,-0.085235275,-0.055408128,0.024891488,0.0680404,0.05671116,-0.020220073,0.08815382,0.06960135,-0.07362056,0.0291122,0.009420412,0.098877884,0.06591196,0.046485864,-0.034760933,-0.05397171,-0.0030507385,-0.05753279,-0.04097891,0.09291859,0.026964575,-0.099896744,0.083216704,-0.068182364,-0.047364008,-0.062498342,0.027121704,-0.06974836,0.091886654,-0.036741056,-0.08239425,0.009363611,-0.076794766,0.07351956,-0.032851875,-0.03772205,0.080267474,-0.044179723,-0.018487118,0.06663659,0.095710054,-0.090538144,0.06819562,0.021698168,-0.06609131,-0.09666132,0.069961645,-0.020428862,-0.09397976,0.050828915,0.06989899,-0.052235235,0.04914712,0.013880696,-0.062337525,0.06368292,-0.0516572,0.07265335,-0.060550686,0.047700603,0.028819257,-0.013505505,-0.0031793811,-0.0020372071,0.049187254,-0.06855457,-0.05899409,0.038444776,-0.09440659,-0.088693134,-0.041192625,0.049035147,-0.07714547,-0.033394616,0.006622415,-0.0715801,-0.09598319,-0.03237798,0.08636051,0.07258249
-0.042176712,-0.053793784,0.07185638,-0.023752509,0.030103613,-0.075844735,-0.03478751,0.09353283,0.040795412,-0.031880748,0.12570368,-0.060259074,0.06784774,0.008641773,0.054774515,0.025678085,0.09014361,-0.14072873,-0.09017228,-0.115975894,-0.008667044,0.12102163,-0.010428625,0.10563952,-0.02981674,-0.07220435,-0.0031248934,0.011769902,-0.08030633,-0.0753447,-0.02606181,0.13653097,0.11605033,0.096491545,0.030218326,-0.027243739,0.015315788,0.086183645,-0.038376737,0.09734886,-0.016470386,0.017514033,-0.051301673,-0.013746406,-0.010542061,-0.06458226,-0.05936409,0.093187444,0.13359159,0.031859197,0.17183815,-0.023659132,-0.014156765,0.11408405,-0.12056782,0.10208706,0.109519735,0.033205174,-0.06352223,-0.03604515,0.05864224,0.06981596,-0.027836183,-0.107171476,-0.081911094,0.10024187,-0.0822155,-0.094584145,0.014726775,-0.046311893,0.08143351,0.097575754,0.0064784414,-0.1057768,0.088793896,0.065652065,0.12736012,0.12906654,0.1134703,0.04092539,0.16420768,0.07256567,-0.072356224,-0.022432638,0.09024149,0.08809573,0.03233004,0.11080412,-0.06339035,-0.0070158197,-0.04057517,0.034603395,0.06435485,-0.07901294,0.03632313,-0.08621795,-0.04987012,0.09163781,-0.08638355,-0.0801961
0.12665544,0.06096683,-0.0018610707,0.0032010523,0.016783256,-0.055720624,0.14847788,0.08914007,0.0872339,-0.0068289633,0.086913764,0.0780942,0.1450742,-0.14070193,0.01212307,-0.04545814,-0.041908696,-0.0735741,0.0085738525,-0.045876656,0.07839858,-0.03340754,-0.05180815,-0.0821434,-0.07448889,0.12090064,0.101219386,0.013666468,-0.010559309,0.06662019,-0.04616186,0.16652633,0.10664179,0.02925345,-0.13218062,0.009018868,0.089379296,-0.054965846,0.061878838,-0.03296732,0.05979609,0.068004854,0.17838101,0.063382044,0.19863844,0.037359722,0.04674101,0.14598712,-0.041293405,0.1513808,0.12418586,0.008024735,-0.041699257,-0.07971032,0.11037589,0.012875845,-0.12604633,0.17962375,-0.0024660272,0.041791964,-0.034062658,0.06415629,-0.017076794,0.08482105,-0.13586177,-0.12406871,-0.066760875,0.050207645,-0.055031512,-0.05536004,0.017222736,0.10973176,0.017872775,0.1394413,-0.110497065,-0.00016854382,-0.05442032,0.088226445,0.11674716,0.17921767,0.06936767,0.0481893,0.048472423,0.025429426,-0.013775112,0.14227222,-0.07914562,0.13113287,-0.016222883,-0.046498973,0.06621727,-0.08561222,0.010019954,-0.03654054,0.012212503,0.0011083743,-0.109773904,0.06686033,-0.04255526,-0.02609957
0.08515597,-0.044043347,-0.014865702,-0.06618329,0.06286107,0.059527244,-0.06794636,-0.08493692,-0.006435926,-0.049563047,-0.0029414266,-0.05027902,-0.062962815,-0.013722795,-0.01152312,-0.07066153,0.04672185,-0.034427345,0.010514771,0.11512056,0.004188011,-0.08308632,0.03483484,0.09503338,-0.07260188,0.019017898,-0.11716987,-0.09889127,0.04889339,-0.00044549906,-0.020678282,-0.0701374,-0.062171187,-0.019957954,-0.08981879,-0.10900967,0.04198247,0.117414184,0.09870994,-0.12352884,-0.12962806,-0.085024364,-0.0318527,-0.06323281,0.12514812,0.08621794,0.04682904,0.1036488,0.06920755,0.081319116,0.05209205,-0.06893434,0.052624606,-0.040480696,0.048975687,0.08480198,-0.06878616,0.044707403,0.011696092,-0.07163276,0.085160196,-0.10770137,0.07791412,0.14005132,0.13535605,-0.04801886,0.15839858,0.110542715,0.12293527,0.09516354,0.03330367,-0.03269429,0.020614156,0.07591629,0.08470828,-0.04997109,-0.011889002,-0.039840642,-0.11959187,-0.11007206,0.05252801,0.07169645,-0.0414254,0.005670505,0.09725254,0.055411585,0.09421143,-0.034754317,-0.07875041,-0.121913284,-0.0060238102,0.011688505,0.03612531,-0.015989099,0.0017923058,0.09165994,0.09638183,0.033039965,0.13138628,-0.00086984714
-0.08555059,0.0076722866,-0.034414977,0.045966282,0.07567386,-0.050550304,0.035805147,-0.047911946,-0.008141483,-0.016168384,-0.028132895,0.06296852,0.09164845,-0.039596226,0.052465167,-0.061132573,0.060376503,-0.016411006,-0.08379916,0.0075493306,0.07967163,0.05092897,-0.06973061,0.046719976,0.09898663,-0.06422295,0.031594507,-0.087697186,-0.058185034,0.08097303,0.007721736,-0.08173044,-0.08646239,0.039714698,-0.008789004,-0.056257103,0.09558008,-0.088300176,0.046766307,-0.051165145,-0.019473312,0.01913546,-0.031160621,0.04609793,0.040238187,0.03260007,-0.00861852,0.03300265,0.082349256,-0.082751624,-0.042173795,-0.03462401,0.086600736,-0.07702698,0.09646944,-0.068810225,0.058841847,-0.092367485,0.03106309,-0.057542425,-0.0035478226,0.073140286,0.019194111,-0.033219524,0.045711614,-0.048148055,-0.007614326,-0.03510373,0.06489767,0.029108597,0.069545954,-0.011366852,-0.069275625,0.03420831,-0.056676075,0.05373103,-0.08505623,0.042930976,0.041814122,-0.03234323,0.0011377622,0.005021419,0.07994131,0.10279176,-0.070893794,0.044186402,-0.0046196184,0.026894318,-0.058517404,0.015387701,-0.014193911,0.09479415,-0.054454457,-0.06261391,0.013613297,0.036975734,-0.0010341582,0.029386923,0.06322038,0.08895704
0.017904913,-0.011154333,-0.025197785,-0.081122346,-0.07044961,0.037079852,-0.023837378,0.052782208,0.03561393,-0.10193417,-0.023823706,0.05891341,0.046337686,-0.03160731,0.012171258,-0.008196254,-0.05055194,-0.09823102,0.0054071634,0.005073286,-0.042017084,-0.044669293,0.079865046,-0.050269473,-0.018477453,0.023503542,-0.024355633,0.086690195,-0.028740298,0.0031251411,0.06790699,-0.025463281,-0.031772487,-0.06949514,-0.08447312,-0.004589412,-0.0576031,0.059118666,0.06876887,-0.076741375,0.034481976,-0.07365828,0.00058991084,0.023968043,-0.1091063,0.060973924,0.07546153,0.061024673,0.035617203,0.062617175,-0.095452994,0.07703557,0.09600693,0.044324853,-0.097884245,-0.027721733,-0.05972421,0.08278908,-0.097950764,-0.017927518,-0.08908061,-0.024154458,-0.009152318,-0.09018518,0.007885869,0.026236538,-0.02492546,0.07538242,0.0022915178,-0.013251204,-0.00850267,-0.06324226,-0.061582584,0.06430834,0.06710511,0.08125558,0.058928113,0.030357637,0.09147251,0.06595966,0.06171939,-0.09624998,-0.020752152,-0.07921495,-0.048326533,-0.0073997923,-0.09582134,-0.030399263,-0.033864792,-0.023186266,-0.008653688,0.08973043,-0.062080923,0.05059095,-0.07952756,-0.011955783,-0.055159986,0.000820839,0.011474475,-0.0025157803
-0.049710356,-0.0744377,-0.002882091,-0.083006136,-0.06468041,-0.09520095,-0.059730977,0.023524124,0.054544438,-0.033168126,-0.037628163,-0.06401971,0.020563511,0.017271081,-0.010504781,0.09126939,0.083290204,-0.041264646,-0.091387585,-0.028141929,0.07593305,-0.09225168,-0.07897435,0.0884715,0.030041354,0.072415784,-0.06769129,0.0003880842,-0.019040579,-0.014866778,0.06254041,-0.082178645,0.0072759525,0.05272728,-0.07663241,-0.035984557,0.058228094,-0.052420583,0.087705456,-0.07187428,-0.03366167,0.054287877,-0.045003217,-0.024259597,0.09306127,-0.0927912,-0.0987269,0.023287369,0.09878532,-0.017553532,0.031747617,0.055606917,-0.008794671,0.040328942,-0.0055565243,-0.019229736,0.007936206,-0.09273527,-0.032594856,-0.047137063,-0.039441165,0.00445929,-0.09708387,-0.09910545,0.027448548,-0.00033071113,0.01860191,-0.021611072,0.024931317,0.0075649484,-0.034302816,0.03978397,0.067833595,0.031400666,0.0023997368,0.00091414363,0.026729723,-0.0034713722,-0.046154182,-0.026760506,-0.0943943,-0.005443893,-0.043211598,-0.08271134,-0.08017002,0.0882403,0.08747664,0.045170724,0.03208171,-0.050282598,-0.07046254,0.055979148,-0.03142672,0.040529188,-0.08976891,-0.013460987,0.052499272,-0.07465227,-0.07730564,-0.08216638
0.06473217,0.1615391,-0.0471722,0.101253584,-0.09803022,-0.1030381,0.09622616,-0.07870392,0.0086541185,0.049988322,-0.015340749,0.054544114,0.122927375,0.030915152,0.09670103,0.017759746,0.036467128,0.00737957,0.11735728,-0.08299543,0.023425186,-0.019780602,-0.09969685,-0.08315429,0.043582257,-0.038508534,-0.015191108,0.0637069,-2.6898619e-05,-0.008951454,0.07639566,0.03569224,0.09746116,-0.008941752,-0.17012951,0.1131201,-0.043766055,0.12207232,-0.06772966,0.054108202,0.13363826,0.10919086,0.15584362,-0.049796063,0.069878474,-0.008277925,0.08906555,-0.050746046,-0.0030295555,-2.5858386e-05,0.13306205,-0.058911745,0.010503092,0.04429219,-0.047901373,0.0185315,0.03532253,0.15064965,0.0019199245,0.043052632,0.106272854,0.0024077173,-0.029009173,-0.07780622,-0.027176285,-0.05227165,-0.1485741,0.06647765,0.04965717,-0.0615169,0.1240999,-0.1259286,0.110904336,-0.022050567,-0.037435107,0.07573992,-0.13299394,-0.022657443,0.025244806,0.1901642,0.013803756,0.020226745,0.12710312,0.15722775,0.09503045,-0.039907083,0.08717681,0.13006523,0.1593238,-0.023795974,-0.117106736,-0.00056497665,0.14273681,-0.1133468,-0.014280372,-0.010111718,-0.013842205,-0.050352667,0.077742964,-0.06025789
0.056193635,-0.004530523,-0.048686773,-0.038560778,0.07478352,-0.05241678,0.042151824,0.095959686,-0.011739968,0.06117862,0.013678706,0.05686802,0.02663585,-0.09542594,-0.013589584,0.011454637,0.041482013,0.026438883,-0.07299473,-0.10682332,0.018044973,-0.046936117,0.06104109,-0.074808285,-0.08757149,0.06711345,0.029356776,-0.015686816,0.13312757,0.015654663,0.04633165,0.1288992,-0.059218355,-0.019347254,0.013369299,0.085762836,0.12113489,-0.08338469,0.035814915,-0.013121438,-0.03269568,0.091297336,0.09904314,0.033868324,-0.078019336,0.015783496,0.0576429,0.058680944,0.008739408,0.016278898,0.0065829856,-4.448407e-05,-0.0076062325,0.10297147,0.043442074,-0.05507637,-0.04449005,0.1747869,-0.028051179,-0.0739947,-0.08281526,-0.017231334,-0.08659021,0.057434876,0.053702176,0.027948245,0.0832613,-0.007136755,0.025163041,0.07583031,-0.0791064,-0.058781546,0.091093875,-0.025918996,-0.058508016,-0.022811128,-0.13404201,-0.0018680887,-0.028719531,0.15705188,0.039265588,0.010048838,0.016963908,0.0068581463,0.09321799,0.14142877,-0.11867766,-0.09977892,0.034168247,0.0013743462,0.11437236,0.089175366,0.08691828,0.08286203,0.04611527,0.041527264,-0.014686959,-0.01599933,-0.046967268,0.16000172
-0.008799609,-0.08886281,-0.02124426,-0.017937303,0.06479033,0.033366,0.022718372,0.054577976,0.09566108,-0.043973353,-0.04691593,-0.07729974,-0.022933358,0.044573903,0.09964776,0.04624376,-0.014815969,-0.01747217,-0.04144042,0.06236222,0.07157126,-0.03474023,-0.0896866,-0.0963719,-0.06950878,0.06586552,0.04524838,-0.08603228,0.008654916,-0.087083735,-0.06267541,0.08647121,-0.014330924,0.040592898,-0.06825329,-0.060356297,-0.045925897,0.06305111,-0.074769594,-0.054021373,-0.032513727,0.058145493,-0.08105526,-0.06566867,0.04214784,0.070975944,-0.024577787,0.013030291,0.07692301,-0.07255382,0.026917415,-0.058562767,-0.038048435,-0.09537355,-0.07969502,0.056064088,0.012802843,-0.0033895974,0.04550143,-0.04930428,-0.083180256,0.036994424,0.054128353,-0.063649915,-0.016752705,0.026096469,0.03639956,-0.08653152,-0.07774412,-0.0035148917,0.024731524,-0.013633101,0.0916625,-0.028715003,-0.08659022,-0.016762596,-0.04425019,0.030751098,0.087110646,-0.08757262,0.09629497,-0.09939698,-0.019241039,0.050013695,0.05588353,-0.09065621,-0.0054417625,0.08879967,0.06317473,-0.029143978,-0.0143969115,-0.08657637,0.005437253,0.04424162,0.09438688,0.0951667,-0.022998735,-0.024835287,-0.040676992,-0.09564766
-0.11601423,0.053514425,-0.010990355,-0.010237277,-0.05813376,0.011173493,-0.003907422,0.013742029,0.0065483954,-0.12575352,0.0030088862,-0.040599313,0.055897903,-0.09207847,0.08768092,0.09109318,0.05206225,-0.0022909911,-0.18663408,0.057656962,-0.01033459,0.016360793,0.01290187,0.0869625,0.011768154,0.15469398,-0.012230946,0.09278169,0.02671265,-0.034010332,0.08432899,0.07793658,0.05904496,-0.08066144,-0.020725558,-0.013978157,0.051995162,-0.015984718,0.08257284,-0.065883085,0.019391408,0.05074608,0.13023068,0.057986423,0.10427228,0.013774394,0.053815674,0.048646223,0.010397193,0.20064376,-0.064197175,-0.026885105,0.059843197,0.016113179,-0.076002836,0.0904924,0.08424184,0.07578225,-0.08589027,-0.10072016,0.0031358912,0.051248085,-0.12095334,0.1469763,0.035939578,-0.08275469,0.039610352,-0.080838725,-0.109721735,0.071120456,-0.017323056,0.08733696,0.006346676,0.050169792,0.04099675,0.043660153,-0.043119527,0.0344932,0.12379816,-0.08722491,-0.058463525,-0.036830116,0.035585694,-0.0687386,-0.057112202,0.19684458,-0.09528847,-0.13407552,-0.14228776,-0.0814683,0.1372752,0.07723751,0.113572605,0.055810478,0.12526327,-0.04705188,-0.016322628,-0.13630404,-0.103521995,0.18023753
-0.121773764,-0.06744421,0.007276643,0.044047408,0.12691693,0.07817754,-0.07409589,0.0636661,-0.093758255,-0.02898644,0.14946207,-0.05269916,-0.027161399,0.050312318,-0.061744858,0.014590057,0.051087502,-0.03777657,0.029962583,0.051134292,-0.05398316,-0.093027,0.008125221,0.056251474,0.03710463,-0.11978108,-0.11470139,-0.057302926,0.054969665,0.0833724,-0.063703775,-0.09811781,0.09838144,0.13067932,0.112310156,-0.049393672,0.09530715,0.10141923,0.07034615,0.101711646,-0.1449893,-0.034251753,-0.10976006,0.00085049024,-0.023865016,-0.060365863,-0.023989033,-0.016419612,0.12952937,0.06822099,0.10855154,-0.04888142,-0.06501,0.1307943,-0.066059224,0.101022705,0.00024759764,0.009880863,0.08963913,0.08984828,-0.057734586,0.03346265,-0.06272334,0.0353083,0.099388994,0.0017149117,-0.04583786,0.009901343,0.050106827,-0.069459446,-0.06604016,0.015161744,-0.112505384,-0.062133297,0.14809932,0.06861432,0.12148755,0.15250862,0.018503513,0.069768205,0.06230053,-0.10922119,-0.03639548,-0.039363403,0.0107049905,0.0067773927,-0.011486805,-0.054256983,0.07427419,0.056053184,0.003992852,-0.010015285,0.06980099,0.02245812,0.06247743,0.111924365,0.05417915,0.054596495,0.0910864,-0.037479486
-0.12211656,-0.06723579,-0.043655608,0.0067527676,0.031218043,0.08004884,0.110128656,0.053179566,-0.059639987,-0.038151808,0.20554748,-0.016044267,-0.025358725,0.047620002,0.09006428,-0.10793601,0.06325102,-0.059758447,0.043886464,-0.15097165,-0.047375232,0.033735894,0.0831096,0.028184645,-0.02415107,0.077128135,-0.069703765,-0.033992007,-0.07069826,-0.006802352,-0.10908546,0.16202366,0.13009274,0.11878505,0.04644027,-0.023397774,0.0511218,0.10246119,-0.023878647,0.0039263503,0.06683011,0.10452639,0.047208894,-0.100725695,0.1359338,-0.022136802,0.04415428,0.1087482,-0.032188177,0.08556518,0.1997218,0.10096406,-0.1160885,-0.033882666,0.069879755,-0.07822599,0.007154414,0.0018567076,-0.05104591,0.110384524,-0.003386531,0.0047170017,-0.012820312,0.04319063,-0.13961428,-0.054194562,-0.029472351,-0.10290824,0.043817922,-0.08497318,0.09138888,0.017930947,0.07042623,0.043476973,0.053174447,-0.027368365,0.07887611,0.11880675,-0.009628851,0.1763735,0.056966927,-0.08216935,0.004878814,-0.031386722,-0.013438405,0.14342326,-0.05584592,-0.038281277,0.08334675,-0.05386567,-0.047899626,0.048987743,0.108794026,-0.006709118,-0.07635734,-0.104037434,0.038631856,0.049091235,-0.065508574,0.14166607
-0.07919359,0.044994697,-0.06697753,0.06482946,0.12866654,0.043079942,0.0039176825,-0.03099517,-0.07787015,0.08535361,0.19643192,-0.07324477,-0.02614394,-0.020137416,0.028657425,0.044551063,0.017963156,-0.016285699,-0.07250661,0.03810652,-0.022949954,-0.033439077,-0.058587503,-0.0736784,-0.05521527,0.05508587,-0.00963248,0.033413816,-0.0013483653,0.028582688,-0.015821185,-0.05856334,0.12424455,0.11661052,-0.013212437,-0.029573238,0.026158683,-0.03926894,0.029062852,0.02549341,0.016829275,-0.013906958,0.009463271,-0.0778917,-0.014257025,0.035110883,-0.033398747,0.010604432,0.11911028,0.011590037,0.015207778,0.07447492,-0.0649264,0.009238343,-0.08801585,0.10121402,0.13395245,-0.008191324,0.09663877,0.11842914,-0.108522594,-0.07550816,0.11176403,0.046622153,-0.037566192,0.056950204,0.0747943,-0.043444607,0.09136491,0.062438663,-0.07029109,0.083518155,-0.0823552,0.040817186,0.0659641,0.102294944,0.0016978311,0.11611877,-0.057550225,0.12564892,0.1426758,-0.006518519,-0.029656423,0.030211698,-0.06587197,-0.083295144,0.07961506,-0.051438358,-0.050862875,0.02410658,0.0644988,0.06757729,0.1825019,0.02771223,0.10635634,-0.06573876,0.10992302,-0.05432395,0.02951168,0.19292618
-0.02046017,0.073506534,0.05278812,0.064709105,-0.07674449,-0.05886649,0.011184265,-0.024877474,0.0015191792,-0.10555855,0.03571587,-0.004644861,-0.088098854,0.011188995,0.07550821,-0.07575804,-0.005761824,-0.047084477,0.08613906,0.041421004,-0.084746085,0.115414195,0.08211824,-0.063654564,-0.04446258,0.08752814,-0.06265858,0.09901755,0.089129776,-0.019236555,-0.006446498,-0.099995404,-0.0740967,-0.048320677,-0.022074612,0.0057709487,-0.05561263,0.15232873,-0.08547055,0.014653198,0.0034178589,-0.040832426,-0.18665554,0.063076645,0.026601221,-0.052144248,0.015204693,0.040028036,0.122602984,0.045832936,-0.018810619,0.010424925,-0.07010162,0.042648215,-0.11999847,-0.061650466,0.04916263,0.09228792,-0.095646724,0.037991922,-0.0648647,-0.09596625,0.06308512,0.00731076,-0.060968164,0.04010643,-0.08379437,0.08230858,-0.042027924,0.07661139,-0.069312386,0.0048978203,-0.065045156,-0.06376163,0.08050617,0.065664195,-0.065180175,-0.06055928,-0.030094039,0.04477494,0.07723649,-0.04897296,0.02659441,0.04997278,-0.08081068,-0.055235993,-0.017067049,0.05643242,0.044841636,0.0042803003,-0.07753834,-0.015736498,0.15656383,0.014599659,-0.030817159,0.063216,0.12968911,-0.02693361,0.11247201,0.092398226
0.0121503165,0.025584616,-0.012453855,0.08649052,0.10499507,0.044855956,-0.0875965,-0.028603697,-0.08048942,0.15784438,-0.048936993,0.08447392,-0.07146699,-0.009308808,0.0516831,-0.0060639675,0.08300135,-0.059987206,0.14523435,-0.042997252,-0.05209986,-0.1363495,0.03710796,-0.10353367,0.027847992,-0.071072794,-0.049729813,0.01801865,-0.06530857,-0.006394054,0.07206052,-0.13454294,-0.10791368,-0.07719825,0.053133667,0.09155935,-0.022985006,-0.02155251,0.035227776,0.020005152,0.010177482,0.0017787382,0.13494053,0.06216911,-0.04855186,0.10071919,0.03683916,-0.07522493,-0.06203295,0.03701234,0.0057845227,0.013001485,-0.006079939,-0.026170233,0.06433715,-0.073830545,-0.12635015,0.11106664,-0.07199133,0.055398177,-0.04681515,-0.036918182,-0.030463982,0.047947973,0.10068095,-0.0679421,0.12918703,0.08383467,0.09289526,-0.06323642,-0.09812842,-0.102764316,-0.08715073,0.086387746,0.11531069,-0.03377191,-0.013943042,0.041978806,-0.06256211,0.15049464,-0.050289895,0.038034998,-0.042463765,-0.06970317,0.032499388,0.030578177,0.054938924,-0.09541232,0.09256651,0.0061841356,-0.015246948,-0.1023809,-0.041046035,-0.0117869545,0.046692133,0.13484593,-0.057465885,0.085589774,0.08877017,0.08774947
0.14364134,0.1034396,-0.0264423,-0.016031303,0.0779565,-0.012651209,-0.07581831,0.07775543,-0.074242845,0.22102855,-0.17177513,0.033275355,0.046834987,0.1313796,-0.037931148,-0.09065107,-0.054230526,0.06783498,-0.029018972,0.14280666,0.11174888,0.04774803,-0.0051727206,0.073497996,-0.039930314,0.0929618,0.06676237,0.06201248,-0.0070034936,-0.07424079,0.05416228,0.0046195313,-0.13527392,0.011359991,0.014821789,-0.11351033,-0.07718156,-0.032970916,0.048837617,-0.116500154,0.055264026,-0.017920246,0.102145515,0.0359763,0.024664491,0.07066467,0.014441618,-0.0161463,0.026813215,-0.07733329,-0.13598292,-0.097704485,-0.052002437,-0.07322793,0.12903401,0.070666775,-0.035865523,-0.0072256336,-0.09918765,-0.020333331,-0.0030679333,-0.07047779,0.085369706,0.08324343,0.13935637,-0.017634165,0.14542194,0.11779671,0.037522998,0.091085546,-0.008317983,0.1019681,0.061389234,-0.029959485,0.14712884,-0.05495057,0.08006572,0.038186602,-0.10469259,-0.13216835,-0.11477497,0.017375091,0.027811937,-0.10641375,-0.09220358,-0.10149638,0.11769239,-0.048982564,-0.032449827,0.059112452,0.12927599,0.010845385,-0.105481416,0.11709153,0.095795535,0.010979389,0.123516664,0.09251199,0.062163055,0.1054901
0.21097277,0.11945458,0.07013896,0.04920283,-0.056627467,-0.00023348736,-0.0986646,-0.025865126,0.00051186816,-0.0015319623,0.040904205,-0.07521129,-0.07291878,-0.1043436,-0.003389329,0.11157081,0.060552854,0.048852175,0.082937576,0.015679875,-0.042510353,0.02874272,0.09072455,0.016723745,0.019392854,-0.08485677,-0.09890513,-0.04395449,0.06334216,0.09894137,-0.04885677,-0.079060614,-0.010007049,0.00957554,0.06113987,-0.107785024,-0.016552173,0.08023122,0.10648912,-0.12441412,-0.013005678,-0.0077655884,-0.003471638,0.054894038,0.058056716,-0.025176607,0.06921843,-0.04889081,0.081645325,-0.116936356,0.0547482,0.013291381,-0.028895777,0.068055116,-0.07467877,-0.08595279,0.041394737,0.07711918,0.092645265,-0.025414322,0.09655754,0.08376696,0.011749491,0.017920256,0.035916626,0.075311266,-0.032232717,0.11611283,-0.10754692,-0.006937787,0.01867039,0.09424871,0.08480527,0.02938723,-0.082430385,-0.10349539,-0.021233577,-0.03698398,0.07158793,-0.17387787,0.04687918,-0.09134296,0.0022716788,0.039009426,0.062198788,-0.042758428,0.06549946,0.1254697,-0.105147555,-0.030492852,0.051788677,0.057267174,-0.1404751,-0.040500022,-0.029070862,0.098805465,0.058310803,-0.091520205,-0.11038251,0.023315072
0.09125109,-0.019644747,0.06707449,-0.078113146,-0.04159418,0.078773946,0.07431362,-0.013010341,0.08419455,-0.057218704,-0.026933942,0.090169154,0.11318225,0.06765963,-0.037908036,-0.091567636,-0.08539232,-0.0067420844,-0.020608803,-0.088236354,0.0219416,-0.013849279,0.008328952,-0.080559574,-0.013935149,-0.01601196,0.10370076,-0.08585542,0.002485766,-0.01194308,0.04032,-0.041049533,-0.097505234,0.044970874,0.04156142,0.015641805,0.028347343,-0.040578585,0.10595825,-0.07232074,0.021936774,0.09708497,0.13218178,0.025081042,0.08592832,-0.07807176,-0.039322786,-0.015093424,-0.077392586,0.04948561,-0.0043096766,0.07904856,0.094814986,-0.084878735,0.1047036,0.062409837,0.013787404,0.009645947,0.03678424,-0.031150645,0.08824939,0.035607338,0.06814922,0.1278232,-0.09934667,-0.036810666,-0.06789177,0.107233755,-0.02923382,0.016173622,0.048993755,0.05289509,-0.06620608,-0.05859155,0.0013106264,0.08103544,-0.10719897,-0.013211131,-0.051749513,0.08212206,-0.028992567,-0.03942942,0.030759165,-0.09798655,-0.061261892,0.14547929,-0.09808871,0.025618944,-0.03668103,-0.06389572,0.030898856,-0.0882066,0.072140485,-0.057494096,-0.019668201,-0.080617055,-0.083468854,-0.04185964,-0.01841376,-0.014069173
-0.0581954,-0.07206406,-0.019679667,-0.05423112,0.09062215,0.035849437,-0.044655364,0.050799552,0.03184707,-0.05878229,0.10358065,0.059202652,0.0070089567,-0.071144596,0.0024847086,0.019332882,-0.045280047,0.027675575,-0.101093225,0.054502208,-0.04956624,-0.062269658,-0.061841846,-0.04651488,-0.020169543,0.049475484,-0.027960386,-0.016477643,0.09981712,-0.022133516,0.020959402,-0.05411627,0.002788324,0.023064604,0.108124554,-0.01148294,-0.024320636,0.073954344,-0.082957275,-0.06575958,0.02777938,0.046043135,-0.045530282,0.09794626,0.00016448628,-0.00021130146,0.051050294,0.03802268,0.04787176,-0.012238123,-0.0055917096,0.061479032,0.031904534,0.1076891,-0.06760968,-0.09694156,0.060683984,-0.045702863,0.07141894,-0.07756061,0.0059871874,0.058485538,-0.09106423,0.044878267,0.051178925,-0.046161003,0.044649884,0.012893051,0.068664856,0.026089786,-0.07829712,0.1001027,0.054218687,-0.038669247,0.09195467,-0.08059321,0.06715565,-0.027476447,-0.052366905,-0.077892676,-0.07759274,-0.0774713,0.002247963,0.07226388,0.084638864,0.023325007,-0.08015341,-0.03954781,-0.0072747255,0.0736933,0.039467145,0.006235646,0.009635586,0.09164792,0.02852229,-0.030536337,-0.09121644,0.01815561,-0.053422205,0.038631465
-0.055228338,-0.08483637,0.0608127,-0.097826876,-0.02323548,0.0661261,-0.09348955,-0.08184043,0.025408221,-0.037067905,0.07133461,-0.08637657,0.03154798,-0.08977924,0.074383035,-0.0864307,0.029510634,0.018649751,-0.06903573,0.044653535,-0.09734836,0.018771427,0.013864675,-0.05269395,-0.06285088,0.09258734,0.029472193,-0.05515005,-0.007439347,-0.06518912,-0.077525415,-0.054075774,-0.032261677,-0.035918143,-0.02998754,-0.026378933,0.101175524,-0.055355728,-0.01214256,0.088209,0.024381483,0.008445868,0.04207502,-0.08741188,0.0007392899,0.04753878,0.078694575,0.09556076,0.057297748,0.09970504,-0.09038531,0.0749489,-0.0929714,-0.009572194,0.014449931,0.07248016,0.035935946,0.06598749,-0.019749803,0.05832057,-0.040462036,0.043634627,-0.07003396,-0.061309334,0.05392109,0.025156552,0.09357667,0.07582782,0.010460721,-0.004099411,0.085529774,-0.06366609,-0.025649427,-0.010269435,-0.030849596,0.07328878,-0.061736405,-0.080514334,-0.08900552,-0.09255909,0.027399443,-0.05454471,-0.055408057,0.068501145,0.02787582,-0.015638677,0.07510193,-0.03367386,-0.07011425,-0.031006992,0.038499933,-0.052422736,-0.048380807,0.04061696,-0.0062175174,-0.0036339457,-0.035633978,-0.05355728,-0.016814858,0.06619781
-0.040478386,-0.027416049,-0.09825411,-0.05267067,0.04443573,-0.06697318,0.020825885,-0.02117618,0.023466285,-0.024353042,0.008018531,0.036878053,-0.088093385,-0.042234767,-0.066912614,0.074166715,0.08839852,-0.085545294,0.0008410073,0.048885588,-0.08510232,-0.05679563,-0.03563478,-0.080233335,-0.01685571,0.07716563,0.020130971,-0.013107171,0.10024361,0.018499281,0.0809866,0.0020082358,-0.035746492,0.029568994,0.059693396,0.04320728,-0.011197578,0.077634305,0.07565786,0.060347468,-0.013499424,0.10801883,-0.1109322,-0.08707405,0.01576531,-0.002105159,0.016432565,-0.05781499,-0.0073024826,0.051231865,-0.057254273,0.009127818,0.08582889,-0.08085273,0.035788137,-0.0073549757,0.059966475,0.035275053,-0.07268449,0.031673595,-0.036024477,0.093261234,0.0742139,-0.10298533,-0.04275486,0.1132778,-0.0267877,-0.092235014,-0.031876985,-0.064448565,-0.01780136,-0.08695351,0.044884276,-0.0008448026,0.11349675,-0.06509198,0.026906198,0.09419324,0.04063597,0.028449815,0.05016753,0.085175075,0.041377164,0.12495039,0.09232267,0.04562727,-0.046435773,-0.016347237,0.09282583,-0.012303941,-0.027582163,0.04745776,0.09861307,0.07963505,0.014796426,-0.022505317,0.1038362,0.040346395,-0.033072475,0.13060617
0.04318066,0.11348807,-0.05164902,-0.07062193,0.10413575,0.1355621,-0.07573303,-0.023466168,-0.07613966,0.0751687,0.099635065,0.14625195,0.098515965,-0.07752477,-0.08279869,0.017111288,0.07726551,-0.08622632,0.10148192,-0.10081316,-0.06200201,0.04026239,0.0152867995,-0.01962563,0.02191273,-0.06240157,-0.15158756,0.041394938,0.06356031,-0.009612835,0.021351734,0.021478554,0.09280894,0.07675549,-0.0043892325,-0.070672356,-0.043699387,0.12576039,0.10814865,-0.010943672,0.034608014,0.047886,0.05826181,-0.03363883,0.090210184,0.027926302,0.06978015,-0.07380023,0.1133932,0.06768733,-0.06892731,-0.07410737,0.027829876,0.11040562,-0.08861508,0.042692266,-0.04982382,0.10743708,-0.0012067016,0.0012106029,0.08501296,-0.0027212584,-0.11678146,0.069695145,-0.027284592,0.040236287,0.05077631,0.1951226,-0.018686416,0.0038387056,0.013161534,-0.051668026,-0.061169583,0.026000515,0.14237174,0.039988887,-0.044158284,0.112061754,-0.060554475,0.033518925,0.01008731,-0.03408942,-0.123261504,-0.06383386,-0.026314426,0.12785175,-0.105182484,0.06447601,0.06075079,-0.079741925,-0.02522215,0.058110215,-0.106316194,-0.003750484,0.018698093,0.1637721,-0.0926757,-0.08132561,0.0654173,-0.15361819
-0.037523784,0.1284933,0.043359324,0.1048409,-0.060654085,-0.038856447,-0.024709176,-0.08064571,-0.0037013001,0.06353665,0.042031825,0.07002255,-0.07685411,-0.018663416,0.037124824,0.05115881,0.041359916,-0.013141986,0.09174596,0.06604875,0.020722445,-0.0051271534,0.066993795,-0.022057649,-0.022439247,-0.036023203,0.099875845,-0.043581158,0.022356158,0.006918837,-0.036075603,0.08364903,-0.031588886,-0.034106154,-0.049131367,-0.01100768,0.047332086,-0.09296904,0.08995708,0.008399165,0.12944408,-0.04614158,0.061746307,-0.068224296,0.023710605,0.058042925,-0.030106014,-0.06336683,0.008849399,-0.06835078,0.11543635,-0.06496698,0.0437364,0.021397127,0.046113096,0.057151925,0.012695037,-0.01762008,0.004830397,0.05382583,0.029871924,0.055556323,0.056036174,-0.056990888,-0.03753759,0.09635667,0.029061407,-0.10098091,-0.050393764,0.0764407,-0.08384083,-0.044698223,0.024166364,0.019690188,-0.086627476,0.0065300055,-0.09480223,-0.049746595,0.09289047,0.10648794,0.10596887,0.02891353,-0.031931892,0.04960933,-0.034372482,-0.047209382,0.07497245,0.04856578,0.11801785,0.052847803,-0.104352854,0.035934888,-0.07966246,-0.08257441,0.03324667,-0.09136049,0.044812772,-0.006565186,-0.04466429,0.02107694
0.117979884,-0.06180287,0.013784585,-0.059857875,0.086816914,0.11732423,-0.04528207,-0.048191786,0.11308222,0.028574059,-0.1320112,0.13494126,0.014579054,0.08980501,-0.037032068,0.013525404,0.08135415,0.035324514,0.124018274,0.040655218,0.06544146,-0.051050898,0.0022499182,-0.03454866,-0.0918101,-0.04737267,-0.0965803,0.018438686,0.10797833,-0.06809327,0.0018384921,-0.001879713,-0.10643788,0.026538193,-0.029870342,-0.061331123,0.01604012,0.12445247,0.13014656,-0.06548581,0.059711345,0.07133691,0.098818846,-0.041738022,0.068011485,-0.047074325,0.055934545,-0.013552498,0.06636839,0.051211696,-0.105646946,0.081691325,6.5401946e-05,0.06600159,0.014931659,0.05690011,-0.0045128576,-0.04537928,-0.016438697,-0.06329735,0.098043054,0.100220196,-0.032498352,0.13568038,-0.03694173,-0.03524505,-0.06398384,0.10988284,0.05940337,-0.08733471,-0.07544551,-0.05345632,-0.061055996,-0.07036316,-0.08907911,0.08234348,0.05580907,0.011069209,0.05222613,-0.041057907,-0.117428415,-0.07656818,0.061876453,-0.070566654,0.08899417,-0.0031337163,0.023839632,0.07245142,0.05520093,-0.10248155,0.090050004,0.056484073,-0.104581535,0.04789018,0.04226621,0.023059007,0.043031484,-0.115543485,0.03446913,0.014920488
0.039357834,0.016934844,0.0688602,-0.04887555,0.085195154,-0.04955785,-0.040022362,-0.033527892,0.0076591214,-0.016111089,0.0011894427,-0.007193876,-0.03500423,-0.091777205,-0.03317467,-0.090036765,-0.011945524,-0.017324818,0.07491204,0.047275458,0.10577789,0.074597344,-0.00856282,0.087398484,0.04185512,0.068049446,-0.0148807475,0.0726292,-0.037709348,-0.023336029,0.07793656,0.03445677,-0.01902418,0.08423487,0.12952957,-0.10759348,0.019875916,0.112142965,-0.032256953,-0.10278751,0.07523634,0.062993184,-0.057657517,0.005862648,-0.04717057,-0.09966196,-0.03810037,-0.0941245,0.087598346,-0.015162413,-0.0390706,-0.05423063,0.077017166,0.10469737,-0.0488308,0.007307386,0.11823201,-0.014448633,-0.030556418,-0.109803036,0.062158186,0.015299504,0.046719726,-0.06476946,0.05900254,-0.046792224,0.04894619,0.024198348,-0.10927177,-0.040787093,0.022303186,-0.0629205,0.072294205,-0.064711995,-0.058235947,0.028987125,0.022044469,-0.016048107,0.007574285,-0.06776418,-0.045900818,-0.07062373,-0.088542424,0.11387782,0.015415941,0.036595993,-0.009184441,0.09454646,0.06368143,-0.067335755,0.032498937,0.029127631,0.08623422,0.057009503,-0.07724098,-0.03201464,0.014612091,0.035258174,0.08045412,-0.009544036
-0.029191751,-0.078818396,-0.024413317,-0.033454783,0.09717544,0.0011613785,0.1043113,0.052882895,-0.08353629,0.13262674,0.17227842,-0.06866884,-0.03171516,-0.09263649,-0.026315968,-0.09863071,0.12202865,-0.036435414,0.024939813,-0.007549052,0.0030662734,-0.07552764,-0.052964747,-0.0009712648,0.0653397,-0.07021269,0.09454601,0.0037211701,0.009746048,0.0066592,0.07460962,-0.039380368,-0.024323765,0.060337715,0.10754497,-0.027523074,0.079484805,-0.0072069587,-0.05582307,-0.037104774,0.05441392,-0.04561523,0.117094316,-0.09624251,0.105093494,0.013675934,0.014560002,-0.011320738,0.046063874,0.0848982,0.09721854,-0.07121793,-0.08038207,-0.04072828,0.057386085,0.10020654,-0.09622726,0.14239226,-0.057814278,0.09446329,-0.045763075,-0.103626475,-0.108515345,-0.054994546,-0.05979765,-0.034434106,0.15911171,0.09815623,0.024531515,-0.04723231,-0.072460964,0.08938244,-0.09277232,0.00085942325,0.114139944,-0.00867632,0.04151727,0.100287974,-0.024517976,0.0126861045,-0.057098385,0.054272115,0.0040079635,-0.006553121,0.09641552,0.07987765,0.022814678,-0.081449606,0.034615487,-0.013677703,0.007589354,0.0053575668,0.0071673235,0.110330306,0.008921244,0.07390883,0.010205064,0.062461622,0.008670163,0.15798004
0.025150197,-0.04516012,0.03529166,0.07506335,0.0024554417,-0.06343462,0.073106036,-0.029862389,-0.02913443,0.069962844,-0.10104245,-0.025612405,-0.0038537076,0.097790666,-0.09521345,-0.024505738,0.061589107,0.028969832,0.022926996,0.057021275,-0.015326341,0.09348034,-0.012393704,0.08755458,0.00041666286,0.06914099,0.044506453,-0.09447678,0.09103262,-0.0017470212,0.034389347,0.060637824,-0.043160465,0.07997843,0.045250528,-0.09145812,-0.05396788,0.0038197536,-0.02037723,0.0061823484,-0.02904256,0.08095499,0.05873656,-0.055771552,-0.05794357,-0.097519554,0.082281105,-0.0667118,0.031183979,-0.06792401,0.026593799,0.01598923,0.049700443,-0.010060544,-0.038688526,-0.018116966,-0.032550383,0.012524705,0.040474467,-0.030689659,0.096976124,0.09310624,-0.08875046,-0.08989038,-0.060267143,-0.009528908,-0.04585437,-0.09636176,-0.07410452,0.07456549,-0.00021219149,0.06718599,-0.053082865,-0.017807715,0.023952711,0.051458072,-0.07767221,-0.020171022,0.0059081386,0.074859925,0.08752196,-0.012173457,0.023707889,-0.041943874,-0.0053095017,-0.032485887,-0.014793919,0.019770559,0.02227009,-0.022545261,0.011799832,0.05810696,-0.09054939,-0.049523033,0.06361376,-0.067306176,0.003091795,0.04789757,0.06403058,-0.11231634
0.042551823,0.028956024,0.031708978,-0.079248525,0.028011212,0.06880554,0.09128567,0.036391806,0.0106650395,-0.047881603,0.07600393,0.058054294,0.081923105,-0.06275887,-0.023702605,0.07444051,-0.09096635,0.07200456,-0.098864466,0.092190325,-0.05450587,0.0064440714,0.06498854,-0.005388771,0.016013378,0.015781501,0.049063317,-0.043123208,0.051076017,0.029323537,0.023565464,-0.10402654,0.08877726,-0.0020192214,0.09189903,-0.022098284,-0.034122612,-0.083241016,0.09003944,0.021891633,-0.087855116,0.059542622,-0.063149914,-0.09974311,0.042369917,-0.099459454,0.065284826,-0.06601006,0.0048640454,-0.007889471,0.019611558,0.058696095,-0.06915269,-0.012056849,-0.10109291,0.013769715,-0.0009545544,0.038488492,-0.062293902,-0.09742375,0.028461948,0.10913959,-0.062404595,-0.053351305,-0.0036772755,0.06756655,-0.021817295,-0.030778429,0.06253296,0.084803276,-0.06607101,0.010714974,0.06980193,-0.012497455,0.08515326,0.0120378295,-0.059306443,0.004421776,-0.050906826,-0.06631638,-0.06901321,0.034853958,-0.0023233031,-0.09216948,0.0141264275,-0.023729175,-0.005217621,0.008977209,-0.06605703,-0.074145794,0.06727573,0.062314652,-0.029586911,0.05471811,-0.030876888,0.062394124,-0.088473864,0.05348019,-0.05019239,-0.02904232
0.00874114,0.0293031,0.06689472,0.08792615,-0.100173175,0.07247519,0.0065157847,0.08899379,-0.073885396,-0.14388,-0.18534124,0.014127875,0.028543161,0.14474268,0.064927526,0.027809244,-0.013808418,-0.11338351,0.031824585,-0.047387794,-0.027043793,0.056144286,-0.0510422,-0.036085315,-0.09736425,0.051818833,-0.16914831,-0.041121595,0.16007604,0.04054938,0.101913296,-0.06402913,-0.097951815,0.032333586,-0.0936225,-0.10062548,0.05181018,0.09747164,0.13641682,-0.0784362,-0.12626064,0.04890295,-0.10533077,-0.0020586874,0.060445964,-0.043594997,-0.017829362,0.07380661,0.104917414,0.22693096,-0.063190885,-0.07318838,0.05761286,-0.023288231,0.0012984202,-0.01336035,0.019053534,0.087487355,-0.045195814,-0.12243865,0.0513578,-0.03890448,-0.03934919,0.12139318,0.08374823,0.05280969,0.027555369,0.1568976,0.01906414,-0.028623639,0.06548542,-0.11847212,-0.060376376,0.052110698,0.13963121,0.04809294,0.03927894,0.058358774,-0.01121444,0.05968162,0.035882257,-0.072633885,-0.081360996,-0.05881121,0.051232096,0.05745484,-0.089157484,-0.0737181,-0.027011706,-0.027283266,0.051549986,-0.09090858,0.007740114,0.049406994,0.119542286,0.062035516,0.05275583,0.07739613,0.15432261,0.013692032
0.03281431,-0.06391499,0.0011088637,0.00083033484,0.040251594,-0.07179891,0.068799295,-0.0989925,0.07345507,0.037700582,-0.004887163,-0.049629077,-0.08268424,-0.09629764,-0.0650769,0.013058328,0.040417835,0.056077477,-0.08917192,0.08165071,0.02090101,0.03757981,-0.057849474,0.03176999,-0.09973009,0.020464744,0.010184759,0.0035993997,-0.02387981,-0.02384559,0.039374202,-0.035335615,-0.090126105,-0.050605614,-0.029849542,-0.008594264,0.07955074,-0.09748396,0.09240617,-0.084424,-0.013330461,0.064575404,0.012901561,0.003467161,-0.055676505,-0.028529853,0.04017198,-0.017161643,-0.10592881,0.0070087006,-0.04595716,-0.055171207,-0.042989936,0.04105573,-0.021507472,0.091730595,0.08622381,-0.032666672,0.0362017,0.05276962,-0.04897984,-0.000540589,0.011012111,-0.04164634,0.0009108019,0.07278246,0.03957031,0.017404504,0.009048251,0.07536593,-0.095833324,0.07175573,0.051690035,0.06557978,0.00827911,-0.08220668,-0.0980245,-0.06616975,0.038256433,0.062195946,-0.034193214,0.030474395,-0.05379228,-0.08261422,0.06458819,-0.09362102,0.0003724405,-0.080860704,0.0007063785,-0.008048556,0.04012668,0.0404917,-0.06003293,0.051961515,0.026868207,-0.01621468,-0.023403052,0.06410384,0.011054062,0.0320273
0.14854766,0.1546269,0.102588296,0.052755084,0.061416503,0.060711164,0.13263473,-0.0704255,0.030289577,0.15626508,-0.018615419,0.11251937,0.030838052,-0.09222854,0.08178656,-0.06938329,-0.0025730862,-0.10627969,0.08046881,0.00795713,-0.01670642,0.01445923,-0.10497518,-0.061790705,0.070137024,-0.06775307,-0.026867243,-0.0040058717,-0.023835625,0.037571616,-0.04010529,0.042238675,0.09926231,0.10518276,-0.08118158,-0.113902315,-0.1012681,-0.0007847826,-0.033732988,-0.086905375,0.054420013,0.051154956,0.06053369,-0.026950512,0.10679166,-0.020574372,0.0024517016,-0.041285682,-0.046459284,4.2624568e-05,-0.07941386,0.007804861,-0.04226709,-0.018103356,0.035833362,0.03601945,-0.0325014,0.11848372,-0.059684608,0.012303717,0.13518737,0.017927986,0.10901632,0.13879389,0.086325996,0.15285084,0.079879135,0.1479439,-0.07781338,-0.0044334894,0.086207055,-0.11362772,-0.085758634,0.0037839334,-0.10019439,-0.019188851,0.017145399,0.07388863,0.009843366,-0.019595558,-0.077328436,-0.11503896,-0.040540386,0.06819648,-0.0162741,0.09173822,0.026160566,0.13890556,0.099482074,-0.07669459,-0.036404103,-0.06817432,-0.101871535,0.07385485,-0.059883576,0.021155458,0.03970406,-0.0429686,0.030391185,-0.15455215
0.0015455334,0.06604183,-0.021952432,-0.024607396,-0.075133964,-0.063085325,0.1008465,-0.032196928,-0.017378414,0.013625993,0.020682976,0.04894723,-0.037217844,0.0439949,0.03917156,0.009970239,0.06808719,-0.04609865,0.15993963,-0.12793311,-0.081569575,-0.08940017,-0.07716946,0.0012591549,0.016593033,-0.0074454756,0.09538895,0.034416977,0.05021508,-0.09188681,0.065696314,0.04105365,-0.13016278,-0.08649107,0.008246668,-0.03518175,0.079578415,0.053511355,0.061633363,0.046946965,0.065327056,0.1272581,0.069505185,0.017765353,0.0054807877,0.020551996,0.05267045,0.03341213,-0.09718424,0.029679246,0.06541051,0.070470534,0.026840063,0.04355674,0.07832323,0.09672141,-0.039532904,-0.011409215,-0.03030298,0.035638068,-0.021080315,-0.0022943225,-0.026889432,-0.05460962,-0.0680783,0.123308495,0.06958624,-0.0010488289,0.069060735,0.0356965,-0.020710226,-0.16726455,0.10344527,-0.042904727,-0.045474306,0.08822879,-0.12075062,-0.015473967,0.005797559,-0.018330868,0.114545725,-0.02307277,0.11053354,0.1406867,-0.09286331,0.033583608,-0.060464866,0.1075645,0.12783293,0.10765211,-0.120462745,-0.047097772,0.0423032,0.069443665,0.05159622,-0.010605422,0.046090145,-0.09279214,0.11251341,-0.061943576
0.12198596,0.14380608,0.021942053,0.08488194,-0.1366944,-0.11129295,-0.039021727,-0.035807535,-0.1057206,0.0055943243,0.008288686,-0.072958596,0.08973179,0.0448693,-0.024149083,-0.03777502,-0.06881888,0.07628326,0.15050995,-0.06143848,-0.055536114,-0.01856616,0.08248422,0.05785572,-0.04087231,-0.02043737,0.0024924818,-0.010573672,-0.06386837,0.09502339,0.076182455,0.09764513,-0.070412114,-0.00037030596,-0.08692096,0.1163761,-0.049640566,-0.0059417277,-0.06508281,0.013432885,0.15493543,0.17515896,0.07795005,-0.07382137,0.05496183,0.018273367,-0.09321168,-0.07438744,0.03374202,0.11199311,0.05260545,-0.07662158,0.045340333,0.020932509,-0.054146927,0.03604693,-0.047774374,0.07279978,-0.1079991,0.091365,0.069930755,-0.010813405,0.067463756,-0.018832492,-0.07438151,0.04814099,-0.09695155,0.09851109,-0.0094759455,-0.023719111,-0.040712934,-0.027124098,0.11566947,-0.0826493,0.0324979,0.08969756,-0.1626681,-0.053768728,-0.022092413,0.15944026,-9.4198826e-05,0.08464414,0.01650562,0.15926395,0.046477497,0.15789954,-0.086802326,0.017298652,0.16206071,0.090817,-0.0072175935,-0.06313806,0.07161239,0.026861222,-0.085414454,-0.091398,-0.06064706,-0.058643732,0.007815883,0.0020171802
-0.08624784,-0.055489916,0.0030885779,0.020496711,0.03417957,0.015582859,-0.037479058,-0.0735374,-0.081886835,-0.05719755,-0.037267376,0.04993208,0.10008416,-0.035765864,-0.0923155,0.09050501,-0.0267324,0.033742044,0.03783513,0.0050310916,0.0781031,0.080621846,-0.047663778,-0.08653021,-0.07190553,0.046397567,-0.029600516,0.07806018,-0.0012084245,0.07530361,0.027063875,-0.025683755,-0.068971574,0.10357104,-0.059810612,-0.025113428,0.021595167,0.100205004,0.09540675,0.011479996,-0.09723002,0.0064754393,0.041807532,0.044859096,-0.03401158,-0.047058344,0.054044414,-0.030446297,0.032751583,-0.019494563,0.05121485,-0.007452366,0.04932189,0.036837187,0.062003106,0.04024308,0.082276054,-0.07822882,-0.051661555,-0.010947291,0.106186345,0.044292133,-0.052879687,0.09384766,-0.013451129,0.00024440888,0.07912955,-0.012022691,0.019153312,0.027090611,-0.061262406,-0.012413543,0.065033235,-0.08260153,0.07545216,-0.011966402,0.024905594,-0.075361446,-0.050955232,-0.034627013,-0.014852548,-0.08381166,0.032930516,0.051739,-0.0033935579,0.0008807259,0.103462785,0.01399464,0.07286002,0.018583676,0.0488963,-0.0023820025,0.009308327,0.0005617405,-0.09961526,-0.08744283,0.08372689,0.027056085,0.011544457,0.050117467
-0.039540242,-0.059681896,-0.06338668,0.072873935,0.027165923,0.020230606,-0.08623889,0.010277646,0.08770701,-0.023753287,-0.03679794,-0.051100858,0.084964916,-0.10191844,-0.010554412,-0.06632655,-0.042437226,-0.033222415,0.07333005,-0.014450513,-0.049520236,0.054871637,-0.06892119,-0.022542011,0.04891443,0.034694705,-0.09876911,0.059517253,0.12449275,-0.09356025,0.05360228,0.12487464,0.06713582,0.06778335,-0.039607957,0.09478203,0.057904698,0.04526252,-0.04668348,0.02847008,-0.076300405,-0.050109148,-0.11503514,-0.033948686,0.032462414,-0.10192845,-0.024363859,0.08016573,0.10821635,-0.00045249742,-0.008486297,-0.07422582,-0.08792794,0.11183748,-0.039826438,0.019725183,0.104661286,0.102134444,0.017038824,-0.028509535,0.07743193,0.023286194,0.045599863,0.0640675,-0.045234736,-0.008820602,-0.00947328,-0.0571164,-0.06247491,0.076722175,0.010576063,0.018988473,0.026616294,-0.029803684,-0.03549902,0.08334245,-0.002893352,-0.025332507,0.0553961,-0.017046876,0.021177972,-0.01745044,-0.10208267,0.06365644,-0.04850448,-0.009843438,0.010440734,-0.030823302,0.046062678,0.092164546,-0.10796677,0.072866336,0.098697826,-0.03443146,0.05482787,-0.06714228,-0.075387016,0.06665566,0.008571949,0.08896865
0.19758551,0.06591325,-0.045491852,0.011098108,0.10326111,-0.014422401,-0.006766492,-0.028021226,-0.0056005204,0.06301275,0.0887097,-0.072001494,-0.031851247,-0.062271245,0.01895173,-0.021422258,-0.11327651,0.004230553,0.043171674,0.0657663,-0.008904929,0.035248324,0.08769852,0.11620269,-0.016114559,0.036183532,-0.02663893,0.061058197,0.056560326,0.05663812,-0.066209,0.12179436,0.058961596,0.07743082,0.076075666,0.046218496,-0.082503475,0.06488759,0.10558709,-0.023913043,0.020858208,0.049237177,0.017268654,-0.023381868,-0.01574102,-0.041956425,-0.08012758,-0.080674805,-0.066836335,-0.024885647,-0.03955789,-0.022105405,0.007227427,0.058385942,-0.119794115,0.0285732,-0.05813932,-0.0626837,0.044104353,0.024095789,-0.0657978,0.2064518,-0.06932677,0.0834169,0.008856467,0.0817385,-0.038018826,0.051743753,-0.13021612,-0.07676157,0.06909552,0.05455421,0.073807,-0.057880726,-0.11004253,-0.06885812,-0.0961183,0.038758136,0.12744002,0.055044193,-0.09334401,-0.12241462,-0.026518948,0.1379177,-0.004310222,0.06982134,0.062331673,-0.03242924,-0.04733557,-0.017915605,-0.12878707,0.09051916,-0.07267699,0.037762176,-0.023297226,-0.071205534,-0.04046526,-0.036046654,-0.009041786,-0.053454425
-0.096981235,0.010802213,-0.017364703,-0.03628733,-0.0064558997,-0.0660411,0.070075676,0.09540076,0.09341483,-0.01926693,-0.06836091,0.0069620316,0.020708553,-0.012024271,-0.049638905,-0.053110484,-0.011984988,0.08483141,0.07219213,-0.004767447,0.05100988,-0.08764833,0.054630697,0.043160196,-0.060933676,0.023286864,-0.08269505,0.036903474,-0.005873438,-0.07974227,-0.07954757,-0.09759716,0.045107223,-0.016157487,-0.07797814,0.014653626,0.077616155,0.02907869,0.09645631,-0.008707498,-0.022840213,-0.023152702,-0.08025976,0.09517455,0.0067414087,-0.06184566,0.097542845,-0.042629447,-0.068899296,-0.07036465,-0.0076435655,0.040314075,-0.06590526,0.055901706,-0.0680379,-0.04162303,-0.09490871,-0.021267252,-0.09320011,0.0049081384,0.06170596,0.08689698,-0.055719826,0.061488103,0.01163208,0.03396169,-0.05275893,0.0039944006,-0.0581114,0.066833444,0.07652463,0.044939473,0.09692144,-0.0019042809,-0.080923066,0.059585094,0.06279427,-0.09694143,0.00085673115,-0.09026044,-0.079342484,-0.0650576,0.051570825,-0.080632724,0.05184521,-0.051527478,-0.08923025,-0.09282187,-0.07573609,0.011798909,-0.011175527,-0.0805305,-0.004156672,0.048405312,-0.06617263,-0.03707194,0.09424245,-0.048376903,0.055003196,0.08596236
0.054881368,0.004569178,-0.054016132,0.059442934,0.06004258,-0.083223425,-0.03673824,0.076802135,-0.05373849,-0.07154854,0.044713542,-0.10694374,0.045028895,0.0009090113,-0.050679635,-0.05558264,0.083131604,0.054369047,-0.08470218,-0.022285938,-0.037463475,0.06965393,-0.006631532,0.08527961,0.052826185,-0.047342837,0.15499215,-0.032319173,0.09858466,0.09995099,0.07656035,0.10149082,-0.104243025,-0.017189281,0.06910305,-0.053155042,-0.040692747,0.033325024,0.06715682,0.056715116,0.045545585,0.04864909,-0.07292074,0.0064075054,-0.044321965,-0.06927781,0.08048223,0.09359103,0.013021547,0.03517609,0.06443321,0.0723581,-0.034930684,0.1080697,-0.031543273,0.017880853,-0.052020486,-0.029831413,-0.081143,0.022978807,0.034740426,0.050916724,-0.06982772,-0.10470493,0.03454736,-0.053990327,0.029964317,-0.11229408,-0.102906905,0.013805161,-0.098249696,-0.08562596,0.07473977,-0.0055480055,0.053499214,-0.012441427,-0.021236084,0.0102963615,0.080157995,0.1022764,0.076809116,-0.029349707,0.08472013,-0.027160486,0.09174213,0.033053692,0.021653542,0.05856695,-0.08552875,0.05239065,0.101508215,-0.08315584,0.14790025,0.036641456,-0.034190632,0.07907742,0.056658216,-0.010063653,0.030650986,0.15604563
0.177187,-0.019578028,0.07461009,-0.058452096,0.13960385,-0.02999708,-0.011082866,0.08415698,-0.015674664,0.17441802,0.0057306336,0.112379596,0.016195467,-0.09933503,0.014501427,0.058267005,0.06576101,0.12565084,-0.06108177,-0.012790837,0.076502405,0.041829143,-0.07865876,0.04752589,0.00422842,0.10439435,0.13148743,-0.011753262,-0.014238276,-0.041616336,-0.014980032,0.10553371,-0.07637493,-0.07978135,0.09649696,0.056185957,0.04971794,0.0011294881,-0.0013585014,-0.08552426,0.08086264,0.0021347385,0.09913077,0.00048751486,0.09404368,-0.024802223,0.07465993,0.09720842,0.061613843,-0.017730957,0.11744875,0.041202754,-0.057711642,-0.0033931849,-0.033560146,-0.041156232,0.00037516007,0.10435133,-0.006004995,0.032458276,-0.034767546,0.12089683,0.016498612,-0.022259908,0.011774548,-0.10105812,0.13998227,0.09919381,0.017815055,-0.017562384,-0.0019511183,0.10546529,-0.06936262,0.1469522,-0.081644095,-0.059618145,0.088343754,-0.05355244,0.030722776,0.12889804,-0.10686915,-0.019168194,-0.039047617,-0.11546622,-0.09278729,0.11034542,-0.05789929,0.054434355,0.066571966,-0.09138952,0.02663243,0.06146971,0.011238734,0.035453998,0.1378275,0.0063703354,-0.087373845,-0.041639123,0.02458628,0.029044697
0.029836424,0.017982965,0.047053937,0.027192743,0.016852912,-0.07338378,0.11282999,0.025733456,-0.036733516,0.104317784,-0.075713985,0.1049309,0.06944649,-0.019476118,-0.011453135,-0.066741124,0.09593942,-0.08519818,0.060656678,-0.018735891,0.048605405,0.016159203,0.058902226,0.06177713,0.075890064,-0.05195975,0.08059326,0.09418191,-0.103090845,-0.0041541723,-0.09499398,-0.06458759,0.1258785,0.08454724,-0.08244007,-0.054781016,0.07584969,0.10244616,0.055253386,0.06923391,0.11618745,-0.06728138,0.08391173,-0.020437524,0.052475445,0.05321466,-0.033565965,-0.10653949,0.11831179,-0.0393443,0.1491548,-0.00505175,0.050440073,0.10072751,0.060615152,-0.07148337,0.025178036,0.071486615,-0.066770315,-0.05034798,0.019358749,0.11972693,0.14875765,-0.09469676,-0.07193909,0.18009965,-0.0944919,0.08050182,-0.05965428,-0.08163067,0.056168046,0.03483603,0.06790869,-0.1115282,-0.07991632,0.039434876,0.056948625,0.094665535,-0.027163042,-0.050119057,0.12519343,-0.060308643,0.09018542,0.1260884,0.024084827,0.043866355,0.16784164,0.03871571,0.06681618,0.17146622,0.030483369,-0.015983589,-0.02062192,-0.077364445,-0.105871744,0.10598927,0.04039578,0.034002937,-0.08640864,-0.08374961
0.025909822,0.07582877,-0.056438137,0.09164033,0.056592107,-0.012221403,0.034999747,-0.0076732,-0.0824447,-0.07260824,0.036102206,0.008852911,-0.06781817,-0.07045775,-0.042818997,0.06842598,-0.001425734,0.086594984,-0.088283986,-0.07007319,0.035006836,0.0057159304,0.07942358,-0.032649007,0.014751011,0.042550433,-0.05478835,-0.06255946,0.029938322,0.082955554,-0.07836664,0.00064834487,0.067605294,-0.025032397,-0.07597096,-0.034330986,-0.09800652,-0.08149646,0.030925086,0.002541154,0.058313575,-0.09392711,0.049680218,0.020105943,-0.08772353,0.087467015,0.06279176,-0.015805548,-0.08389964,-0.09142535,-0.06916948,-0.05056989,-0.038162768,-0.030757027,0.018454844,0.048113625,-0.0741184,0.07670828,-0.061987028,0.06390168,-0.060589686,0.07573192,0.06917734,-0.063997984,0.080861114,-0.06290285,-0.019033156,0.054721482,-0.095311075,0.09302142,0.017256541,-0.022979384,-0.053230632,-0.09167871,0.005891441,0.075465485,-0.0035590502,-0.021087132,-0.013321692,-0.05403426,-0.09717228,0.07851479,-0.07553867,0.046976946,0.037027124,0.03771322,-0.044535086,-0.05086069,0.08108505,0.09603088,-0.027515167,-0.027948689,0.07633327,0.087567054,-0.03237234,0.028674562,0.06368479,0.065642715,0.09054212,0.042016823
0.1057929,-0.015633631,0.024292968,-0.06113558,0.048826013,0.10922227,-0.005546177,-0.05514986,0.10635281,-0.06599145,0.13218458,-0.0037034536,0.113976456,0.030155517,-0.06639728,-0.061207008,0.110209465,-0.09289036,-0.10355409,-0.1139519,0.0058815116,0.016100235,-0.019077463,0.046650838,0.04081622,-0.068711616,0.02152905,0.08445583,0.054733485,-0.060213763,-0.0018436459,0.09407293,-0.050591156,-0.04790457,0.07018156,0.06341884,0.06551566,-0.07631221,0.048163433,0.09874188,-0.073514976,0.05397035,0.18095185,-0.04152298,0.1386665,0.080753595,0.065702714,0.15354408,0.09021378,0.16203134,0.11396592,0.09049441,0.0005291272,-0.032373536,0.012519483,0.0072300523,0.060680103,0.070777684,-0.06949103,-0.06183601,0.06384772,-0.05393738,-0.10631535,0.11635265,-0.041020285,-0.076612554,-0.0672478,-0.08516618,0.07185202,0.08465999,0.06988274,0.1006446,-0.056325324,0.088734984,0.006662432,0.0022343416,-0.06901653,-0.037731197,0.017102005,0.052061975,-0.02908751,0.01727619,0.084211744,-0.07284764,-0.0038293202,0.07113265,-0.0317827,0.029757954,-0.06253828,-0.08715909,-0.008808301,-0.030524647,0.042978857,-0.09261519,-0.04629136,-0.10530034,0.017708935,0.11186157,0.06485402,0.0271304
-0.09310049,0.084256984,-0.07454416,-0.041271117,-0.06522316,-0.09798931,0.087882355,-0.059613876,-0.050948136,-0.07983798,0.10847784,0.008168765,0.05337713,-0.044206504,-0.04491531,-0.111510985,0.08742029,-0.09700809,-0.05464675,0.0942278,-0.10907398,-0.03455294,0.08869514,-0.06710714,0.0792429,-0.047530565,0.053649254,0.041207004,0.033202946,-0.02110872,-0.08312186,-0.07987746,0.0070850574,0.11502043,-0.049020752,0.039122187,0.0032052153,0.15656824,-0.06593251,0.06410609,-0.04488131,0.100696154,-0.09587362,-0.031426027,0.08576622,-0.02153533,-0.01652052,-0.06084286,0.1414769,-0.04833339,0.0894347,0.03723393,0.05984196,0.039576046,-0.044695996,0.0559229,0.02610865,0.013157633,0.0686182,0.09921607,0.019331915,-0.0171289,0.13517952,-0.11237463,0.0054563624,0.047665942,-0.01344239,-0.0887644,-0.019350471,0.050121203,-0.08115645,-0.09213073,-0.080764055,-0.11412709,0.18469867,0.037220538,-0.06166886,0.08346581,-0.1038797,0.15718378,0.07934717,0.03560637,0.011550443,0.008282421,0.08686745,-0.00046047757,0.14220437,-0.091879226,0.1101366,0.14154482,-0.013420714,0.09613992,0.1532458,0.08747792,0.06969724,-0.049255762,-0.0067518135,-0.006753346,0.06062579,0.12245522
-0.019320954,0.012477314,-0.090060584,0.023678832,0.0072823516,-0.066799074,-0.038789324,0.014062755,0.08179819,0.008964569,-0.070934504,0.10846516,0.010090015,-0.06472668,-0.031947806,0.0112611065,-0.0343343,0.016046077,0.1188752,-0.02920242,0.053821962,-0.096564814,0.08739847,-0.011552839,-0.02346016,0.06915785,-0.050293054,0.07370493,-0.062219985,0.082298845,-0.014202886,0.040167388,-0.057950187,-0.03436131,-0.028882254,-0.009096883,-0.09025213,0.004245659,0.08384387,0.06484687,0.04835963,0.009770435,-0.12107446,-0.026726829,0.016830772,-0.1069448,0.00937486,-0.04110696,0.102409616,0.0088478215,-0.033157982,0.10407936,0.045191556,0.028647197,-0.000384238,0.059992965,0.01692036,0.011092448,0.06448289,0.06440866,-0.10415133,-0.04525774,-0.09465907,-0.058775257,0.063330054,0.08995004,0.103900224,0.094845496,-0.074181534,-0.08517472,0.008139936,-0.041636482,-0.091530494,0.04505077,0.10948092,-0.10135174,0.09856027,-0.017373154,0.047467433,-0.09558985,0.044372365,-0.016860822,0.0844408,0.014655537,-0.021767942,0.041645363,0.08091727,0.013773219,0.12904705,-0.06832857,0.08855063,0.018122876,0.066341236,-0.024458887,-0.015727246,0.023537353,0.019688666,-0.024306534,0.07558271,-0.059650928
0.0048211217,-0.08704566,0.02355504,-0.027955873,0.04602292,0.09132254,-0.058192678,-0.07361767,0.032444257,-0.08761708,0.034518175,-0.028079543,0.11169087,-0.042539727,-0.018424533,0.07283653,-0.017439317,0.05680484,0.051103197,0.008364614,0.08918066,-0.045642957,-0.03240471,-0.068349086,0.060157157,-0.006913948,-0.11197543,-0.060289092,-0.020025456,-0.048544817,0.027372075,0.08783877,-0.047408152,0.028850023,0.058891475,-0.01641885,-0.054406356,0.035297785,0.09497697,0.07555622,0.0147251,0.05784544,-0.08369199,-0.0464785,-0.070582554,0.017131941,0.080950126,0.07224072,0.12934774,0.14146689,0.023897283,0.03091835,0.028820923,0.005216875,0.0070105097,0.09026409,0.06246413,0.10177826,-0.01213159,0.07966065,0.019598786,-0.07391339,0.03203297,-0.06516005,0.049355377,-0.029240746,0.0095064035,0.08031127,0.080963135,-0.028360343,-0.05198176,-0.10598062,-0.06775386,0.037677284,0.035243742,-0.06729892,-0.095920034,-0.052703477,-0.046640486,0.12620938,0.09265461,0.07300204,0.05972702,-0.00880818,-0.074791454,0.0603896,-0.062195122,-0.09278448,-0.05466768,-0.064285554,-0.07805029,0.09712069,0.07357916,-0.105818816,0.043760426,0.048835147,-0.058450397,-0.084397584,0.008214867,-0.06774022
-0.012141371,-0.09109984,-0.06717859,-0.07519619,0.077613264,-0.02053747,-0.00198207,0.017551808,0.092743464,-0.0803852,0.05907798,-0.0046412013,0.07434024,0.034818877,0.000832792,-0.05402941,-0.05097473,0.00509357,0.02885673,0.048970167,0.020073107,-0.05664987,-0.017803458,0.07689512,0.02966927,-0.023076668,-0.040249813,-0.06363616,0.062454257,-0.04965407,-0.06406994,0.11816677,0.14001483,-0.074283145,0.15937287,-0.036247395,-0.046832953,-0.043139417,-0.09951948,-0.03808697,-0.06189183,0.0019452667,-0.10595695,0.019597178,0.08168241,-0.07414938,0.020317432,0.011536792,0.10651694,-0.093558915,0.10706422,-0.046646386,-0.09939095,0.10354833,-0.034097634,0.09574781,0.043391358,0.065977715,-0.05692297,0.0987386,0.0021915208,-0.078366086,0.026142824,0.06570689,0.07217443,0.032093756,0.009921285,0.0056773634,0.041204687,0.052838895,0.017578173,-0.016868807,0.04238912,-0.08648557,0.09865419,0.05116347,0.14001389,0.06306798,0.09353805,0.01684077,0.08761532,0.0050491523,0.03302938,-0.069102414,0.03592123,0.07407676,-0.051944867,0.058239993,-0.056850858,-0.016005851,0.0822991,-0.04297812,0.10116402,0.058816534,-0.03743908,0.061792072,-0.012904916,-0.049088795,-0.03769002,0.025993869
0.043500807,0.050291203,0.026885884,-0.04073436,-0.028775584,0.06915168,-0.0115538165,-0.027823066,0.09624239,-0.054748423,-0.020593971,-0.010345151,-0.079222895,0.08684804,0.08410517,-0.09820343,-0.03132326,0.09676962,-0.017675716,0.11295309,0.03971945,0.046272453,0.018060666,-0.0077455016,-0.034405343,-0.0939943,0.020532025,0.10501626,-0.009431228,-0.0400108,-0.048113894,0.08840777,0.045337636,0.106136285,0.17117254,-0.0015945068,-0.10612773,-0.021000259,-0.11651476,0.0121972915,0.05172174,-0.07450533,-0.13449003,-0.07788484,-0.028533233,0.06510934,-0.019927898,0.06180813,0.033919137,-0.09464089,0.047713052,-0.096891455,0.049343415,0.02149882,0.028166804,0.0072092703,0.09363277,0.068321176,-0.020228958,0.011754872,0.046948653,0.03132945,0.017266972,0.01702162,-0.042942632,-0.04228349,0.07627591,-0.023713134,0.08170561,-0.08261348,-0.0064247274,0.050723154,0.048057217,-0.014861135,0.0873899,0.07179667,0.15372586,-0.00839754,0.034662105,0.08160861,0.10485523,0.07275351,0.06037517,0.10831065,0.017280152,-0.006966066,0.1388347,-0.010947514,-0.063838325,0.11042064,-0.07992889,-0.08243034,0.09944541,0.06366572,-0.06561126,-0.03442046,0.02748034,0.0021639257,-0.03739805,0.054523434
-0.09399881,-0.04097019,0.078488894,0.041944753,-0.0673228,-0.06410964,0.05107415,-0.018517751,0.08098021,0.030611802,-0.027530469,0.07736065,0.039067425,-0.04800427,-0.056456324,-0.070730336,-0.09370827,-0.066015996,-0.03769721,-0.059303213,0.076377004,0.018075163,-0.044959806,0.07992966,0.072189756,-0.02887617,0.048079673,-0.06713183,-0.003057593,-0.024316179,0.06077429,-0.045802996,0.022670712,0.01705577,-0.0035903102,0.038297843,-0.03919073,0.03443524,-0.033765007,-0.05304076,-0.07192118,-0.059221964,-0.095696844,0.0864734,0.032272916,-0.0026248174,-0.08558171,0.03226032,0.039116334,-0.040629122,0.0976306,-0.07846364,-0.097328305,0.05247943,0.065086894,0.050807316,0.0118763745,-0.008661344,0.00041149044,0.04235186,0.026134687,-0.030356247,0.05663851,0.060142465,-0.04502861,-0.054225523,-0.06390683,-0.0111136595,0.012086951,-0.02760037,0.011071435,-0.048231173,0.02936503,0.006519987,-0.04330343,0.03860298,0.030194456,-0.006829501,-0.033082232,-0.091877066,-0.01118168,-0.0674761,0.016585378,-0.027945517,-0.03686792,-0.01750344,0.05759681,0.0971876,0.041675925,-0.0024398286,0.042899136,0.0903323,0.033401236,0.04959677,-0.009501004,-0.031652354,-0.043241374,0.009518302,0.04959106,-0.014447902
0.08062275,0.0076267826,0.06974041,-0.04404734,0.00013045539,0.068139985,-0.08933891,-0.0030636396,0.09849632,-0.113794565,0.10615849,0.05717849,0.095553875,-0.12738186,-0.068735205,-0.016632888,-0.0033442238,0.033493187,-0.011900703,-0.044482265,-0.043339144,0.13719578,-0.012662982,0.0044283597,0.02940349,0.05793326,0.008868319,0.054791503,0.124548785,0.0229329,-0.01417899,0.22087392,0.05687254,-0.06531353,0.020671612,0.039253082,0.08366199,-0.04232752,0.11250481,-0.063648745,-0.024052,0.094218545,0.08925517,0.014673396,0.023421347,0.0833994,-0.006438716,0.04181026,-0.026944675,0.13294327,0.054990903,-0.10948672,0.010825051,-0.058002815,-0.062446017,-0.08437854,0.09035927,0.018029736,0.08009979,0.087694675,-0.06921225,0.12385072,0.048838306,0.01966048,0.007374195,-0.053518616,-0.08780123,0.05766528,-0.03446803,-0.069649525,-0.07314315,0.07197386,0.13655755,-0.050688397,-0.03093876,-0.05769219,-0.1296229,0.08077262,0.12661056,0.089046,-0.091060914,-0.08135496,-0.10060906,0.071873516,-0.039366603,0.114999555,0.013873608,-0.08452746,0.016985595,0.009512001,-0.04266001,-0.038996704,0.10995861,-0.06860791,-0.02722676,-0.08251868,-0.0076714265,-0.10480323,-0.0664077,-0.019875465
-0.10617725,0.005601011,-0.0452488,-0.08863983,-0.092832886,0.0010052221,0.07459997,-0.004566859,0.03499216,0.1647176,0.052768536,-0.09303925,-0.0077242213,-0.010402148,-0.06026377,-0.021975454,0.08486264,-0.04625672,-0.01897911,0.067328796,0.025673024,-0.10276836,-0.041024163,0.05935441,-0.07699191,0.05027687,0.16879573,0.11064466,-0.045346394,-0.048680376,0.0011091463,-0.06090069,-0.089316525,0.094643615,0.08164114,-0.068198316,-0.10569927,-0.09330433,-0.054397985,0.051826604,0.13330364,0.014791844,0.116108455,0.006485673,-0.08913188,-0.055581998,-0.07650512,-0.05587696,-0.09549812,-0.034744352,-0.04109566,0.07615886,-0.023857744,0.003907239,0.093710706,0.08345801,-0.054190416,0.05279348,0.010200285,0.09698029,0.07668355,-0.074621335,-0.0014787348,0.06709981,-0.056902368,0.033075273,0.052471884,-0.034564912,0.11624925,0.0027382297,0.05474706,0.021561744,-0.075056955,0.05574984,0.1512136,0.12000907,-0.04660176,0.14447957,0.020474894,0.022637326,0.09300993,0.12225,0.16430245,-0.09731946,-0.097096704,-0.12401032,0.116077796,-0.10499963,0.10825353,0.073851295,0.041386776,0.05988021,0.07920719,0.02511008,-0.098635696,-0.14434594,-0.019003568,0.02808856,-0.048052836,0.19933143
0.076215915,-0.0035300932,0.090484306,-0.091206565,-0.038472936,0.046042576,0.03236211,-0.063627616,0.04053174,0.014608278,-0.10472091,0.07194887,0.04372425,0.0055743204,0.03284243,0.041258637,0.01587519,-0.0902532,0.055802193,-0.03308803,0.0626605,-0.011108208,-0.024939798,0.042064007,0.015371666,0.0626936,0.087561876,0.07436534,0.082371905,0.061382115,0.047808215,-0.08429142,-0.029020514,-0.024563618,0.05269135,-0.050150968,0.053510763,0.052448098,-0.052708533,-0.07409393,-0.08517057,-0.049304344,-0.019532325,-0.060790975,0.073403165,0.089097686,-0.052408043,0.09888971,0.011575146,-0.060437314,-0.04892567,0.0053268503,0.054366823,-0.06276557,0.06745731,0.053803783,0.030688474,-0.04318599,-0.09578747,-0.020466352,0.03150394,0.011412146,0.1058307,-0.06606884,0.097613536,0.039157443,0.083447814,0.12324353,0.009212791,-0.050884422,0.068434484,-0.010011027,-0.014483606,-0.024855498,0.047168687,-0.02885465,-0.024717443,-0.006831737,0.072931305,-0.07518142,-0.07805705,0.033178825,-0.082527265,0.055488836,-0.07821416,0.11334574,0.10171235,0.12584113,0.045790106,0.013884684,-0.07092438,-0.018092351,-0.08357339,0.08252474,-0.053455673,-0.049388863,-0.07501604,0.02965054,-0.095388904,-0.062161565
0.005518152,0.028485365,0.07446958,-0.06380021,-0.012136635,-0.071532145,-0.035249114,-0.08111793,0.0073144045,-0.00089995784,0.017562568,0.11488612,-0.03937765,-0.03945897,0.05310376,-0.09430479,0.104774736,0.12715697,0.056196176,-0.06570395,0.07339506,-0.052622702,-0.10518536,0.046010286,-0.04538543,0.093953595,0.07696666,0.084826596,0.022753755,0.10022098,0.03583031,-0.06627554,-0.037647948,-0.095082425,-0.015087333,-0.049629256,0.013537099,-0.10188718,-0.07571066,-0.06082016,-0.06436542,0.0103008235,0.0446829,0.047340337,0.03907558,0.023228897,0.04933962,0.023324626,0.05145366,0.057903975,-0.03135279,-0.036968485,0.065944366,-0.075053915,0.1161664,-0.06526023,0.06983295,0.07702966,0.04185123,0.056577433,-0.029794129,-0.06521472,0.033752274,0.06475822,0.116300546,0.060815282,0.18244377,0.060616627,-0.028516248,0.016035952,0.096354604,-0.06778554,-0.078012936,0.1132331,0.105153896,0.042726893,-0.02737007,-0.009832965,-0.04725919,0.07013919,0.005229679,0.013010518,-0.08597355,-0.01994299,-0.055184025,-0.0029048906,-0.07905555,-0.08966361,0.058254108,-0.09540872,-0.011846939,-0.057923086,0.06532989,-0.059158538,0.059681043,-0.057897337,-0.096857764,0.036235336,0.11011623,0.116679005
-0.017621351,0.03909013,0.02314216,0.024790263,0.081329435,0.049213737,0.043651447,-0.014119994,0.008837263,-0.06957953,-0.010571648,-0.06638199,0.055588786,0.07105078,-0.04386285,-0.05766574,0.06196541,-0.07794761,-0.056431714,0.005867409,-0.08780539,-0.096638545,0.054774243,0.036820665,-0.021279575,-0.0988303,-0.08105918,0.08288953,-0.07731257,-0.04221518,-0.007860307,0.010202602,0.05327403,-0.09887799,-0.08544126,-0.06487879,-0.012584807,-0.08466591,-0.025016114,0.05824757,0.057732046,0.08565032,0.0109990975,0.0065781944,-0.053987805,-0.09828904,0.075673774,-0.077325046,-0.012243061,-0.066662736,0.060925797,0.0051422804,0.08422342,0.052167095,-0.067836754,-0.022734655,0.07969105,0.058398977,0.07989187,-0.0137037,0.09925126,-0.06269392,-0.091161944,-0.08328097,0.074552424,-0.05672495,0.012276227,-0.0036601517,0.028307639,-0.07965183,-0.020678034,0.013571386,-0.056299232,-0.09399794,0.011382369,0.029405743,0.037621386,0.00651504,-0.036474034,0.020911459,-0.0064049875,-0.029462863,0.05030315,0.087889366,0.01558891,-0.072837226,-0.061490305,0.053115774,0.0624193,-0.0399012,-0.061521757,0.05233136,-0.01726794,0.066927716,0.058191355,0.08569281,0.018438885,-0.021141274,0.07132336,-0.022954227
0.057551935,0.009890886,-0.021388488,-0.076653406,-0.08053704,-0.009859755,-0.06955809,0.0025208124,-0.008105322,-0.040022872,0.0057067396,0.064652815,0.068836816,0.018832223,0.069866315,0.0011197936,-0.031770673,0.06398835,0.11001146,-0.04480799,0.07497618,-0.015980897,0.033288587,0.032670416,0.048552204,-0.10715715,-0.038818486,-0.083570845,0.10495932,0.041191556,0.014321263,-0.018630022,-0.061221737,0.019337889,0.074452095,0.052848656,-0.07444749,0.15481134,0.0100234905,0.09417391,-0.053274848,0.039065767,-0.10719019,-0.06547214,-0.05682494,0.039004054,0.08179432,-0.05428263,-0.01036997,0.029981619,0.0051457724,0.0096905455,0.008688619,-0.0652349,-0.055525146,-0.053313434,-0.06269689,0.017720878,-0.043863997,-0.046593796,0.05276068,0.005443778,0.10554982,-0.03309424,0.056812823,0.13292965,0.07088578,0.05466845,0.05890187,0.09264041,0.067703836,0.021530818,-0.10214033,0.01269062,0.023384303,-0.09170261,-0.013070928,-0.04662056,-0.045808777,0.03212892,0.013619632,-0.030932637,-0.020482948,0.12875545,-0.08349007,-0.08161188,-0.03929664,-0.053317573,0.1448653,0.12019848,-0.08799377,0.02996511,0.06766497,-0.09605023,0.058446333,0.09151371,0.06288977,0.09351425,0.13396992,-0.09444217
0.17689706,0.035173733,0.08347865,0.07555416,0.050489426,0.0056409184,0.012548605,0.04120595,-0.081910565,0.1285524,-0.06700272,0.050163835,0.019811748,0.005913162,-0.012020682,0.08410688,-0.049532164,0.08500453,0.09197365,0.00031784287,0.10495347,0.04188873,-0.014332164,-0.00896616,-0.0038599698,0.02296498,-0.03426944,0.02989086,-0.028207388,-0.092744425,-0.06114427,-0.11760601,0.021647643,-0.061758753,0.098205574,-0.048108615,0.07601402,-0.045610256,0.08405573,-0.06800767,0.10454346,-0.12208052,0.059425652,0.021726804,0.0187235,0.08060172,0.014195644,-0.08829831,-0.04094702,-0.022515556,-0.028949186,-0.014475393,-0.067787595,0.058789648,0.07063627,-0.00906564,0.0244371,-0.0071241143,0.054317687,0.032164484,0.011435343,0.15557559,-0.08579124,0.094898,0.07979413,0.07167137,-0.05313218,-0.059069075,-0.054540973,-0.06675233,0.07897218,0.042130046,-0.089113,-0.02302898,-0.07713652,0.023887053,-0.0918974,-0.055798903,-0.008662578,-0.09004672,0.03684021,-0.057064965,-0.09913895,0.051572755,0.094634876,-0.057806328,0.053456023,-0.03709143,-0.0168774,-0.05705705,-0.10284808,0.071378574,0.010868519,-0.08301571,0.026347477,-0.06951929,0.07996297,0.035801433,0.024981482,-0.104119055
