-0.0030356762,0.019971019,-0.09801664,0.0008772182,0.05159742,0.0009397886,-0.101940736,0.009218161,0.067263864,0.0891992,0.050942793,0.14688762,0.0698771,0.022158414,0.03212629,0.007662951,0.10236881,-0.091033295,0.01801733,0.07473994,0.08491902,0.044607755,-0.08424277,-0.04167761,0.036940403,-0.04734226,0.029555568,0.04094212,-0.10401796,-0.09870902,0.08518069,0.054915853,-0.05246254,0.051562406,-0.0011526447,0.057760347,-0.09603352,-0.013368398,0.04321388,-0.040437784,-0.065705106,0.053975858,0.13743983,-0.024746193,0.07587588,-0.0051390594,0.030263567,0.062101524,0.041625954,0.09555485,0.019363595,0.016224468,-0.045681685,0.025193669,0.00026217016,0.074345216,-0.013347362,-0.08934353,0.07093754,-0.057403035,-0.047775563,-0.04463933,0.015620303,0.05364335,0.060270257,0.030479524,0.066604115,-0.069746055,-0.008048761,0.007714545,-0.02667649,0.076422736,-0.027220774,-0.06678187,-0.07241164,0.045527473,0.07210332,0.12417519,0.09056826,0.04635135,-0.051086303,0.0032071117,-0.09040701,0.009663758,-0.026490446,-0.043208484,0.13407156,-0.07696848,-0.058147527,-0.07628018,0.069758184,0.06383517,-0.06777017,-0.03847428,0.10728859,0.12566619,0.0020456184,-0.056432426,-0.06545377,0.07275538
0.02889569,0.038331892,0.024424188,0.014686591,0.040364668,0.07472865,-0.016496168,0.043953605,-0.09624573,0.122586235,-0.06894634,-0.009032874,0.028421974,0.06882528,-0.041103624,-0.057723153,-0.035407543,0.041862447,0.0070972433,0.06389473,0.08125686,-0.05142771,0.030441206,-0.017374897,0.014242339,0.07282942,-0.09980939,-0.028838066,0.030752547,0.026152313,-0.0054502347,0.05393008,0.07175875,-0.056461073,0.0021859498,-0.07938208,-0.060328227,0.015107562,0.08967634,0.12203836,0.03494366,-0.032383163,-0.09703858,-0.06442517,-0.040266756,0.0341541,-0.046078958,-0.09408375,-0.008133426,0.06492811,-0.09790623,0.024456594,-0.09034983,-0.023887504,0.07277903,-0.05461719,0.06536897,-0.07544781,-0.061226916,-0.107747786,-0.042632114,0.021211838,-0.027587874,-0.033420388,0.05303516,0.033134893,-0.05896301,-0.08102183,0.045479264,0.11881626,0.0020408675,-0.045544263,0.024270533,0.12592436,0.0185792,-0.09753867,0.11597743,0.013777461,0.04197355,-0.06986665,-0.009024573,-0.038937777,0.06070473,-0.0060476265,-0.056629814,0.011295829,0.0039549745,0.03867583,-0.050468888,-0.027635459,-0.020011492,0.070401125,-0.091977164,0.023410833,-0.083496094,-0.03170066,0.02233671,-0.10613371,0.08103373,0.0068523176
-0.022011781,0.0060461913,0.102592744,0.047483515,0.004214879,-0.04400253,-0.03672641,-0.044652037,0.043017715,0.059020504,-0.06930086,0.0071122763,-0.08367141,-0.00870691,-0.01622464,0.07707042,0.107258126,-0.013516789,0.09005246,0.05144435,-0.09633715,0.07947529,-0.08282795,0.016021125,-0.0017481281,-0.058865108,0.015928177,-0.01966245,-0.012094043,0.0493008,-0.06577955,-0.03712525,0.031763274,-0.038432743,-0.009352487,0.020195698,-0.0058816117,-0.03351368,0.043728214,0.118026264,0.0035626236,0.1088901,-0.0073875776,-0.028122796,-0.0025741272,-0.06047108,0.03893716,-0.018374968,-0.07075698,0.022642111,-0.034747355,-0.06691601,0.07920008,0.027221307,-0.035924397,0.06638625,0.073451184,-0.04988291,-0.037238467,-0.08438636,-0.05129012,-0.014933536,0.09549089,0.013359481,-0.024833322,0.050242744,0.0008536336,0.027637674,-0.015879838,-0.0030419047,-0.06482048,0.09798066,-0.058483798,0.044046804,-0.02885835,-0.057960574,-0.046494227,0.033119693,0.01904762,0.06958827,0.046582982,-0.0136465635,0.006126268,0.01747638,0.00886402,-0.057987582,0.047111597,-0.004519738,-0.030660309,-0.056043215,0.068310216,0.019061435,0.0041496824,-0.022286175,-0.082344726,-0.10074721,-0.026117882,0.104133025,-0.05078544,0.076942
0.0745795,-0.07382072,0.068957515,0.06327479,-0.02105312,-0.049030013,-0.017903183,-0.018770617,0.029573241,0.05162827,-0.06493896,-0.08672136,-0.029760242,-0.052312173,-0.06996462,-0.06968871,0.031840917,-0.07450365,-0.06849196,0.032678295,-0.057310265,-0.067754984,-0.058809,-0.08606065,0.09616137,0.002074315,-0.08080919,0.09569182,-0.097148955,0.039513756,-0.08313532,-0.037840877,0.08623589,0.038809948,0.06238904,0.054757398,0.01327967,-0.08692682,-0.07775917,-0.0015165429,0.004530717,-0.092330374,-0.014658533,0.06508187,0.003498493,-0.09219329,-0.022400957,0.009874055,0.06885514,-0.024342999,-0.027963774,-0.08914448,0.049537744,-0.012363852,0.0015236443,0.024345947,-0.021752253,-0.066359416,-0.06517889,0.029511377,-0.054052107,-0.042411428,-0.05273304,0.07020296,0.049298562,0.063829355,-0.050071657,-0.0055058063,-0.027860142,-0.03910182,-0.015392083,0.054539517,-0.0639707,0.043421283,0.045484066,0.08745093,0.037278526,0.009234038,0.06977902,0.062950924,-0.038917296,-0.0060341065,-0.021008128,-0.028331183,-0.013152897,8.068062e-05,-0.064777225,0.073023245,-0.019668736,0.064097784,0.0646073,-0.045054074,0.08577748,-0.07590613,-0.0119674215,0.091415994,0.012779078,0.04069165,0.07974641,0.057443228
0.07258669,0.016053116,0.0651186,-0.09263788,-0.06587066,-0.0928319,0.03746726,0.024892654,-0.093945794,0.101173654,-0.16679664,0.15561058,-0.14038412,0.12122206,0.03291584,0.004210351,-0.04194643,0.045669995,0.04645536,0.09094333,0.08612351,-0.016937379,0.056025755,0.07340832,-0.08490949,-0.04073459,0.06639074,0.0021085206,0.0066171363,0.13091584,-0.029190673,-0.07270418,0.0015911232,-0.015983962,0.041359518,0.12947494,0.087296404,0.049531255,0.013489138,0.06744111,0.120174766,0.08539852,0.10662793,-0.10888161,-0.00630477,0.00832973,-0.030485844,0.07651231,0.018636752,-0.003269755,0.04977874,-0.07738945,-0.07522843,0.1128382,-0.08522358,-0.073611766,0.05028717,0.054571368,-0.118210815,-0.028773261,0.0038709182,-0.08210817,-0.0014511222,0.050555706,0.06982849,0.09810596,0.113536514,-0.12648417,-0.009134742,0.14583713,0.05555845,-0.08113097,0.1358543,0.0474342,0.07996035,0.072871916,0.12665005,-0.103347756,-0.08998897,0.02433296,-0.08632447,-0.09486962,-0.10722573,0.09585718,0.0724793,-0.07505344,0.06739844,0.041622754,-0.017870031,-0.014373015,-0.02750738,-0.0065392526,-0.052335273,0.14266585,0.018263914,0.040350117,-0.10129844,0.12927806,0.10078053,-0.04930668
0.024928343,0.0808256,-0.030100552,-0.05475163,0.014928296,-0.056051563,0.05144101,-0.07139184,-0.017513191,-0.040714487,0.033978783,0.041587923,0.020903148,-0.09038558,0.053084828,0.026406763,-0.060359217,-0.081094466,0.02505625,-0.03225442,-0.094245076,-0.04251131,0.04552208,0.060534477,-0.005342364,0.07339012,0.045873635,-0.0643388,-0.02986908,0.008092313,0.034040593,-0.017839504,-0.047779705,0.060642548,0.036571175,-0.015685167,-0.039654233,-0.06877063,-0.086005375,0.06975748,-0.0146300085,0.03788901,-0.09390467,-0.025541669,-0.08512981,-0.043112163,0.08299018,-0.09233691,0.08778814,0.01648037,-0.06523899,0.015624371,-0.023126975,-0.04541521,0.07447336,0.043768294,0.032051872,-0.024499848,-0.029044766,-0.002860936,0.059833854,-0.033541538,0.068898685,-0.09832785,-0.07116836,-0.07816596,0.07518709,-0.074830964,-0.05626755,-0.02775147,-0.05314721,-0.03089921,-0.083235554,-0.067893945,0.008013567,-0.06846017,0.09122731,0.060154434,0.07196244,0.09363318,-0.076826334,0.05491371,0.06100015,0.031981118,-0.08615339,0.012971722,0.07070391,0.03892929,-0.072566904,-0.09366621,-0.06512809,-0.07676711,0.0944418,-0.08987747,0.035844572,-0.06311518,-0.041799117,-0.0036578476,-0.0040611303,0.017574694
0.07976016,-0.055221893,0.0057035517,-0.034078524,-0.094012454,-0.041051846,-0.11423381,0.061116252,0.1686177,-0.1293598,0.09368331,-0.11801578,-0.07792198,0.09251909,0.0012574957,-0.16942142,0.0632898,0.14178921,0.031157698,-0.076064646,-0.12824588,0.03902428,0.08594901,0.03017186,0.13910303,0.22043593,0.0756966,0.038448405,0.101129316,0.036588803,-0.15477277,0.071236014,-0.07331646,-0.036370795,0.18887436,0.050628196,-0.03610301,-0.10755313,-0.08216265,0.018171411,0.09898179,0.06431054,0.10307873,0.081060216,-0.05028913,-0.053170282,0.0016411763,-0.057260394,0.10986569,-0.13560711,0.12636033,-0.09120846,-0.06575601,-0.048698857,0.08033509,-0.061895702,-0.20379663,0.0500656,0.009930494,0.17407215,0.21865396,-0.0891137,-0.10200416,0.07675323,-0.06263468,0.1392864,0.03411676,0.040709607,0.005188356,-0.090045586,0.1526331,0.019956674,-0.08308138,-0.035345867,0.050320964,0.09260714,0.0010268259,0.11411683,0.011552752,0.005997436,-0.059144575,0.015508973,-0.07066713,-0.062243007,0.09138577,-0.048639245,-0.050259773,0.06611116,-0.02754321,0.07968962,-0.10606328,-0.020321451,-0.089338526,-0.11222961,0.17619787,0.11364111,0.049005754,0.011029013,-0.045581717,0.11379702
-0.04772395,-0.078203805,0.047758132,-0.09703111,-0.089761145,-0.034700952,0.047294065,0.092822514,-0.0689934,0.045682773,0.05727199,0.15319134,-0.06864757,0.029906455,0.06587516,-0.052245244,-0.10158591,0.07868073,0.030905752,-0.008428455,-0.04007459,0.031372324,0.0036699541,-0.026471004,0.016928816,0.10474397,0.04285345,-0.08793605,-0.10270875,0.14509484,0.09940172,-0.09560769,-0.08660676,0.08691914,-0.028212072,0.16455553,0.06310761,0.1760574,-0.17330849,0.08757627,-0.09928536,-0.08356037,0.103480704,-0.07827069,-0.066901155,0.090998575,-0.077358626,0.052702077,-0.09085908,0.057851788,-0.0195879,0.12059688,-0.11488455,-0.01852749,0.07476945,-0.038784776,-0.024488768,0.043012906,0.13254829,0.077987745,0.14307238,0.043847226,-0.078032844,-0.07064699,0.06711471,-0.094252706,0.118765146,0.06155816,-0.03126968,0.12706321,-0.034137953,-0.0026550363,0.06578027,-0.11200847,-0.08432113,-0.020864671,0.13824968,-0.011529814,0.047649648,0.096377425,-0.036438882,0.05717871,-0.0760463,0.024679791,-0.0029597431,-0.04769326,-0.043861844,-0.03832064,0.014056243,-0.024377864,-0.07326458,-0.004861701,0.013052374,0.05826904,0.112245895,-0.07008738,-0.051171895,0.118210204,0.14080462,0.08013008
-0.11684726,-0.048070792,-0.031796716,0.1919067,-0.05438537,-0.026575716,0.08744672,0.048229624,-0.13381407,0.086784065,0.14592199,-0.17089273,0.12566017,0.042596668,0.09473218,0.11751499,0.021269742,-0.02770334,0.016246663,0.0560895,-0.0056109577,0.06718976,-0.064399645,-0.044626016,0.052795112,-0.052121766,-0.018785065,0.054622542,0.013498208,-0.05377854,0.13430148,0.08645106,0.013802865,-0.018799089,-0.061504688,-0.049626827,0.030719882,-0.06254754,-0.056981582,-0.07774103,0.021277841,-0.035746694,-0.028022405,0.096461475,0.07538713,-0.06525952,0.00522987,0.044398244,-0.12592225,0.16600914,-0.0144664105,0.11930403,0.06963412,-0.11949824,-0.08204983,0.0048717065,0.11107096,0.044234604,0.15706985,0.020280667,-0.07178662,-0.042654056,-0.03515603,0.08745689,-0.09313255,-0.0902669,0.06395395,0.15574624,0.0037314221,-0.043013748,-0.09135498,0.03412073,-0.03895497,-0.007851239,0.08188088,0.063976064,-0.07562027,-0.07265381,-0.040861662,-0.0709282,0.04959687,0.08775933,0.17004547,0.074256405,0.040714603,0.051188372,0.055411685,-0.09983083,0.021615267,-0.07828464,0.16945475,0.0050649187,0.10156647,-0.057688147,0.057625927,0.0028308493,0.1195784,-0.12858388,0.053112525,-0.07651512
0.09367909,-0.08213048,0.025439516,-0.01646436,0.072215006,0.007623278,-0.07669066,0.020028371,-0.037505627,0.11283172,-0.0021260125,0.057568036,0.012182358,0.11730745,0.051608503,0.04342121,0.12679704,0.18115838,0.042467896,-0.0041498,0.015011188,0.06939342,-0.019544158,-0.0014826559,-0.037384596,0.2079499,0.023263961,0.028175624,0.049637247,0.03277594,0.04722817,0.07849588,-0.012294487,0.08683986,-0.078087725,-0.102711074,-0.04930008,-0.123648055,0.056629375,0.15227441,0.16542368,-0.021166874,-0.061604667,0.055872496,-0.061162613,-0.03152302,0.07386358,-0.099846564,-0.018154785,-0.06872386,-0.09422337,0.032111946,0.07564853,-0.05874649,-0.015238424,-0.059450194,-0.0074131563,0.025560664,-0.1046225,-0.10628935,-0.055313773,0.097583495,0.08282762,-0.027677292,0.065320544,0.00982041,-0.09592632,0.07655307,-0.030035766,0.07496518,0.046937864,0.005505201,0.007102371,0.053766124,0.15291047,0.045021337,-0.113034725,0.023966553,0.035079494,-0.09916973,0.009747693,-0.001987707,-0.015851315,0.015155372,-0.029636554,0.04108039,0.108058006,-0.06847394,0.021632716,-0.03399334,0.052629393,-0.050381664,0.010473612,0.025780056,-0.117102884,-0.04383872,-0.07443694,-0.070405066,-0.0067897094,0.11962023
-0.074897535,-0.03614638,-0.08829158,-0.045100763,0.04188819,-0.04195196,0.0818781,0.0963617,0.020826662,0.14098857,0.023011561,-0.039672166,0.044235192,0.09043853,-0.055486888,-0.0404634,-0.08423889,0.041972246,-0.094198994,-0.016724648,0.13288344,-0.019970033,-0.026634267,-0.055675086,0.016605452,-0.14812073,-0.039211303,-0.0699008,-0.1244348,-0.137127,0.09606793,-0.040242452,0.02074697,-0.038954742,-0.098807715,-0.0002769248,0.09377542,-0.032119974,0.011056366,0.053139165,0.049275383,-0.07137048,0.07425357,0.078469865,-0.093903825,0.07820111,-0.001589901,0.061646204,-0.044341445,0.15320021,-0.022647379,-0.03270125,0.044213086,0.08705505,0.026641933,0.08578387,0.11753757,0.0073033376,0.09270923,-0.037394553,-0.015288003,0.0008294279,-0.054315407,-0.012786676,0.024950035,0.07645156,0.020082407,-0.10672456,-0.06081671,-0.09457259,-0.06057295,0.040926527,0.056924436,0.06990432,0.09145548,0.054348525,-0.06839229,0.0040929797,-0.033692643,0.11879829,0.029758314,0.11837927,-0.054826953,0.05006097,-0.07988833,0.06396679,-0.06433065,-0.028662572,0.053367563,-0.03704249,0.1202038,0.01305368,0.088417955,0.050049588,0.09881159,0.008720264,-0.090581656,0.0037529299,-0.119249836,0.047661845
-0.056195308,0.068827055,-0.1215577,0.033918552,-0.023327753,-0.08033495,-0.007099697,-0.08421943,0.15015578,0.10897108,-0.11365189,0.1716481,-0.074295476,0.0109786205,-0.06874301,0.0064022727,-0.08026724,0.16780743,-0.067143105,0.020810485,0.06488106,-0.010495502,0.008048207,0.10689409,0.06880232,0.12395708,-0.03339986,0.037670746,0.059068546,-0.060407426,0.040343016,-0.053912383,0.091978684,0.05699266,-0.05585333,0.017104018,0.085913785,-0.03030718,0.13595487,0.009857056,0.11019305,-0.027055163,0.12135974,-0.071190275,-0.077947184,-0.03869393,-0.048275582,-0.012623831,-0.044531666,-0.0061311168,-0.043045077,-0.116739176,-0.06655983,0.18165238,-0.034720305,0.09903806,-0.040390886,-0.062406655,-0.03286108,-0.056588717,-0.013957883,0.07618554,0.04281821,-0.11780369,0.08771627,0.089885265,0.07550665,-0.0607419,-0.056403875,-0.017721355,0.14412265,-0.081918776,-0.07398794,0.095083386,-0.028784096,0.068053514,-0.12968446,0.051815223,-0.074527614,0.0065757306,0.027226979,0.069081195,-0.10987723,0.04962257,-0.09513476,-0.05790754,0.11788295,-0.013248819,-0.0815194,0.030298075,-0.06992317,-0.04621062,0.05156107,0.121097244,-0.061453536,0.07023419,0.029308686,0.1723895,0.059856534,-0.072238065
-0.0056907954,0.092635155,0.05737587,-0.008641712,0.0832295,0.08704243,0.002785265,-0.021109266,-0.02230049,0.101386175,0.007176109,-0.13978873,0.119882055,-0.031162523,0.061192583,0.101893425,0.08951063,0.011970976,0.08362687,0.048623417,-0.08328764,0.016329821,0.0883008,-0.08301903,0.0772458,0.004189547,-0.081489526,-0.07927288,-0.009808689,-0.0048003346,0.05018511,-0.014405604,0.088156335,-0.030820947,0.11956571,-0.015515295,0.05662243,-0.05310484,0.08305657,0.036516305,0.015039524,0.11483333,-0.023051325,0.016548883,-0.021975033,-0.012902184,-0.028452173,-0.08661231,-0.018920537,0.006220327,0.02525733,-0.045149576,0.08047474,0.008876,0.043464262,0.014887709,-0.04653076,0.031978384,0.029271778,0.033786353,-0.04374933,-0.053470396,0.07335799,0.06876311,-0.074378654,0.08420104,-0.0032408277,0.02022724,0.058070537,-0.066786945,0.08134733,-0.02858217,-0.07138734,-0.05973304,0.10389355,0.08071272,-0.008647719,0.025323922,0.104275465,-0.09167458,-0.038018495,0.11963496,-0.104064174,0.09173677,0.091835566,0.0385822,0.011761319,0.09723072,0.073302336,0.07335643,0.10577017,0.0407038,0.121999726,0.0151850935,-0.10278372,-0.04666107,0.01563634,0.10466287,-0.0893593,0.04722525
-0.12055323,-0.12125991,0.06707713,0.11269243,-0.058529258,0.039381955,0.09727173,0.040302195,-0.14920251,0.1212482,0.072224915,0.06556782,-0.038841743,0.07393293,0.06998526,0.11141744,-0.052350365,-0.024910633,0.03841131,0.08989255,0.13232523,-0.037462257,-0.066276126,0.07043708,0.10439078,-0.0140209,-0.052745454,-0.08543173,7.413484e-05,0.16834497,0.030614,-0.010703141,0.10018734,0.048814707,-0.029170176,0.02253525,-0.006669393,0.07326295,0.06919166,0.124119915,0.01908344,-0.004840997,-0.15267539,-0.061890047,0.10750351,0.1264916,0.044045255,0.058350187,-0.050458618,0.06486815,0.032539673,0.10780844,0.10303854,0.038230024,0.02322195,0.02484804,0.10844488,0.046541438,0.16744567,-0.015383421,-0.012848625,0.09133142,0.08556007,0.14257805,-0.07378802,-0.076495856,0.027502224,0.08705622,0.018427754,0.10387667,0.036481697,-0.10700071,0.04699606,-0.01288423,0.02487696,-0.009079776,0.005588027,-0.082986034,0.02411099,-0.094146535,-0.099773966,-0.065945566,0.071587116,0.04152593,0.027553217,-0.09214157,-0.016987646,-0.07859195,-0.060973477,-0.05376878,0.11384268,0.06231918,-0.0133998655,0.09490949,-0.07622725,-0.1263976,-0.039522137,-0.07802591,0.07210878,0.044623915
-0.07224705,0.026692487,-0.09179243,-0.081828915,0.022796392,-0.041272547,-0.06904583,0.010905219,-0.049078144,-0.05021479,0.07001553,-0.08878211,-0.0839539,-0.04366546,0.06107283,-0.012014257,0.06658168,-0.03192166,-0.0031692467,0.00049793994,-0.08531724,0.069527574,0.07900573,-0.097664505,-0.05826458,-0.013179138,-0.017831184,0.08645341,0.047156323,0.060309805,-0.033116188,-0.009215939,0.083247654,0.0042023063,0.09239167,-0.09734731,-0.07137439,0.041664768,-0.0080627045,0.0824093,-0.03713467,-0.06637202,0.038119003,-0.09728737,0.006693992,0.013503708,0.020582076,0.013589982,-0.075825185,-0.053367324,-0.048856307,0.041633442,-0.01078059,-0.0999391,0.05634432,-0.017142512,0.07684449,-0.08903214,-0.061082967,-0.06007599,0.07175787,-0.055990964,0.022686342,0.027590435,-0.090530634,-0.0046767266,-0.05590277,0.09154925,-0.09417301,-0.0059246384,0.03456829,-0.05366469,0.04837271,-0.08053918,0.019586291,-0.058992255,-0.019910432,0.0047886535,-0.0050866385,0.06029034,-0.07135904,0.0104823345,0.0018506075,-0.07687013,-0.03824935,0.037085082,0.02408983,0.07479089,-0.04809631,0.034766003,-0.0841069,0.084809616,0.06780248,-0.07837442,0.008581088,-0.062118184,0.010319709,0.031085633,0.08541807,-0.07292275
0.028459886,0.0029711048,0.007690933,0.047179364,-0.044917766,-0.06928971,-0.07985321,0.0605201,-0.043924034,-0.025854887,-0.119526,-0.006019687,0.086681135,0.101343006,0.082542524,0.019215947,0.085168235,0.07116278,0.077156805,0.04818755,-0.096507184,0.04898466,-0.01078294,0.13053189,0.05949047,0.087212436,0.0021913685,0.07981018,0.04836502,0.06323529,0.04784796,-0.08563539,0.081964664,-0.06406781,0.10242926,0.062016927,-0.05275449,-0.10938024,0.0109522,0.1471027,0.116017506,-0.08913388,0.0953831,-0.09422133,-0.051980555,0.07177021,-0.11213578,-0.024728842,0.057629965,0.13616931,0.06524447,-0.027808169,-0.08167762,0.01989885,0.071491845,0.048450973,-0.064522974,0.06958558,0.067664854,0.029927172,-0.09427756,-0.08221222,0.035918288,0.043826375,0.022903979,-0.08686323,0.050985888,-0.060097102,0.04846325,0.14220005,-0.100028135,-0.046331014,0.09640349,0.044655886,-0.11055772,0.011302124,-0.077512905,0.06632095,0.07412991,0.022424614,0.018223211,-0.032624878,0.088392876,-0.05959338,0.013546526,0.024421027,-0.015531447,-0.0061173304,-0.06364576,0.018214894,0.045389824,-0.048107978,0.02145977,0.100521825,0.025292262,0.083384044,-0.0896101,0.06832431,0.050763216,0.057109974
-0.005366661,-0.0051460927,0.056433335,0.06519122,-0.06937977,-0.06682881,0.01816653,0.016731633,0.08621308,-0.0565978,-0.06957528,-0.05621991,-0.04425077,-0.0038744844,0.056313433,-0.0056653945,0.094518915,0.06036587,0.0630878,-0.058184505,-0.08832215,0.09405496,-0.026875794,0.07648557,-0.022048505,0.051888824,-0.08691581,0.0023999363,-0.021021586,0.043848094,0.027402014,-0.08288202,-0.0519372,-0.0009396124,0.035879426,-0.08438155,-0.021155998,0.02202185,-0.038327564,-0.06619317,0.07815547,-0.08738002,-0.06216318,-0.084730476,0.03939263,0.039153993,0.0930316,0.019917913,0.048872195,0.03745636,0.088443734,-0.061292727,0.016785778,0.0927691,-0.09059452,0.03580601,-0.03668438,-0.08612319,-0.07052238,-0.0064952658,-0.09103896,-0.08617087,0.03452181,0.015187814,-0.07849916,-0.059230395,-0.041895837,0.09886637,0.0994055,0.04475464,0.08974526,0.062360663,0.08262993,-0.064526446,0.02279527,0.098450124,0.008374077,-0.08072513,0.0029208586,-0.09955083,0.015036048,0.0301304,-0.0043874234,0.080085956,-0.045038704,-0.08337022,-0.080583505,-0.07660901,0.09853766,0.0034604068,-0.06887745,0.05724355,-0.04687081,-0.07411635,-0.08280999,-0.061946742,0.07819851,0.052068368,0.061791442,0.047330614
-0.061018825,0.0406467,0.078839935,-0.026741732,-0.065206274,0.07886411,0.08080156,0.062865436,0.035462912,0.0773913,0.050193988,-0.014118583,0.065981016,0.00746514,0.088158436,0.043152425,0.0096082,-0.014044895,-0.08900405,0.093391284,-0.09023762,0.03750404,-0.07856621,-0.083663575,-0.020425184,0.01704297,-0.042859025,0.05981777,-0.049336456,-0.057232127,-0.08407693,0.005044061,-0.015959667,0.06734558,-0.028532619,0.0643864,0.06332314,-0.04513918,-0.07908799,-0.014113212,0.058774225,-0.022520235,0.065972105,-0.061538924,-0.043926895,0.06834962,-0.007990434,-0.09384017,0.0574498,0.055306103,0.004671553,-0.0727541,-0.04113543,0.09093542,-0.051113162,-0.0879396,-0.024844285,-0.03321784,0.087121226,-0.09586212,-0.007111345,-0.06977596,0.07660356,-0.041883558,0.035599835,0.085954614,0.060475986,-0.049262524,0.07814834,-0.027384141,-0.045693055,-0.09874904,-0.014269784,0.0483537,-0.06783108,0.033938702,0.014865546,0.023458915,-0.042312864,-0.05558385,0.011284456,0.057477444,-0.07341449,0.021619378,0.06658149,0.016182844,-0.021822495,-0.059585992,-0.07883711,0.09610277,-0.007060802,-0.085180454,-0.047456104,-0.02759513,-0.094773345,-0.053484216,0.025899598,-0.0189768,0.051525887,0.066794455
0.07324527,-0.062713824,-0.006117744,-0.010249263,0.04635914,-0.043063,0.044266816,-0.0651215,0.09944856,-0.030262526,0.06995971,0.09225208,-0.09523086,-0.034022816,0.071340166,-0.04176344,0.057557948,0.015396222,0.017423706,0.081916936,-0.024318751,-0.020922072,0.12218301,-0.0032211414,-0.02027535,0.09505438,0.04883585,-0.036758248,0.016052099,0.1378129,-0.053567223,-0.04155281,0.098202795,-0.06330811,0.09514758,0.093182094,0.007934527,0.1437244,-0.17308308,-0.041438237,-0.036940724,-0.069066584,0.019048566,0.027962655,0.110738434,0.11397082,0.09687157,-0.001004542,-0.007337604,-0.08983737,0.08279797,0.09929728,-0.016301675,0.050717976,-0.07856818,0.10104666,-0.0194692,-0.07034938,0.13476679,-0.08097186,-0.04700442,-0.06922387,-0.07538865,0.15845843,-0.096240975,0.06113928,0.14937432,0.0006696467,-0.031922936,-0.06985593,-0.12771383,-0.005176411,-0.09920457,-0.060977638,0.04557367,-0.07076537,0.14696261,-0.008198597,0.11533426,-0.101833686,-0.07902202,-0.030413622,-0.018362738,-0.041969348,0.01282352,0.07731581,0.089444734,0.0024381424,-0.04551815,-0.06493554,-0.005618645,0.08687347,-0.10303403,0.09420397,0.035916716,0.04292952,0.10503004,-0.042636666,0.08211384,-0.08152289
0.09838304,0.025609331,0.07170812,0.068198144,0.017684799,0.08897804,0.15325701,-0.08865901,0.0788054,-0.15054338,-0.13675816,-0.035332605,0.05115176,0.009887528,0.01206863,-0.076327465,-0.050682686,0.18234974,-0.023169223,-0.0032001156,-0.10117256,0.01111565,0.07374594,0.11337286,0.12394922,-0.07211828,0.07004929,0.08785027,0.024769839,0.109867156,-0.12887605,0.096362695,-0.08387179,0.08013641,0.1157266,0.016277364,0.082613334,-0.11358175,0.0853211,0.036715753,-0.024829969,0.084862456,0.104347385,-0.19566838,0.10795825,-0.025788901,0.06775923,-0.02626062,0.055830587,0.12519306,0.10390735,0.053739518,-0.077348925,0.0017030197,-0.086550236,-0.02579098,0.08464472,0.044508215,-0.027265081,0.09845597,0.18379231,0.049866766,0.040191703,-0.004877436,-0.077161975,0.095572375,0.054271147,0.15335271,0.060517408,0.026854575,0.040370356,0.036676574,0.050197847,0.024462698,-0.04450018,-0.0140643595,0.07787865,-0.053110704,-0.06788188,-0.011115191,-0.08816209,0.092997335,0.081068635,-0.031005044,0.040187288,0.009000926,-0.11655042,0.024443086,-0.04615376,0.021574529,-0.026406439,0.05793567,-0.06254944,0.14874037,0.04382638,-0.16975243,-0.06425144,0.09942348,-0.007385492,0.027307812
0.011986184,0.069458395,-0.029111084,0.060659673,0.049426645,-0.099279575,-0.0088957185,-0.01712536,-0.011861809,-0.048979603,-0.041333087,0.14788781,0.024044272,-0.03248378,0.035446696,-0.15505542,-0.12696427,0.015123475,-0.04269102,0.062683456,-0.011583006,0.009299769,-0.049491163,0.029404078,0.10773121,0.11559037,0.014374412,-0.020002944,-0.1066482,0.08727013,0.087349504,-0.09795592,0.04646993,0.011494496,0.12536038,0.1286885,-0.07986178,0.16409653,-0.15027423,-0.094943225,-0.07440934,-0.05083761,0.050444048,0.030374145,0.10132766,-0.01863839,0.021158509,0.07773062,-0.078851685,0.007687133,0.08573131,0.12965894,0.0146379545,0.044313,0.033182614,0.083438866,0.06258402,0.09592241,0.069227464,0.12717289,0.11615894,-0.05927601,-0.049714226,0.06494528,-0.038470328,0.060056508,0.04608349,0.019158846,-0.060924858,0.08021517,-0.10806858,-0.10681435,-0.03536286,-0.047348488,-0.059542224,0.042147174,0.124287724,0.0031382453,-0.07532971,0.03561581,-0.013233153,-0.0680896,0.03815682,0.09034473,0.005645973,0.045866374,0.056441367,0.060451414,0.092263915,-0.0057241623,-0.082262546,-0.07994254,-0.04778408,-0.10027403,0.1691569,0.109376565,-0.09173257,0.06664299,0.09087336,0.019499414
0.03633196,-0.06250433,0.0072525577,-0.035993233,0.03333064,0.033409152,0.002287033,-0.040593404,0.041488916,-0.101219386,-0.028429171,0.02880497,0.09407075,-0.027583504,0.08068467,-0.09502312,-0.005575815,-0.022835227,-0.058488872,0.008524806,-0.0721409,0.077181555,-0.09315631,0.038447674,-0.017219082,0.082839966,0.0650821,0.008611257,0.02898301,-0.0094328495,0.014524929,-0.05857429,0.075253494,0.06847755,-0.006343543,0.08334238,0.096343435,-0.086343326,-0.09708168,-0.0036853743,0.010102194,0.029957432,-0.012897566,-0.008565727,0.0014390766,0.06897399,-0.020146657,-0.09056919,0.049396295,0.01188075,-0.0419692,-0.074748345,0.09734736,-0.07319704,0.08223804,0.056294348,-0.0208219,-0.014334109,0.07931921,-0.051787708,-0.09704999,-0.055942327,0.0028584362,0.05872916,0.045523684,0.064384505,-0.078798085,-0.09191192,-0.04740723,0.049477868,0.0502686,-0.074285544,0.08853925,0.09196101,-0.016582835,-0.07932371,0.077031516,-0.022458827,0.010767022,0.091877684,0.014768589,0.036574274,0.017858442,0.05637927,0.03000892,0.029780123,-0.09801456,-0.032794528,0.02743382,-0.07746943,0.013791352,-0.014993719,-0.002333043,0.050232958,-0.097581185,0.009181573,-0.015017977,-0.04395268,0.057213653,0.030215973
-0.0018110032,0.021719597,-0.043043476,-0.030673718,0.094660856,0.047158793,0.03665847,0.019764721,-0.053186357,0.08508229,-0.0039037685,0.003998221,0.027057251,-0.0020057082,-0.08706661,0.020522153,0.053252507,-0.086958274,-0.034403518,0.02019348,-0.076241985,-0.015542768,0.0997121,-0.033778608,0.0767649,0.018061891,-0.099024214,-0.0751483,-0.0077560223,-0.025802013,0.055016384,-0.060372762,-0.08612245,0.02020353,0.0758443,0.02377157,0.025944538,0.09854489,0.06719373,-0.035846442,-0.09681161,-0.055583455,-0.03204478,0.026058795,-0.002884608,-0.05278945,0.09665691,0.036343552,-0.09215011,-0.09130377,-0.04383482,0.089069426,-0.0461228,-0.027436875,-0.03938375,-0.05296428,-0.04256457,-0.097878,-0.071571976,0.048503358,-0.012275003,0.09913654,-0.08503532,0.053677566,0.018207572,0.06920501,-0.06980068,-0.011194031,0.03868147,0.015226643,-0.015070995,-0.08526959,-0.03970537,0.083532356,-0.070980765,0.03582435,0.012959691,-0.042747773,0.0026075472,-0.009053083,-0.014376402,0.052597713,0.04207755,0.031186722,0.050361253,0.03763672,-0.013832305,0.059914865,0.04939156,-0.08618194,-0.0704727,0.018167675,-0.01408194,-0.071269006,-0.060365565,0.0627812,-0.051356804,0.040862657,-0.08427238,-0.045989897
-0.030264111,0.091744095,0.05805192,0.13105826,-0.020386752,0.09228436,-0.024658598,0.081663206,-0.030679187,0.20221475,-0.009821219,-0.01066439,0.041233294,-0.0783601,0.08621884,0.09659351,-0.015305183,0.06270255,-0.04833059,-0.0112294955,0.017144764,0.009875317,-0.013023967,-0.06476536,-0.038874082,-0.07046427,0.032793604,0.057259843,-0.05076986,-0.06935377,0.058165733,0.05788458,-0.067955926,0.027087664,-0.078817904,0.010355868,-0.06976337,-0.06217325,0.0177368,-0.06668124,0.1060258,0.019901592,0.017394137,0.13167958,0.13258213,0.0039088726,0.042496826,0.078722835,0.041374456,-0.027115256,-0.0029222677,0.07365038,0.06096153,-0.024993727,-0.034382977,-0.017434048,0.03975815,-0.025268404,0.050636467,-0.060546845,-0.096885554,0.090297356,-0.040238336,-0.030116163,0.09208024,-0.0761425,-0.036212586,0.03601013,0.040908486,0.04944146,-0.03576127,0.08696086,0.014788933,0.13057925,0.11092049,-0.052592777,0.07671875,-0.020503663,-0.016772585,-0.053118985,-0.099430114,0.009266099,0.10822397,0.07150819,-0.07970399,0.07803394,0.11580496,0.04622035,-0.04719695,-0.049618404,0.09147797,0.016574455,0.1108896,-0.01200934,0.10449906,0.07944073,-0.002023576,0.016295005,-0.067069516,-0.103496015
0.012472582,-0.058563013,0.06944602,-0.032250937,-0.03481227,-0.022101358,-0.027356695,-0.0053851507,-0.025773281,0.011409696,-0.00040256378,-0.029677287,-0.019020574,0.021373669,0.043549225,0.086319126,0.083594754,-0.07768625,0.08690275,0.03438483,-0.019249007,0.09003364,0.0875535,0.08412143,0.1101903,0.122140035,-0.01975192,-0.07131127,0.006916041,-0.05946369,-0.08456704,0.09956847,-0.09613691,-0.017524492,0.011994786,-0.07249545,-0.0121327285,0.067178026,-0.10684665,0.0822278,-0.016313966,-0.022842456,0.021199824,0.04041711,0.0063618664,0.047791876,-0.022725035,0.0729107,0.08136535,0.07698257,0.07166144,0.09742487,-0.05715269,0.04772165,0.0676438,0.0666587,0.05743712,0.04373918,0.014610517,-0.08142606,-0.023332994,0.07563959,0.040161815,0.068444446,0.076739796,-0.024957327,-0.044837173,0.051238976,0.024789667,-0.015338546,-0.08367821,-0.017168283,0.08068124,0.03356685,-0.08205233,0.055954628,-0.049872972,-0.046162415,0.0066443104,0.04576309,-0.012395746,-0.0355045,-0.036041632,0.025539286,-0.041561186,0.08320002,-0.05741055,0.043735705,0.07668922,0.076957,0.09732938,-0.08466079,-0.08949098,-0.0274959,0.008170971,-0.078351215,-0.008135192,-0.03579985,0.06962657,0.044231575
0.039068982,0.11704871,0.024095219,-0.12755099,0.04720776,0.03754772,0.012672263,-0.079764746,0.06892555,0.18828878,-0.04152421,0.1747306,0.037969824,0.14016543,0.07345679,0.009893656,-0.05959593,0.16940393,0.07497903,-0.09874776,0.11396212,0.0016985899,0.07910414,0.08267158,-0.089397706,-0.12743305,-0.016452167,-0.02321735,0.029856045,0.115414105,0.07836244,-0.020220635,0.0015559163,-0.06876001,-0.10439174,-0.016518,0.00049599254,0.066176906,0.13286386,0.026860055,0.14088403,-0.0020586655,0.055334456,0.022024287,-0.030131351,0.01144592,-0.06219402,-0.028490882,-0.05574343,0.1727564,-0.055974737,0.0802755,-3.456345e-05,0.121941976,-0.06608586,-0.077772684,0.15529718,-0.052126516,-0.053549632,-0.09208806,-0.117381096,0.07871547,0.040871892,0.08624876,0.06641407,-0.0051222495,0.124245755,-0.09812824,0.06573686,-0.028030332,-0.06974045,0.113891184,-0.049965583,-0.0023347163,0.09596963,-0.04179886,0.1408583,-0.07210363,-0.09181733,0.0008105544,0.030509958,-0.09999457,0.060385372,0.065699644,0.06693607,0.08382278,-0.0678819,-0.039271668,0.02238778,-0.05458061,-0.029599087,0.04565757,-0.11134382,0.17797181,-0.028112551,-0.03030002,-0.094521895,0.035756707,-0.05675917,-0.105665006
0.04127357,0.05821345,-0.004411768,0.050478175,-0.066297874,-0.012347043,0.017318353,0.010329603,0.007546281,0.051959913,0.014102751,0.059044305,0.075454086,-0.03555646,0.027557619,0.027179604,-0.05401981,-0.032785702,-0.041647352,-0.014679179,0.09242885,0.09318527,0.074162684,0.016584486,-0.07004162,0.0088384105,-0.055585362,0.00063848495,0.004051299,-0.088889875,-0.085283965,-0.054099195,0.015207909,0.06679296,-0.091797814,0.0011805814,-0.029835911,0.05065518,0.06542144,-0.0017149885,-0.05530267,0.03524382,0.08512954,-0.015502043,-0.017076563,-0.092259526,0.06529083,0.014846816,-0.023873907,-0.024483033,-0.08571121,-0.10157706,0.054724175,-0.033474497,-0.032049995,0.06415837,0.018717999,-0.054631803,-0.01712254,0.0287098,-0.0589041,0.01573859,-0.09820162,0.07244205,-0.08110429,0.0501979,-0.02096576,0.045211885,0.07217807,-0.0125011075,-0.06476901,-0.025592063,-0.07077099,-0.042736407,-0.022874126,-0.07173325,0.06313336,-0.078014724,-0.059143078,0.041839212,-0.045165814,-0.06799529,-0.0983225,-0.022765674,0.03673674,0.029386885,-0.023890948,-0.0841226,-0.05792762,0.08754234,0.004819438,-0.089797616,0.010799654,-0.072661184,0.033136554,-0.0067008794,0.016635772,-0.06377239,0.039891694,0.029744644
-0.07776465,-0.039301485,0.0763496,-0.033975564,-0.005799858,0.08223495,-0.085165985,0.03337209,0.020811135,0.14627182,0.18470503,-0.030083517,0.0837885,-0.027583024,-0.06483519,0.15428992,0.036564115,-0.043772284,0.042149268,-0.020729506,0.0027834512,-0.06464481,-0.009505791,-0.011497806,0.011175695,0.0945284,0.097646154,0.092951655,0.063372314,-0.10877405,0.16911714,-0.089166045,0.08492552,0.020386795,-0.027475914,-0.16671227,0.066974275,-0.03561022,0.12197609,-0.11329854,0.05389566,-0.080026425,0.03673077,0.122049116,0.09319092,0.0016657434,-0.07970492,0.0056688045,0.02082961,0.110524215,-0.12154546,0.091256976,0.0824252,0.05555025,0.08620366,-0.051479068,0.08194558,-0.044704918,0.13429302,-0.0570292,-0.046303604,0.041903332,0.04178886,-0.07485859,-0.09017613,-0.02614564,-0.06170789,0.084085576,-0.0038210405,-0.016127419,-0.01453264,0.06908283,-0.019103419,0.0596607,0.11775552,0.06174784,-0.09522304,-0.064864695,0.045651685,-0.06509474,0.043252762,0.009569882,-0.021643281,-0.016423913,-0.07320608,0.049872663,-0.008384867,0.045289427,0.087944634,0.08695219,0.13209017,-0.018207563,0.0005572647,0.06243791,-0.08426621,-0.06570061,-0.07739045,-0.13168548,0.0065014684,-0.027240945
0.08305157,0.010626361,-0.032120965,0.02773235,-0.044653356,-0.02865187,-0.02386488,0.040412895,0.007740557,-0.0767775,-0.020238101,-0.095534824,0.04480251,0.056138597,0.06862617,0.038706936,0.041262396,-0.0861781,-0.019997716,-0.09151631,-0.060526814,0.073370285,-0.099991396,-0.08854518,0.030335955,-0.09452876,0.032022722,0.023965016,-0.08613738,0.00010770559,0.062739186,-0.027459584,0.038450487,-0.0003709644,-0.03278272,0.075761266,0.056254156,-0.043208268,-0.021606311,0.09990025,-0.09182544,-0.06869278,-0.0950438,-0.09595448,-0.03677772,-0.04969741,0.06774432,0.0005418807,0.017561816,-0.092725925,-0.04942267,0.07749062,0.067146085,-0.045650948,-0.00061992556,-0.083050475,0.07116208,-0.08804289,0.016708508,0.044951,-0.02942618,0.0595612,0.055693053,0.006949879,-0.05296551,0.044652633,0.053886764,0.08549442,0.028032444,0.08911925,0.022362448,-0.065610096,-0.027458832,-0.034753636,-0.036325954,-0.093601756,-0.09558677,0.00805863,-0.08734255,0.050213806,0.02648186,0.09948764,-0.09052364,0.025846057,0.0725391,0.06741745,-0.02338197,-0.067374624,-0.0026410073,0.04543609,0.036739178,-0.010260381,-0.015183248,0.036678873,-0.0548131,0.019164518,0.036114864,-0.09283111,-0.043294467,-0.035230197
0.04622366,-0.10588692,0.014330273,0.13030393,-0.041837223,-0.08273446,0.010895769,0.043909572,-0.014801188,0.050722662,0.094665386,-0.09351636,0.12038234,-0.09796862,0.020601114,0.13644789,0.04823013,0.01118864,-0.07096492,-0.08395442,-0.048052054,-0.08418873,0.06956242,0.08535184,0.081482574,-0.0114016775,-0.07413532,-0.09656642,0.08780769,0.09769874,-0.020702146,0.02316261,0.052976247,-0.08489732,0.10086033,-0.10468774,-0.01861654,0.02612653,-0.086446814,-0.063786246,-0.08606382,0.07474858,0.037445564,0.08470492,0.007064358,0.08548143,-0.09285854,0.057463933,0.07662143,0.12498421,-0.05006482,-0.050424505,0.09353014,0.018130833,0.057427652,-0.02344203,0.007653172,-0.06931007,0.11725275,-0.094270326,-0.05079968,0.08658812,0.012352516,0.05454721,-0.012217626,-0.0899354,-0.047220275,0.16339216,-0.08652647,-0.08701143,-0.10092743,-0.012464852,-0.110718116,-0.08639551,0.08659414,-0.037842225,0.040202007,-0.068404995,0.10660562,0.05920683,0.004294081,0.086270444,0.048099805,0.08915695,-0.08781964,-0.042345345,-0.056415085,-0.08182962,0.03976252,0.057284348,0.10391585,-0.048241112,0.050164122,-0.03446793,-0.07934474,0.042506073,-0.012188478,0.02020256,-0.075130224,0.011179589
0.11723112,0.00826696,-0.08030022,-0.11273567,0.049203318,0.041489705,-0.044945244,0.015342107,0.16754211,-0.089025356,-0.08004694,-0.093411826,0.060163178,0.0635302,-0.040375493,-0.020412607,0.006453625,0.04931193,0.0599382,0.07340821,-0.05091258,-0.06760786,0.06653657,-0.11061279,-0.035454597,0.12892479,-0.0733629,0.03892662,0.1402183,0.03924544,-0.10597224,-0.034932017,0.05409192,0.051634844,0.030489663,-0.032938097,-0.06558938,0.026815008,0.116766796,0.10400949,0.05119236,-0.068581365,0.07726079,-0.0802735,0.054161854,-0.018826213,0.10237909,0.056365475,0.0020524424,-0.0035707306,-0.014276625,-0.09156741,0.01236345,0.055330493,-0.067281276,0.09896107,-0.17382024,-0.05964057,-0.05597587,-0.103327975,0.025148176,-0.005701555,0.10908536,-0.028175555,-0.049715698,-0.01744289,0.12629427,0.0813282,-0.031779863,-0.03757342,0.10365448,0.0043760533,-0.10627226,0.1166475,0.079889156,0.027012777,0.063110225,0.08292125,0.046387274,-0.05042477,0.03692625,0.036887694,0.056853354,-0.02917227,-0.097004384,-0.067843154,-0.08196547,-0.090274625,-0.030232467,-0.027258718,0.016351407,0.019014297,0.020415906,0.09864911,-0.042497553,0.16045679,-0.004777502,-0.07907441,-0.10848151,0.079477794
0.09016745,0.009197667,0.07003004,0.048701696,-0.057005424,0.013021948,-0.035998873,0.06557174,0.05185994,0.012085508,0.07752402,-0.014714681,0.09322666,0.062298175,-0.06556893,0.023560993,0.037475675,-0.071818575,0.087884314,-0.031171652,0.074923,0.06874506,-0.015560103,0.049757876,0.06561144,-0.06711732,-0.068019226,-0.074376985,-0.09489925,0.033936553,0.051627256,-0.07307168,0.01138954,-0.025735177,-0.108026646,-0.042364314,-0.029097484,0.09423731,0.014240916,-0.0021209074,0.027205069,0.0448025,-0.047147278,0.08439192,0.10267483,-0.08643947,0.037659932,0.0016649561,-0.022603985,0.055184864,0.07413619,0.09304852,0.08883588,-0.07493688,-0.026411314,0.021666102,-0.057972632,-0.03517647,0.035379935,0.08832559,-0.031410582,-0.02042492,0.037524015,-0.07215584,-0.016706645,-0.01037786,-0.06181801,-0.06668498,-0.021877002,0.068039134,-0.099366285,-0.035030138,-0.061550386,0.04558058,-0.025319036,-0.09444616,-0.09016066,-0.076404,-0.07103807,-0.10490981,-0.017716624,0.016389746,0.038936775,-0.084639885,0.054425657,-0.034417838,-0.058007948,0.0989695,-0.017347887,0.08021208,-0.026083648,0.06986641,-0.004791423,-0.08955172,-0.010855894,-0.053686514,-0.08630987,-0.0889384,-0.06348186,0.072992064
-0.060603954,-0.055178925,-0.04226591,0.02133145,0.032854803,0.079892114,-0.030742085,-0.0008107684,-0.07177056,-0.09759049,-0.025908979,-0.0029599618,-0.056080192,-0.088670485,-0.05198305,0.054001898,0.0031807413,0.040313225,-0.035155624,0.053381484,0.09068055,-0.07869007,-0.024623998,0.0941039,-0.09917383,0.0407751,0.035383888,-0.008439183,0.095167905,-0.08189165,0.01456782,0.05462565,0.0028400687,-0.07709342,0.040669456,-0.0186499,0.0034922503,-0.068084985,0.048439745,0.05493774,0.10470999,-0.034632765,-0.026031611,-0.070617214,-0.023252327,-0.04810207,-0.064040005,-0.03042408,0.0187551,-0.060507514,-0.04001257,0.03650812,-0.024631333,0.048127852,-0.07767432,0.04475255,0.004639004,-0.096507214,0.053611524,-0.097547926,-0.08368273,0.067014925,0.093371525,0.05891698,-0.06800149,-0.028673308,0.05999697,0.022112872,-0.061686385,-0.0079367515,0.010306766,0.02070635,0.040175136,0.042601813,0.023291305,0.026444655,-0.07209479,0.009448701,-0.0408536,-0.032091793,0.09053975,0.04751627,-0.064193815,0.06561551,0.0794408,-0.061519988,-0.040511426,0.09821261,-0.087922834,-0.028282128,-0.09177365,0.080577545,-0.012541156,-0.027163012,0.02599966,-0.070536986,-0.0033316058,0.0318327,0.06369652,-0.05873499
0.0135086635,0.05997781,0.03772308,-0.034379598,-0.09761836,0.03341384,0.13712531,0.048290674,-0.046817686,-0.115343206,0.060967304,0.014469395,0.07638618,0.10455156,-0.08227359,0.030125901,0.11567241,0.16449448,0.08915808,-0.05375735,-0.04129863,-0.08623679,-0.03696026,0.11815034,-0.07176287,0.117368534,0.014569628,0.08543348,0.05666466,-0.02291281,0.010321095,0.098067954,-0.033100102,-0.046410695,0.16190813,0.085727446,-0.055914383,0.047435105,-0.0157998,0.117955424,0.0042521916,0.12621535,-0.107188046,-0.11260574,-0.059012216,0.02349696,-0.020981392,-0.027247252,0.07397719,0.037532464,-0.015941342,0.04285714,-0.056437258,-0.032311425,0.07759958,-0.09221179,0.14506502,-0.0862573,0.07405129,0.11071938,0.15193152,0.08705334,0.09374869,-0.09129134,0.057303235,0.09438287,-0.083894454,0.059158023,0.07325723,-0.08420704,0.12931351,0.024727225,-0.007496029,0.085799284,0.009832171,0.03839571,0.10932005,-0.04791087,0.015401313,-0.07063936,-0.0893413,0.10969995,-0.037007783,-0.047012467,0.026801629,-0.09664675,-0.11287723,-0.07638089,0.053222127,-0.009956775,0.044927813,0.032230485,0.046139903,0.11994196,-0.05346159,-0.17419882,-0.07459398,0.083970755,-0.011060233,-0.021219973
0.0375852,0.040614072,0.05189455,-0.051444486,-0.06155504,-0.046587493,0.100536555,0.073120415,-0.013463835,0.10625366,-0.00018117062,0.10467978,0.09761356,-0.008705568,0.09556947,0.107480854,0.020014146,0.17370822,0.025891114,0.07201223,0.12438232,-0.0061495486,-0.033553254,0.110078745,-0.051565863,-0.040879663,0.090930454,-0.09601725,0.08080295,0.022714032,0.10798313,0.04034536,-0.051092982,0.09923586,0.043045796,0.08401031,0.015405649,-0.042280614,0.07782756,0.01720186,-0.040038057,0.07993109,-0.0923092,-0.058645375,0.07728221,-0.03543476,0.01501968,0.028365288,-0.059371315,0.12437743,-0.098086044,-0.0635069,0.018943213,0.06861257,-0.03915221,0.013860439,0.1893353,0.053088088,0.07564913,-0.07152338,0.07677894,0.08004339,-0.009990603,-0.04535428,-0.024754997,-0.09117305,0.041482225,-0.042601403,0.021883054,0.11358324,0.080977134,-0.07094153,0.12123431,0.02323664,-0.08431482,0.0030607001,-0.024338415,-0.12518032,0.009186088,0.10820954,-0.05071696,-0.06657414,-0.016572587,-0.021609811,-0.07296106,0.032057032,-0.057746604,-0.08883569,0.02459304,0.021219864,0.102926716,-0.04334854,-0.092053786,0.10764087,-0.11469748,-0.13322388,-0.11144187,-0.004163706,0.07722629,-0.09798354
0.07470777,-0.10981043,0.038828973,0.06966403,-0.079984464,0.05548766,0.07095115,0.08164693,0.026527118,-0.02437042,0.05488016,-0.048674043,0.07289054,-0.07263763,-0.038974326,0.12647049,-0.06639252,0.0749695,-0.046304543,-0.096605115,0.11439489,0.08919003,0.0032686428,-0.06597563,0.021289889,-0.013604742,0.07125895,0.017079543,-0.033379737,0.04718566,0.010805613,0.00879157,0.077138804,0.09061172,0.024921695,0.06518433,-0.08155892,-0.12061525,0.082666986,-0.09949437,0.0456317,-0.07342367,0.030402983,0.023912076,0.032899227,-0.013938135,0.08537787,0.05687648,0.07584067,0.13139607,-0.094262205,0.02947968,0.04886545,-0.0950336,0.06710135,0.06345584,-0.048242044,0.062372763,-0.022376712,0.06829494,-0.013650903,-0.03066038,0.019189099,-0.0011165082,-0.046361294,0.005385325,0.08452938,-0.042277712,-0.050030474,-0.011393654,0.030086415,0.08492974,0.09150437,-0.06957554,0.012425678,-0.0452612,0.0067534195,-0.07838143,0.053715784,-0.059286475,0.07400253,-0.010245179,0.105037086,0.0029572833,0.04293479,0.02906976,-0.077072576,-0.056496475,0.040867694,-0.06980477,-0.05135194,-0.083703235,-0.03638795,-0.015504395,0.0043856576,-0.08490128,0.045385133,-0.03072356,-0.06738349,0.052342493
-0.012354446,0.012269266,0.11889527,-0.06984556,-0.08547683,-0.08017107,-0.0471406,-0.0123039475,-0.04858558,-0.044776633,0.01711912,0.015185858,0.0708668,0.0067033204,-0.07268296,0.11083803,0.09829218,-0.023298616,-0.069286644,-0.072104186,0.0063554337,0.05444046,0.0021952575,-0.044163484,0.060179055,-0.050885454,-0.021061443,-0.005540852,0.101227716,0.05892092,-0.06766165,0.03403401,-0.08552224,0.0025040144,0.09930609,0.009869927,-0.0791133,0.016278366,0.098910615,0.070422396,0.026161388,-0.101374425,0.056794446,0.03648368,-0.010434681,0.023040395,-0.07784933,0.09567659,-0.03177921,0.070385635,0.023153052,-0.012384877,-0.10042724,0.03520703,0.044980843,0.060504768,0.04335071,0.06708959,-0.023972489,0.033850066,0.046564475,0.039196815,-0.016253045,-0.07142726,0.026411735,-0.09889838,-0.06774494,-0.06855651,-0.09849912,0.07880634,0.051775023,-0.020035572,-0.07670601,0.004459763,-0.10648145,0.012833988,-0.013405438,0.07336342,0.04971508,0.07706692,-0.076741524,0.038849365,-0.055905532,0.0047998927,0.07115192,0.07385847,0.014349474,-0.051550217,0.0628664,-0.049516335,-0.040530197,-0.05739273,0.0027208924,-0.017019982,-0.09564842,0.021267802,-0.014136721,0.10434473,0.096660025,-0.09697507
-0.0460174,0.03991493,-0.07097524,0.028775899,0.07865187,-0.011989893,0.050418902,-0.09037629,-0.003918189,-0.006700128,0.07497708,0.07086683,0.05327028,-0.05881728,0.070540905,-0.060182843,-0.06409815,-0.043013763,-0.014432192,0.016694032,0.059117954,-0.0834275,-0.058159694,0.02705699,0.009726815,-0.032354746,0.012635589,0.080098875,-0.03485511,-0.070008114,-0.05348685,0.07467036,-9.464614e-05,-0.08955056,-0.048752442,0.04750441,-0.012752051,0.074173644,-0.0984838,0.042234194,0.019450428,0.019081816,-0.08817223,0.071930215,-0.008950448,0.08216387,0.024084374,-0.061533898,-0.01415053,0.028277215,0.062207766,0.015817529,-0.092963494,0.023773499,-0.021249745,0.073691845,0.0798037,0.08886897,-0.06722825,0.07645751,0.03593691,0.06250055,0.01750224,-0.024071679,-0.089303546,-0.09084396,-0.028474264,0.08140791,0.09408384,0.029594885,-0.08572636,0.008766281,-0.084711604,-0.022280574,-0.023559088,-0.098635815,0.065843254,-0.018732376,-0.065084964,-0.04003415,-0.029783987,-0.09143464,-0.08373651,-0.04446993,-0.0082803145,-0.07143889,-0.032461155,-0.09900639,-0.025989868,-0.017578134,0.0081636915,-0.047484305,0.0104817785,-0.07881972,0.08432541,-0.09428205,0.04735569,-0.08768483,-0.04451356,-0.051903974
-0.11459884,-0.108238734,0.16359292,0.13873708,0.015858088,0.0957715,0.25131094,-0.09384902,-0.0577074,-0.018714169,-0.08142459,-0.15831277,0.08670934,-0.054043632,-0.0048659886,0.062166043,-0.08192008,0.2411705,0.055907402,0.08054872,0.004057366,0.0331269,-0.042499386,0.017418835,0.06339379,-0.03057969,-0.05655355,-0.010886148,0.1965263,0.1634002,-0.054811504,0.0070618186,0.02851387,-0.06480803,0.0024715003,-0.060046263,0.0139434505,-0.09957655,0.11567582,0.045927282,0.01766309,-0.04470339,-0.029336374,-0.064578824,0.1845702,-0.06472114,0.005452248,-0.037222482,-0.06315734,0.20505309,-0.0011175168,0.072362304,0.05323667,0.095707245,0.029568365,-0.039587084,-0.10659107,0.032599587,0.20372821,-0.027019724,0.10456015,-0.05814303,-0.057361305,0.18153834,0.0017133651,-0.049375154,0.18203875,0.043251894,0.077367716,0.13306159,-0.1408152,-0.06216853,-0.05350597,0.11389892,0.0077967336,0.07988503,0.11019142,-0.12541565,0.055098623,-0.080367014,0.025528464,-0.005834044,0.02241295,0.025115684,0.0040049804,-0.017851982,-0.10129102,-0.025660777,0.025880598,-0.11498486,0.12081745,-0.027670894,0.07868244,0.23400633,0.04119474,-0.07871398,0.008247813,-0.09199831,0.012642897,-0.010407719
-0.07131553,0.10663384,0.09090755,-0.030272,0.0674865,-0.03944636,0.035111465,-0.06632412,0.019435909,0.022637198,0.09995629,0.06375635,0.11518769,0.07794813,-0.032663643,0.15011555,0.118183434,0.049856037,0.08623382,-0.055116117,-0.09516322,-0.033255525,-0.014968679,0.11950418,0.029749833,0.04555192,0.0016570315,0.011845887,0.12264228,-0.1040733,0.05655222,0.013928077,0.083541505,-0.0043976456,-0.0039746016,-0.106739216,-0.040636446,-0.10040959,0.14099981,0.007920244,-0.015131102,0.027066138,-0.07016383,0.05888926,-0.10699861,0.02723882,-0.015802214,-0.012298367,0.017027771,-0.0072198906,-0.11170967,-0.007327908,0.04138375,-0.041474685,0.050321374,0.042748604,-0.037104744,0.08741288,0.016360488,-0.07917734,-0.04755882,0.058553576,-0.008755142,-0.04387235,0.028528877,-0.09669085,-0.040454157,-0.023133336,-0.097171105,-0.051810708,0.11604071,0.10429368,0.09242604,-0.005905513,-0.02671967,0.057377983,-0.12947793,0.014851198,-0.030268675,0.089627124,0.07954222,-0.00046688662,-0.05932148,-0.06996012,0.003085883,0.06807117,0.04575819,0.022625891,-0.051357687,0.060565427,-0.05576572,-0.099862814,-0.015337697,0.1139558,-0.08238146,-0.09822601,-0.08621024,0.036885567,-0.031891707,0.0039817374
-0.0554476,-0.014796499,0.035907447,-0.040002372,0.060508605,0.07723961,-0.0038232305,0.0060761734,-0.003921248,0.006635816,-0.09679832,0.06541481,-0.080259055,0.049857184,-0.097535126,0.049887575,-0.118808806,0.06869549,-0.03133347,0.09480512,0.121316135,0.027361663,0.0016356683,-0.10972744,0.037150018,-0.010527167,0.071742445,-0.012103141,-0.07960983,0.13304943,-0.005414925,-0.080796435,0.008846909,-0.014414192,-0.09633235,0.043279685,-0.06940567,0.1346379,0.093101576,-0.018539742,0.028457325,-0.06373603,-0.045718953,-0.049381185,0.041941855,0.03544221,0.06460679,0.039086837,0.06881031,0.12136611,-0.046728723,0.079040244,0.07753791,0.065055154,0.030066604,0.08968513,0.030953964,-0.09693821,-0.07686895,-0.0009570519,0.05356452,0.009030018,0.086094484,0.053991135,-0.059737876,0.10691192,0.031131769,-0.08122459,-0.09758027,-0.043862946,-0.06717786,0.07000941,0.0426439,0.034712277,0.08808887,-0.0012840821,0.1350391,0.047158882,0.026090145,-0.08277289,-0.060588975,0.01833314,-0.011352687,0.028688567,0.040971953,-0.03715377,-0.08122666,-0.0962173,-0.018810377,-0.070942886,-0.03119483,0.01372904,0.031567227,0.023436306,-0.040147997,0.06232842,0.068537526,-0.0149370665,-0.047500383,-0.034190528
0.03901561,-0.025199061,-0.08089062,0.04983955,-0.03263755,0.074360415,0.029571325,-0.009048653,-0.048318967,-0.093276784,0.097121574,-0.0351064,-0.06106431,-0.04170158,-0.07345023,0.094821855,-0.069313005,0.079447724,0.062273737,0.049292963,-0.037597317,0.059211984,0.07103746,-0.057578966,0.079476014,-0.07213152,-0.0070109814,0.07707047,-0.011873792,0.035415802,0.09338128,-0.0651676,-0.009205039,0.036133714,0.10577606,0.016647857,0.07801472,-0.10633484,0.036728285,0.01855691,0.0559871,0.117932856,0.07334583,-0.04496063,0.011443712,0.0868188,-0.013133755,-0.008099841,0.07275218,-0.018518578,0.05016667,0.04760569,0.013956791,-0.014748735,-0.10113713,0.09422826,0.112808846,-0.03903219,0.12480995,-0.014788118,0.039355215,-0.024335323,0.06295522,0.0018743469,-0.08573206,0.0077458466,0.086051606,-0.03694941,0.051511876,-0.110513486,0.03732586,0.10392453,-0.06561764,-0.06601742,-0.0048576556,0.057534818,-0.06026705,0.044125374,-0.0045627975,0.038234863,0.045677703,0.100334354,0.10021822,-0.08212193,0.092760995,0.07094655,-0.015485804,-0.013711921,-0.03863126,0.04045292,-0.021130154,0.09153731,-0.058763642,-0.032051627,-0.006199285,-0.081485055,0.034446016,-0.043126564,-0.100448705,0.07114246
-0.09128058,-0.08486907,0.026473138,-0.11446576,-0.041614436,-0.01673676,-0.013494559,-0.06766685,0.011498388,-0.12272467,-0.15326868,0.07308263,-0.012281983,0.01433067,-0.09281356,-0.088934876,0.044677693,0.06595333,-0.014821193,0.017712934,-0.008977176,-0.09977889,0.09180319,0.007390517,0.07604806,0.0978902,-0.009220463,-0.09699692,0.124219224,0.2085228,-0.07004056,-0.04415965,-0.08256834,-0.09390656,0.04051018,-0.019601757,-0.039168924,0.1100849,0.059322685,0.10375579,-0.06830446,-0.13313109,-0.047139786,-0.07066005,-0.053720985,0.0517752,0.10105152,-0.067690715,0.03515404,0.07566391,0.02212975,-0.030418443,-0.071908504,0.060908213,0.0040460923,0.078565314,-0.15465996,-0.07065599,0.07562158,-0.0013802286,-0.10740051,0.071802184,0.056674592,-0.060859878,0.08894556,0.06734001,0.037188075,-0.022079838,0.082137465,0.03510472,-0.1046286,0.061973937,0.03599881,-0.045944247,0.007393816,-0.04339849,-0.035901736,0.09886779,-0.06992317,0.07153311,0.07582267,-0.13386443,-0.0638713,-0.030264001,-0.083023384,-0.0013269103,-0.007037752,-0.028849907,-0.031509876,-0.114059456,-0.14608529,-0.023912778,0.027993746,0.14441964,0.05115346,0.13109107,0.036200292,-0.0620317,0.044928692,0.12398946
0.030258257,-0.04819496,0.0817318,-0.06786472,-0.097922206,-0.017544532,0.013239303,-0.001520957,-0.097878195,-0.09190316,-0.05122668,-0.0009943097,0.10828804,0.033240356,0.046925344,0.061568264,0.04038969,0.12987109,0.08901241,-0.0840731,-0.11807072,0.09652247,0.03817774,0.041356415,-0.01290434,0.105964266,-0.031549573,0.065292545,0.012276929,0.07773186,0.09579434,0.018704586,0.019090086,-0.031629737,0.13105021,0.0076780403,0.040289965,0.055178028,0.026336916,0.050087567,0.04283504,-0.0038540668,0.059379004,-0.026747799,-0.009714178,0.06176738,-0.06212633,0.075477876,0.053052768,0.102428816,-0.037458424,0.042176638,0.029823076,0.050624836,0.08696442,-0.061580993,0.14872515,0.0579851,-0.0023995505,0.09168495,0.05516076,0.07495181,-0.060847826,-0.028391732,0.03371573,-0.078451626,-0.07531617,0.04387621,0.044977516,0.013426249,0.049060713,-0.06776048,0.06561385,0.00284189,-0.06709585,-0.026303248,0.00735876,-0.06447058,0.06800356,-0.018277071,0.059560783,-0.013825479,-0.09333746,-0.08851142,0.03198963,0.076041505,-0.10869881,0.08123237,0.033213623,-0.06510991,0.06554068,-0.07528148,-0.03554191,0.14598876,-0.073511854,-0.010945612,-0.050051738,0.0898671,0.06702021,0.05015467
0.04572928,-0.10733173,0.07405365,0.00055883185,0.048212044,-0.08933443,0.09299744,0.020173244,0.12342772,-0.012659236,-0.09155951,-0.16617319,0.075118035,-0.04272865,0.06142985,-0.07771263,0.106679454,-0.04287032,-0.008481497,-0.07394119,-0.11704071,0.0054113274,-0.03769689,-0.09599212,0.041612167,-0.05266353,-0.09045292,-0.07512263,0.10215078,-0.09674341,-0.016253956,0.093464084,0.028618494,-0.004098744,0.0689531,-0.09136529,-0.08106216,0.058869712,-0.015379839,0.08426759,-0.016684283,0.056629825,0.013577829,-0.14139001,0.009552283,-0.11586812,0.017947398,0.052943405,0.0058417893,0.076791026,0.0869024,-0.11864507,-0.01286741,0.103631094,-0.06697025,0.058255028,0.068024896,0.036761384,0.09871285,0.13768928,0.04185475,-0.04903667,0.0783686,0.050201338,-0.0005970925,0.08574144,0.057066966,0.12381885,0.09646067,-0.073629275,0.12947598,0.11317701,-0.08110604,-0.0151128825,-0.035174314,-0.07458798,-0.078608304,0.03890922,0.083241336,-0.0054040123,0.09321542,0.06933955,0.058465444,-0.036698338,0.0134099005,0.013285631,0.084233195,0.09199673,0.03642892,-0.00604014,0.10141651,0.049405083,0.011018452,-0.025309943,0.0684074,0.06439412,-0.07056031,0.053023763,-0.0513206,0.062708035
0.061534423,0.10282989,-0.07742794,-0.06735876,-0.0746385,0.07664558,0.115588985,-0.050570663,0.08221919,0.09771691,-0.07370997,-0.094298266,0.011115726,0.08646044,0.004243274,0.12554376,-0.023298774,-0.0059197256,0.0545292,-0.03337345,-0.02434648,-0.051515684,0.047771048,0.06247614,0.04289989,-0.04021611,0.058854032,-0.09262564,-0.051164627,-0.013879417,-0.056288715,0.0341944,0.09594355,0.03211277,0.00023899986,-0.105053045,0.09107881,-0.06741686,0.074375786,0.015311471,-0.0660062,0.094712,0.13006108,0.091861255,-0.06301589,0.0062505947,0.022008445,-0.08150039,-0.0026506318,0.08474767,-0.033040635,-0.06402507,0.07841093,0.0412252,-0.027155362,0.058186512,-0.054066673,-0.078409545,0.14711715,0.03513146,0.029422516,-0.0697633,0.050238304,-0.048136923,0.027040487,0.0019007094,-0.032921888,0.048484277,0.09802978,-0.09887544,-0.100502424,0.04502635,-0.020572174,0.03951896,-0.097088456,0.029556759,0.014263152,-0.051956642,-0.027631281,-0.0091456575,-0.033646632,0.035310272,0.027825017,0.021467492,0.02242175,-0.04962466,-0.016605025,0.08684744,0.040393166,-0.104167245,0.0023978923,-0.056703255,0.024756655,0.05960046,-0.015211877,0.039141003,-0.09899398,0.04466438,0.045637447,0.07975827
0.06947461,0.103279665,0.085933186,0.07795289,0.05167059,-0.059116043,0.054555263,-0.049463745,0.03960092,-0.05097145,-0.060277957,-0.024850007,-0.06388277,-0.030449944,-0.0025911757,0.02364846,0.004537061,0.06626647,0.06500006,0.034722622,-0.027075442,0.08067817,0.072984934,-0.06336159,0.051226165,-0.020633996,-0.0041322857,-0.036818165,0.07089982,-0.033205535,0.0727272,0.02566517,-0.07094513,-0.027607836,-0.076174125,0.046062022,-0.04320773,0.041317157,-0.096496925,-0.09418245,0.021146975,-0.021444969,0.07097728,-0.021185135,0.09570117,-0.068283744,-0.061679233,-0.024154056,0.096177444,-0.09405775,0.08647061,-0.043438993,-0.06547243,-0.08773974,0.050105367,0.026099049,-0.041888833,0.013329452,0.041468758,0.051194645,0.034033097,0.03135539,-0.033851072,-0.013687647,-0.039711382,-0.08026646,0.10022893,0.0069899536,-0.028691407,-0.0965936,0.040881906,-0.046406765,-0.00906336,-0.0101191485,0.083736904,-0.016500186,-0.072222225,0.07956091,-0.096990086,0.024759473,0.05576636,-0.02799893,-0.0042434996,-0.050944876,0.02661193,0.037557952,-0.06384676,-0.08564812,0.027595647,0.033892002,-0.08335762,0.04984274,-0.036747146,0.04900311,-0.044705294,0.0710834,-0.023320239,0.030981991,-0.06320651,-0.02122858
0.11137663,0.12032153,-0.103442855,-0.034641918,-0.0696167,0.06290077,0.011943215,-0.042703673,0.10980667,0.067219615,0.00504886,0.032277003,0.01985655,0.040130384,0.04061949,0.06994388,0.04446085,0.07360653,-0.07669796,-0.09158043,-0.030157054,-0.092609614,0.066286646,-0.020628812,-0.0009005166,-0.022805007,-0.09240271,0.07395019,-0.0931316,-0.047615897,0.050958194,-0.016402772,-0.0871563,-0.06000133,-0.011927367,0.053279907,-0.0699406,-0.104028754,0.034418855,-0.047783967,-0.0018804418,-0.062262185,0.07634358,0.041851405,0.012408238,0.03988912,-0.025549736,0.0016768412,0.1002483,0.12072338,0.044987466,-0.04815229,0.04687864,0.023565188,-0.06500407,0.066059485,0.033646587,0.036056153,-0.055780306,-0.07373008,0.06383105,-0.06612279,-0.079730146,-0.0858551,0.043505065,0.042911086,-0.011720801,-0.008333211,-0.059181776,-0.07028868,-0.02818933,0.017529292,0.07119006,0.08818795,0.06672068,-0.033389676,0.037702806,-0.079704896,-0.002122428,-0.0685772,-0.03627865,0.050982676,0.08210726,-0.031119253,0.011715031,-0.082589105,0.03529365,-0.07906955,-0.07300055,-0.088170625,-0.00843089,-0.017051917,-0.107930794,0.050362505,0.0007789031,0.062060278,-0.01522619,0.099777415,-0.040432006,0.060692217
0.017413367,0.06977609,0.07996861,0.08911107,-0.08653251,-0.069642715,0.063795894,-0.021544889,0.032926247,-0.08669943,-0.094252594,0.048634917,-0.051551905,0.010009981,0.0024241325,0.04168335,0.070150755,-0.04122,-0.038874876,-0.09416141,-0.005803501,-0.030551387,-0.013614309,0.011380337,0.007667739,-0.053858835,-0.07999277,-0.05833897,0.030776666,0.010985915,0.053033426,0.031370975,-0.0008437421,0.017007012,0.08019633,-0.099658474,0.09547751,0.018861607,0.07795008,0.115918234,-0.09287906,0.026104901,0.081646964,0.06371739,-0.08690808,-0.0370013,-0.033353575,-0.018385794,0.054396026,0.09617181,-0.018115921,0.0022818495,-0.047563206,0.07630254,-0.0049195522,0.09000373,-0.057339534,0.07290576,0.05431175,-0.110032156,-0.012841379,-0.05846318,-0.018039923,0.07791545,0.080337875,0.01610076,0.06929119,0.049803127,-0.0841318,-0.0049198368,0.025576783,-0.090083905,0.02849142,-0.006588015,0.09322128,0.040195547,-0.03246792,-0.0817917,-0.06961547,0.054693375,-0.04836569,-0.023459608,-0.04733784,-0.03080286,-0.0022187538,-0.017907152,-0.05337723,0.07289169,-0.08598403,-0.08471826,-0.06917921,0.0914656,-0.03243784,0.040735405,0.06260026,0.109263174,0.026442558,-0.049956165,0.043049667,-0.04666626
0.0610355,0.015966706,0.002384556,-0.03393235,-0.07901434,0.06656569,-0.054866534,-0.095335454,0.06755796,0.006016457,-0.032045532,0.10284237,0.020476824,0.07771922,-0.06322334,-0.16299796,0.009064675,0.091978624,-0.027148355,0.07500711,-0.09518241,-0.060224913,0.009519102,-0.0729934,0.044885598,0.024940656,0.0077686454,-0.053024054,-0.057742897,0.11918033,0.07811138,-0.086851306,0.017376056,0.001837337,0.09474972,0.048272602,0.08767622,0.08002405,-0.10827808,0.16010644,0.042052552,-0.032145757,0.12603074,0.044626936,-0.109742716,-0.0007803129,0.0066356775,0.0151781505,0.0065561985,0.0136743095,0.072201155,-0.11697949,-0.050165568,0.102827504,0.062933594,-0.040633067,-0.017881915,-0.016577529,0.05944964,-0.04771804,0.10632383,-0.06905964,-0.011834806,-0.06573407,0.088300385,-0.052182034,-0.06444029,-0.03506382,0.05833208,0.154949,-0.06079117,-0.050633125,-0.00094327686,0.08735294,-0.09578936,-0.031184955,-0.06465022,0.13775375,-0.0067011598,0.020886973,-0.07120783,-0.060857058,-0.09100871,-0.08558258,0.04381542,-0.08691224,0.101650864,0.09551323,0.013389908,-0.013774686,-0.15036418,-0.048976053,-0.0019927835,0.0537386,0.07321781,0.04487612,-0.121703245,-0.024446188,-0.009039814,0.04894643
0.051776033,0.009595633,0.0062409695,-0.102514684,-0.08425212,-0.03654298,0.011967372,0.004204472,-0.039980095,0.03424258,-0.0061351424,0.055661634,-0.085354984,0.012384623,0.05270308,-0.029232124,0.03613491,-0.073248215,-0.09225145,-0.091979966,-0.007330394,-0.029061887,0.03707201,0.013766512,0.0575972,0.07274317,0.044566847,-0.020633437,-0.006370809,-0.13040227,0.050645094,-0.040691096,-0.028528953,-0.019611254,0.020696742,0.09058743,-0.00406009,-0.015008868,-0.037543643,-0.08599326,0.09682027,0.088491,0.06907262,0.10286542,0.024066946,-0.03548037,-0.038603302,-0.050683115,-0.0055325925,0.01724404,-0.09030378,0.08507629,0.022773953,0.104402445,0.017885817,0.084678195,0.016450394,-0.07607144,-0.041739605,0.033168107,-0.08034583,0.026735451,0.045754846,-0.0358057,-0.045895208,0.011524107,-0.06648482,0.0315689,0.04403494,-0.0929033,0.0010435511,0.081835285,0.044550456,0.101518445,0.10411663,0.064332284,0.018287605,-0.00735625,0.04815457,0.07273838,0.09922427,0.022956777,-0.039973892,0.032069556,-0.0032306078,0.02900371,-0.014304562,-0.047226112,0.046769448,0.02252034,0.046456136,-0.09594575,0.07712474,-0.008115602,-0.04915987,0.07110535,-0.0043232804,-0.042829018,0.047243483,-0.07411669
-0.01460933,-0.008952792,0.024629572,-0.12741406,0.010669807,-0.034915507,0.06432367,0.059872054,0.15107737,-0.10902735,0.04751539,-0.05805421,0.071184255,0.098339126,0.03318242,-0.11472448,0.075557806,0.15640683,-0.086347364,-0.072026126,-0.039796747,-0.06735242,-0.031565033,0.030224422,0.006519223,0.030883629,-0.06761026,-0.041357085,-0.025056945,-0.014147492,-0.06239529,-0.061156455,-0.07119389,0.004181057,0.04036455,0.107844405,-0.06937175,0.04980144,0.039297,0.09044628,0.15319514,0.03902288,0.058934636,-0.058532767,0.013020215,-0.06658626,-0.012681332,0.09318741,0.033470497,-0.027842298,0.035832576,-0.061228354,0.026185092,0.13123149,-0.052192565,0.049170766,-0.053373232,0.09115836,-0.011562808,0.078825936,0.0051872046,-0.0481697,-0.022547573,-0.08086153,-0.03345452,0.02690154,0.008249763,-0.025724243,0.057318665,0.03366476,0.16108347,0.0007521933,-0.060631894,0.058590893,0.09943222,-0.039976817,-0.082120255,0.11255657,-0.03544138,0.042491153,0.06944089,0.059375335,-0.115443386,0.013227408,-0.061834563,-0.03845752,-0.024140421,0.013179068,0.08995422,-0.027431251,-0.110456064,-0.08867134,-0.074142374,-0.07788488,0.08218357,0.14826402,-0.0811865,0.12231956,-0.022786446,0.011042182
0.050417893,-0.020927345,-0.095441565,-0.09258903,-0.009260692,-0.022142349,-0.012945064,-0.054068632,-0.009293204,-0.026253691,-0.07074931,0.073985524,-0.0958745,0.00086263404,0.045248516,0.012783948,-0.08779946,-0.08646389,-0.040897414,0.034263678,-0.048573967,0.031475462,-0.0053728977,0.06194983,0.015317612,0.038623765,-0.036937714,-0.08286674,0.047165643,0.02022781,-0.09512621,0.0045469245,0.08597275,0.011353061,0.0321229,0.041174427,0.041804977,0.053454183,0.0033519282,-0.031942673,0.038653605,0.05262167,-0.016282097,0.02887371,0.06655461,-0.0026915504,0.09173043,0.023629878,0.09550456,0.043388117,-0.09941654,-0.07591516,0.05245165,-0.017476348,0.040838275,0.044130523,-0.09477711,-0.06944955,-0.0040038708,-0.09177039,-0.061898,0.07670926,-0.021957673,0.090757705,0.019338809,0.035284337,0.0007165825,-0.0778559,0.049119405,0.068623126,-0.01141138,-0.06568913,-0.025975091,0.017424667,0.009175943,-0.09082335,-0.0036929823,-0.05443505,-0.021385938,0.049496934,-0.09304955,0.010583701,0.034451973,0.095394544,-0.0138930455,0.013699129,-0.029043391,-0.0027934774,-0.031727828,0.047112778,0.056890674,-0.07430278,0.056571204,-0.04743583,-0.058668893,0.06202286,-0.030022716,0.06964941,0.03959064,-0.0012613786
-0.03845417,-0.10228919,-0.0061800764,-0.010855878,0.030665029,-0.070210785,0.15950355,-0.0064454065,-0.046177577,0.13551733,-0.1133938,-0.035386056,0.06299319,0.008223552,-0.09833282,-0.036244716,0.005725166,0.16728844,-0.07633634,0.062321406,0.038858827,0.08724809,-0.09586072,-0.06720367,-0.113223284,-0.13787854,0.085921474,0.03473154,-0.01471262,-0.05823412,-0.020428333,-0.040901814,0.023553962,0.01865828,0.06736503,0.025988495,0.094759956,0.04042315,0.1508951,0.16220477,-0.021903066,0.112509064,-0.1177339,-0.090558305,0.05771545,0.017508348,0.11226881,0.055140927,0.12616973,0.03226156,-0.0067617893,0.042692456,0.016066298,-0.0676276,0.05420259,0.021301294,0.066880874,0.06235281,-0.1166707,-0.036681753,-0.07347242,-0.015865598,0.13742863,0.06794181,-0.034753025,0.070141785,0.042155035,0.09530584,0.092485584,0.0077310796,0.056822527,-0.06804482,0.11872327,0.014742191,-0.004482314,-0.058186088,0.08031052,-0.16223545,0.03491354,-0.094976954,0.05817311,0.051083885,-0.040570635,0.007954656,0.07614173,0.019889068,0.066502385,-0.09976816,0.05541069,0.016479505,0.11985201,0.07652379,0.083949305,0.14274842,0.01536072,-0.076748624,0.057368528,0.04624357,-0.0721723,-0.07601054
-0.03418041,-0.023168521,-0.09964931,0.1550208,-0.041085165,-0.020215195,0.03457945,-0.03851042,0.1211529,0.03155929,0.17611082,0.009253222,-0.06109411,0.07045931,-0.09395115,-0.03107911,-0.048344012,-0.028890619,-0.008719533,-0.023328627,-0.047696374,-0.07767284,-0.014523595,-0.099809885,-0.09334034,0.083061226,-0.048468746,0.02527636,0.12226364,0.0451494,0.05412628,-0.091135055,0.06083586,-0.012027031,0.08159,-0.15009098,-0.055586427,-0.04039098,0.056911405,0.025241788,0.09135778,0.02288145,-0.031147303,-0.031364918,-0.0041860323,-0.11886835,0.01704008,0.048578523,0.021093806,-0.13044202,0.064321354,0.0392261,-0.08836169,0.044976316,-0.049429033,-0.06141306,0.050227314,-0.03618024,0.082280405,-0.04938473,-0.06522262,0.0128629,-0.07161919,0.030739732,0.030836467,0.06937696,-0.122626685,0.13223618,0.03969942,-0.063466296,-0.01897333,-0.1051162,-0.0508927,0.02135109,0.1617031,0.06277905,0.07847949,0.036681455,0.112004735,-0.032289855,-0.038653743,0.07843412,0.023179179,-0.08276902,0.011689255,-0.013157242,-0.022605011,0.08539457,-0.088230014,0.03243629,-0.0125489365,0.018022629,0.004589306,0.027219266,-0.060157888,0.009760397,0.045737796,0.035828933,-0.027189108,0.130627
-0.0027130712,-0.010673268,0.07673621,-0.048290133,-0.04979739,0.05070875,-0.041969616,0.011673139,0.09575549,0.22352989,0.1157241,-0.0038353526,0.049312204,-0.083245635,0.083247,0.18693693,0.109003216,0.050983198,0.09696514,0.07275386,0.1184725,-0.017079977,-0.10921994,-0.033691283,0.04803602,-0.03013677,0.054631516,0.06423012,-0.04987778,-0.17360434,0.011397117,-0.015834356,-0.041404624,-0.04004825,-0.09691203,-0.08456563,-0.0033482017,-0.10020022,0.069945216,-0.13253438,0.036440093,0.13102405,0.03173989,0.186343,0.1283696,-0.096751496,0.07173643,-0.049958933,0.08090291,0.023029046,0.0392032,0.103749275,0.0417506,-0.016751852,0.0963777,0.013729258,-0.025054922,-0.04566001,-0.0081148865,0.013729056,-0.06835438,-0.026840435,-0.007924141,0.09269368,-0.02687518,-0.0203625,0.1063662,0.041558113,-0.016295863,-0.020820348,-0.07444557,-0.00019750737,-0.027823271,0.08757273,0.091457725,-0.08077353,-0.09940472,-0.003659806,0.02942482,0.015600131,-0.07389043,0.060819056,-0.013958827,0.033680934,0.01145318,-0.07858795,0.14642645,0.081774086,0.02677714,0.0076897303,0.16721651,0.007684465,0.0490954,-0.025658134,0.033079334,0.045274165,0.06964256,-0.052573808,-0.11751509,-0.054878466
-0.04904406,-0.07269443,0.021538518,-0.06492502,0.09964109,0.0089067165,-0.099642076,0.08666875,-0.084607154,0.017883463,-0.08179446,0.06344538,0.03208449,0.07902538,0.0076083913,-0.0673456,-0.047760524,-0.0617809,0.02878151,0.057650276,0.090759285,-0.024538413,-0.004976347,0.042746793,-0.03856782,-0.005823368,-0.031658314,0.07317788,-0.0142383315,-0.07401875,-0.08755799,-0.040778536,0.021888807,-0.054846477,-0.035792828,0.08296871,-0.052028228,-0.003285146,-0.070252515,-0.06984775,0.070097,-0.080312245,-0.028424943,-0.06780206,-0.062437482,-0.0018028191,0.026583798,0.067443796,-0.030697903,-0.081813,-0.03483862,-0.09851298,0.03330993,-0.083472654,-0.06542723,0.0828393,-0.03227657,-0.045487773,-0.049264837,0.064435266,0.08295474,0.011582613,-0.010908588,0.015475288,-0.09594826,0.07505822,0.039958052,0.027425908,0.05475182,-0.08362263,0.0039380654,0.09275615,-0.067279354,-0.034651797,-0.097830154,-0.0077020675,-0.013161699,-0.034766063,-0.06673221,-0.06402629,-0.047125757,0.07557083,-0.04394531,-0.010504924,0.01355771,0.02731485,0.05158714,0.054113895,-0.014032818,0.052805416,0.09563188,-0.016221777,-0.05794027,0.03942461,-0.052059155,-0.04263442,0.015823297,0.022484953,-0.053851295,-0.07094984
0.1430771,-0.0069797183,-0.066603266,0.14075965,0.013102772,-0.09592198,-0.047424998,0.054080922,-0.079602055,-0.03546484,0.027028572,-0.08819963,0.094463825,0.07352663,-0.04258265,-0.033612728,-0.046367925,-0.027541043,0.046544462,0.016982183,-0.052374598,0.050823268,0.11616093,-0.0025104561,0.010100579,0.08759697,0.04371007,-0.03518752,0.083142765,-0.0004298089,-0.07133664,0.05015768,0.01846848,0.06959092,0.074728936,0.084225275,0.025939267,-0.11771391,0.0032959124,0.009727052,0.07517366,-0.0039880187,-0.055703077,0.0005638928,-0.021603325,-0.08650738,-0.05642975,-0.03450661,0.031859644,-0.065822154,0.02424903,0.015899425,0.06850759,0.032095287,0.0029016847,-0.04392184,-0.110511206,0.094895825,0.04117165,0.08792163,0.14928705,0.04308318,-0.018538496,0.14713776,0.056830335,-0.023593001,-0.05385338,0.05022586,-0.024411598,0.06957511,0.08122999,-0.09068785,-0.051446762,0.014214774,0.11427919,0.04752776,0.12166614,0.030549139,-0.083504885,0.0099636875,0.07263801,0.061429948,-0.017555777,-0.043357037,-0.09625195,0.013379974,0.040824547,-0.027680075,0.0670855,-0.06415189,-0.027610766,-0.05217414,-0.110427864,-0.079097025,0.10520162,0.06564774,0.06289788,-0.0033585636,0.10456385,0.018298155
0.06087191,0.0087791905,0.09641505,-0.07839153,0.011205278,-0.030552791,0.0802257,0.012944995,-0.042328883,0.019430483,0.05029038,-0.06993519,0.08638407,-0.080706686,-0.0868116,-0.079090156,-0.01053481,-0.07507654,-0.03203924,-0.08593686,-0.04653766,0.06607062,0.04928382,-0.0031970367,0.05392786,0.06736566,-0.0780702,0.07388074,-0.08534403,0.08558194,-0.08406706,-0.07010281,-0.06347689,-0.03476093,-0.08850369,-0.097819455,-0.08378825,0.047938414,0.015220893,0.02246147,0.0016433224,-0.091924466,0.060294174,-0.043113116,0.0071384143,-0.07386414,-0.078579985,0.04610405,0.046711292,-0.036401175,-0.034880076,-0.013737355,0.062461026,0.071978085,0.090703,0.017121635,-0.08331211,0.0032531396,-0.067905486,0.06418555,-0.078936875,0.01864889,0.06378167,-0.045182563,0.053906344,0.040550005,0.007307218,-0.082356885,-0.084734954,-0.044569578,0.037749544,0.016703857,0.058796972,0.079394944,0.043808836,-0.03770068,0.048948515,-0.055087294,0.07087105,0.059046574,-0.024656758,0.07248185,0.07185195,0.03913703,0.092738815,-0.041397046,0.050706886,-0.0037518963,-0.032079913,0.01730933,0.081646316,0.055514373,0.035395764,-0.028380668,-0.07997912,-0.08734236,0.041426785,0.060332987,0.01606381,-0.051738877
-0.0020349058,0.07877026,0.16509157,0.11456259,-0.069023326,-0.033476587,0.14479536,-0.014129535,-0.04977669,0.16381021,-0.02919911,0.008384264,-0.07201897,-0.056265455,-0.07701792,0.07401471,0.04704827,0.048784476,0.069580704,0.08743273,-0.016798887,0.08027436,0.0041569476,-0.011873654,-0.043022696,-0.11471135,0.061912138,-0.014727152,0.17408086,-0.04208963,0.045039,-0.03487943,0.07421382,0.009785776,-0.039634436,-0.020265304,0.03672916,0.106750384,0.13321485,0.1327314,0.05520478,0.015030862,-0.065938346,-0.14119893,0.0062256805,0.0010964356,0.015300918,-0.08981661,0.028785722,0.09758555,-0.034874488,-0.035384938,0.041264102,0.01951776,0.03827708,-0.07811402,0.08227043,0.029773917,-0.07349679,0.021487081,0.09583317,0.0034543467,0.13425039,-0.027025178,-0.09991641,0.08746693,-0.070750006,-0.095491804,0.030581443,0.025116364,0.08965371,0.03013877,-0.050352037,0.08270542,-0.025680935,-0.04335888,0.15153112,-0.069251835,0.04809214,-0.10295748,-0.021443399,0.107706614,-0.09283734,0.052740503,0.093315154,0.045695145,0.05518788,0.067143604,0.08647879,-0.021550437,-0.03182192,-0.0071970574,0.057681505,0.13164455,-0.14621098,-0.13173042,-0.085330136,-0.11334241,0.087519154,-0.08103927
-0.017637802,-0.04527798,-0.08841595,0.10462702,-0.06508182,-0.007194945,0.088730514,-0.08307968,0.060572647,0.06930641,0.0041802255,0.030730845,-0.0178288,0.045606893,0.08322424,-0.07317383,0.00014525354,0.110164024,-0.02524285,0.067086466,-0.01967818,0.009832672,0.041396733,-0.05194131,-0.025429912,-0.09007782,-0.08173305,0.07844248,-0.04704148,-0.0015915151,0.020679465,-0.045061786,-0.050673805,0.02864478,-0.057260416,0.081495896,-0.029419662,0.059279934,0.08559119,-0.08041833,-0.044371825,-0.083750285,-0.027998332,-0.08259977,0.069384895,-0.11893536,0.08845588,-0.03727656,0.08055465,0.03214071,-0.023058431,-0.09925787,0.0972306,0.06167931,0.06624952,0.040147893,0.0152415475,-0.07444351,0.023933904,-0.07773553,-0.06819996,-0.024538334,-0.077898875,0.10653236,-0.08111946,-0.0034397368,0.058576062,0.1285896,0.08958221,-0.10622829,0.061418574,-0.03092297,0.052202754,-0.0013353493,0.0459851,0.011861893,-0.029588578,0.06853309,-0.021182518,0.02458838,0.045349784,-0.019838132,0.101853915,-0.0661814,-0.0207462,0.007916277,-0.0158375,-0.048184406,0.07431141,0.038949043,-0.048187852,-0.04966532,0.0631369,-0.07168097,0.065408885,-0.019050647,0.055860497,0.045175985,0.0053347563,-0.10545319
-0.011518089,0.10901804,0.09994242,0.055442553,0.07970068,0.07476334,-0.021249395,0.030295117,-0.06376592,0.061183278,0.00747155,0.005227387,-0.03257521,0.062173318,-0.014057396,0.10874937,0.025668252,-0.0043429486,-0.0925792,0.06392191,-0.109939694,-0.052765343,0.017478699,0.0074008475,0.14576177,0.06458455,-0.053169962,-0.020720538,-0.015385785,-0.065266386,0.10504782,0.009846233,-0.035829563,-0.09977646,0.083541736,0.09043039,0.016609395,-0.019929977,0.015881343,-0.020131364,0.023964776,0.10408065,0.009992227,0.013150854,-0.09925478,0.06505502,-0.091465786,-0.008969656,0.041869532,0.09387972,0.032008152,-0.029576417,-0.06922591,0.053125504,-0.08420521,-0.07291335,0.18916713,-0.058947355,0.075165376,0.011870097,0.058072113,0.06995892,0.04670143,-0.103621006,-0.0023118732,-0.08835934,-0.11315557,0.07557612,-0.021213064,-0.091168396,0.060672347,0.08455003,-0.03323712,-0.05607041,0.030089824,0.007666414,-0.11169992,0.011778678,0.033217363,-0.019995792,-0.02569724,0.12567234,-0.090446115,-0.020466488,0.06372191,-0.082586415,0.09269887,-0.042803872,0.09217014,0.061590496,0.05799964,0.016347822,0.103653096,-0.0032531866,0.07649014,-0.12510425,-0.040818863,0.1562033,-0.050855417,0.08100782
-0.05024563,0.06408477,-0.002133579,-0.07042563,0.01841142,0.07369515,0.048994645,0.032254152,-0.08761359,0.017324273,-0.051703837,0.01800626,-0.009121084,-0.04563204,-0.038521282,-0.087041,-0.01910234,0.039734177,0.068146534,0.06972726,0.07510028,0.076528974,0.06301785,-0.08934143,0.010554201,0.012680574,-0.08981091,0.053153746,-0.007458378,-0.07543452,-0.09461826,-0.051470056,0.06749025,-0.07683573,0.005363432,0.060249664,-0.0015740523,0.069518976,0.04474791,-0.03935729,-0.071952045,-0.08866993,-0.072467,-0.029026723,0.049539417,-0.021801373,0.03479606,-0.06680671,0.0026725372,-0.055401534,0.066205755,-0.037970558,0.016436936,-0.04485499,0.033681627,-0.042197146,0.095179595,0.043524332,0.014752709,0.06847356,0.06037711,0.050396588,0.012995282,-0.02082534,-0.05259918,-0.055038054,-0.026752234,-0.046724346,-0.01405184,-0.03178455,-0.083975255,-0.092748575,0.025941221,-0.049620915,0.047531463,-0.053291082,0.056493014,0.061453808,-0.0709071,0.018980391,-0.08297493,-0.063541226,0.088261135,-0.00021982193,0.027878828,-0.018793674,-0.09676728,0.024564255,-0.08801854,0.025363728,-0.08305247,-0.045570254,-0.0052670664,0.074486606,-0.03633937,0.08712572,0.031028025,-0.052811768,-0.010803389,-0.012468648
0.00011855548,0.109044015,0.00883128,0.06801482,0.09297585,0.058523636,0.06512238,-0.0850174,0.04545394,0.06900488,-0.063426256,0.14944424,-0.014557879,0.09446173,0.07323418,0.01078418,0.032309897,-0.06396704,0.04543379,-0.042409845,0.048608553,0.09154967,-0.03425716,-0.07796294,-0.037282366,0.048877776,0.050261814,-0.068114296,-0.10967733,-0.044559542,0.013782479,-0.019449944,-0.08426758,-0.012498175,-0.061673816,0.03267772,0.06018258,0.08572248,0.0025128888,-0.045584712,-0.0031669769,0.030646943,-0.08349288,0.06265973,0.043242212,0.04888792,-0.036083683,-0.0647826,0.046405736,-0.090141356,-0.055919893,0.056508463,0.038725656,0.044390675,-0.08823493,0.0064116176,0.13285558,-0.08583083,-0.06515002,-0.075346634,-0.04723983,-0.0009085674,-0.074066006,-0.03695633,-0.0025158972,0.086478874,0.06856489,-0.08281753,0.06402004,0.062798664,0.058154665,-0.023586676,-0.027889358,0.05386613,0.010749066,0.0084479945,0.069272496,-0.025837809,-0.04561827,0.101472415,-0.09237962,-0.06467505,-0.004527005,-0.08637597,-0.049209125,-0.07745426,-0.048822753,-0.09374899,0.09762678,0.03477034,-0.10739981,-0.08727024,-0.08177625,0.0411413,-0.08390459,0.03925466,-0.080995016,-0.025962498,0.052224934,-0.05830912
0.022054099,0.09974233,-0.024470452,0.02116019,-0.09945917,0.018338941,0.027050082,-0.017318798,0.11047294,0.082005456,-0.068138875,0.17431545,-0.0046787667,-0.091538854,0.06541522,-0.09488469,-0.06750082,0.08948213,0.008949343,0.04303233,-0.029907525,0.078770526,-0.04543345,-0.07152811,0.0086562615,-0.003433781,0.05962024,0.031544037,0.039374787,0.06248899,0.06583695,0.077335335,0.045919534,0.05604619,-0.08079548,0.086881585,0.06449117,0.013678207,0.0060260273,-0.03455186,0.07756907,-0.11629613,0.012721706,0.12885119,-0.044351205,0.09692935,-0.057266243,-0.054854307,-0.08472516,-0.06563381,0.06206038,0.04155674,-0.0150948055,0.048701055,0.012146266,0.078228496,-0.061463844,-0.029819554,0.02593231,-0.04678327,-0.0898456,-0.10441067,-0.072377436,-0.039929576,0.07822046,0.047419645,0.110323645,-0.11250413,0.0701475,0.09370574,0.044662625,-0.0442288,-0.09184951,0.12414642,-0.033065706,-0.020680139,0.05267568,0.09098889,0.08931093,0.097535536,0.048308052,-0.005161939,-0.031570174,0.08083669,0.09296264,0.041815754,0.00050026644,-0.09887188,-0.06758843,-0.08566222,-0.103914596,-0.05828656,0.1010149,0.109815985,0.0076750265,0.046628393,0.09896681,-0.045890402,0.026408052,0.08591815
0.04087437,0.06084819,0.08852922,0.07376779,-0.060406126,0.061045855,0.06944902,0.09723573,0.08347008,0.096994914,-0.04421159,0.12347886,-0.01927441,-0.0014274433,0.02709977,-0.07321168,0.086472884,0.004454527,0.048729997,-0.019896457,0.07336357,-0.008275439,0.060332496,0.07297818,-0.04428677,0.04582309,0.08544403,-0.0050597535,-0.11525347,0.09698424,0.052758086,-0.056001283,0.07974843,0.060642023,-0.10165258,0.094294585,-0.07633988,0.017398585,-0.07205142,-0.05098896,-0.03341173,-0.07765268,0.009044882,0.0043113707,-0.069156334,0.060085665,-0.10936905,0.06513942,0.04059743,0.121521726,-0.01193252,0.076817535,-0.03156718,0.12745,0.002034029,0.02154087,-0.06758586,0.033116084,0.0031013459,-0.09096352,-0.09843786,0.058706854,-0.12245767,-0.045858677,-0.070551,0.058405902,0.103293635,-0.010814417,0.09586451,-0.053505167,-0.07460036,0.050784834,0.03742548,-0.01642413,0.067834474,0.005410718,0.03979938,-0.0017931929,0.111029126,0.061789073,-0.053903162,0.05604969,0.029107481,-0.06372293,0.0109267,-0.05503229,-0.08079599,0.029526997,-0.008339919,-0.05333853,0.03914558,-0.09756105,0.05171639,0.08904794,-0.022812936,0.089532636,0.012744733,0.066859506,0.06670595,0.03957724
-0.024606582,-0.093457125,0.052151155,0.03579415,-0.05341608,0.043780997,0.0068630823,-0.048484202,0.025337629,-0.103485614,0.11246611,-0.09898063,0.023795858,-0.020712288,-0.08243137,0.03317408,-0.069418095,0.12559803,0.08209929,0.07794972,0.052728586,0.06502297,0.14476848,0.077113,0.1408215,0.11492947,0.029013103,-0.061892405,-0.044739474,0.13635512,-0.08081864,-0.08252672,-0.02473154,-0.093285315,0.10715143,0.09740281,-0.044836022,0.0855625,-0.14142422,0.053823374,-0.09528368,0.0021465593,-0.104959056,0.053735483,0.15942492,0.026541788,0.03764662,0.049692344,-0.07057178,-0.020494066,0.12104282,-0.059632655,0.082158856,-0.13952667,0.050617732,-0.08708473,-0.01709302,0.075658076,0.014398021,0.122401744,0.14384048,-0.02053334,0.117301345,0.08474435,0.053862877,-0.08214572,-0.015370437,0.011472521,0.04488593,0.07595444,-0.14744316,-0.12330598,0.018656613,0.049217004,0.061095666,-0.07089904,0.11464518,-0.10129109,0.118052304,-0.08382248,-0.05742417,-0.07000252,0.12991694,0.06658265,0.07253551,0.012830993,-0.12784106,-0.047902655,-0.01225023,-0.0036152052,0.10029529,0.034571044,-0.06159976,0.0068085697,-0.009873627,-0.056537937,0.12484225,-0.109169066,0.14156489,-0.03136506
-0.07578492,-0.046439182,0.018122284,-0.012243605,-0.011127867,-0.09688916,-0.014000106,0.09109349,-0.05402131,-0.0667631,0.03395494,-0.002052486,0.04024643,0.018275121,0.028026052,0.008487282,0.062244505,-0.05749493,-0.03569901,0.003745377,-0.096496634,0.044533126,-0.09657728,-0.028452175,0.07991023,0.07119159,0.09407409,0.01717247,-0.076977395,0.05520036,0.07009912,0.063008435,0.099405065,-0.08490366,-0.020719158,-0.04762981,-0.03470055,0.007618897,0.070391245,0.0015628099,-0.07258509,-0.07288047,-0.0046187886,-0.08229965,0.041336685,-0.06618111,-0.03663788,0.026185699,0.053585783,-0.07308406,-0.061142404,0.012101535,0.08746902,-0.086583056,0.066505216,-0.069758,0.027573802,0.07313647,0.018907042,-0.05936608,0.08031889,0.006551847,0.068714626,-0.052362252,-0.091314755,-0.0148831075,-0.0245185,-0.08335184,0.09846052,-0.080346145,-0.095233135,-0.058095533,-0.010615789,-0.023738548,-0.059939086,0.09365951,0.047667067,-0.011455831,-0.01471155,0.03230925,0.007184088,0.016004777,0.033909027,-0.0150933415,-0.096163474,-0.063491255,0.02156501,-0.06176665,-0.057639945,-0.077657916,0.002961067,-0.03922714,-0.019455671,-0.029450813,0.031660136,-0.0032017925,0.079349644,0.04629993,-0.062336635,0.0010952818
-0.081425555,-0.007973645,0.047514185,-0.01377553,-0.048046395,0.019508118,0.057563078,0.011867823,0.053813074,0.08194277,-0.051697865,0.028621716,0.0010085088,0.013198971,0.050529387,-0.047068972,0.06580831,-0.0072640227,0.044686742,0.031292956,0.10217811,0.052862845,-0.05279741,0.118024975,0.094579875,0.030920891,-0.021620974,0.053111732,-0.13335024,-0.04632775,-0.05711901,-0.031665247,0.07189317,0.042111,-0.013130724,-0.04475354,0.06677693,-0.03817617,0.06577176,0.013117014,0.067030616,0.017410818,0.18763235,0.17792042,-0.004102891,0.036355417,0.04944237,0.08708611,-0.059890617,0.118885115,0.0036874597,0.1316291,-0.006907062,0.015683109,-0.02412974,-0.009366227,-0.00060280366,-0.048537992,0.114844255,0.113636985,-0.11242479,0.060670223,-0.058518454,-0.080918126,0.0729864,0.03639045,0.06904507,-0.040398393,-0.06453315,-0.11426809,-0.10070947,0.10497951,-0.055057224,0.055843115,-0.028391898,-0.051999953,-0.105451755,-0.012647536,0.117765866,0.1260569,-0.034990024,-0.07604229,-0.033038728,0.053336162,0.04192583,-0.06022528,0.11969392,-0.08685734,-0.021978475,0.051836677,0.012616076,-0.045926083,-0.042789213,-0.0758684,0.12393739,-0.0021835687,-0.020259859,-0.004951961,-0.0623121,-0.029024607
0.032820635,0.071422614,-0.025232594,-0.0040602325,0.064871535,0.051760215,-0.059162974,-0.03946165,-0.06772369,-0.08388874,-0.040546533,0.081593186,0.030815298,-0.06606534,0.046823025,-0.020765236,-0.053517908,-0.08602306,-0.011928672,-0.04002063,0.013015673,0.06953711,0.026572246,0.041081604,0.092229664,-0.06984703,0.0491336,0.015668785,-0.06630644,0.08715036,0.031724423,0.040316746,-0.09124459,0.07219545,-0.0035327047,0.053520255,0.008170008,0.038985156,0.037957143,-0.07853189,0.060568925,0.08687023,-0.08232172,-0.09232558,-0.030130936,-0.05845448,-0.024490703,-0.07747421,-0.016507857,0.060902305,-0.032129828,-0.08230457,-0.024917068,0.03802085,0.0020824801,0.032250118,0.06531601,0.062424842,0.06393983,-0.055379793,-0.078239545,0.08948077,-0.027630627,-0.060154352,-0.021325782,0.008714737,-0.08189644,0.025429623,0.005582787,0.07199053,0.08470147,0.055206914,0.055214494,0.058612354,-0.028262356,0.03443856,-0.04838611,0.042344484,0.058391426,0.0780556,-0.061407715,-0.035112098,-0.01875646,-0.011409966,-0.068051316,0.086446255,-0.024539791,-0.030731337,-0.069978856,0.07003153,-0.096080326,-0.033076815,-0.031753365,0.007733713,-0.099711716,-0.012875516,0.07257885,-0.06927474,0.023992207,0.08370679
-0.02480998,-0.049160104,0.16003159,-0.012921704,-0.027054258,0.058632474,0.12731315,0.056662243,-0.027041499,0.11001847,-0.05206493,-0.048763447,-0.0010049399,0.035429608,0.06479404,0.043069173,-0.108140886,-0.011765534,0.09824555,-0.056285888,0.0409747,-0.02328464,0.029649256,0.074383,0.013055773,0.033995133,0.032760452,0.0048680734,0.03960087,0.042923164,-0.020502333,0.02534407,-0.037329465,0.09190241,0.081033915,0.083492294,0.01841279,0.18365715,-0.042416133,0.09333779,0.01760699,0.09927001,-0.15343368,-0.017534621,0.0048686406,0.0898971,0.04372091,0.015553633,0.07859925,-0.0082581565,-0.10781468,0.06902608,0.01651945,-0.055471394,-0.08624658,0.03508264,0.11964965,0.07662652,-0.10439192,0.077699,0.016061945,-0.07103791,0.12148155,0.12697744,-0.06731507,0.044548176,0.07870638,-0.020433828,0.009415268,0.16565326,-0.006594146,0.001835429,0.038565613,0.048400093,-0.026929699,-0.06351477,0.16795264,-0.14889063,-0.108327076,-0.014136969,0.022657365,0.062547065,0.09975878,0.031602833,-0.035295203,-0.042500887,-0.115232185,0.059862085,-0.01930742,-0.059339292,-0.019188356,0.014141794,-0.06207404,-0.013993336,-0.09448475,-0.105160795,-0.08794784,0.0539993,-0.03942754,-0.1040559
0.030987099,-0.03772791,0.024410635,-0.015804969,0.050154496,0.015432811,-0.0454093,-0.013293301,-0.0096350955,0.071406856,-0.00694464,-0.08305598,0.059374213,0.059640948,-0.023776604,-0.09300027,0.0043825367,-0.025488194,-0.0019430863,-0.0026460884,0.030910907,-0.0981791,0.026406942,-0.07418864,-0.029910453,0.023128487,-0.08144728,-0.09675068,-0.06681309,-0.113529325,-0.009881019,0.016513033,-0.032344025,0.057332523,-0.026180005,-0.09926045,0.007482664,-0.0030745515,-0.08480301,0.023834882,0.060465876,0.09091265,0.023858331,0.0476288,-0.08026732,0.07080228,-0.034654208,0.05342053,0.108391404,-0.003988187,0.09679719,0.07411579,0.0045787888,0.08019353,-0.043771807,-0.052198492,-0.10143252,-0.072962314,-0.10191858,-0.00044595,0.000617066,-0.046048455,-0.051866613,9.1536815e-05,0.08493995,0.05869608,0.0072557884,0.102784276,-0.062616736,-0.111639775,0.114202544,0.09261374,0.045652244,0.010004107,-0.028767563,0.09303624,0.09356141,0.097635634,0.030915195,-0.047576576,0.01260143,0.011131578,0.057302605,-0.066405185,0.06296196,-0.0094033815,-0.021159811,-0.039372757,0.07455552,0.05097404,0.051426183,-0.05304318,0.099855855,-0.059495006,0.10838963,-0.012037631,0.029950641,-0.066059686,-0.04741551,-0.08054279
-0.0696132,-0.05074825,0.088611014,-0.035462473,-0.069187224,-0.06353785,0.016648531,-0.029158304,0.0862099,-0.065239504,0.097255826,0.003857399,-0.08996791,-0.021812258,0.059579052,-0.026180925,-0.021270204,-0.041934755,-0.0765644,-0.040216133,0.028469091,0.0148235895,0.10898569,0.015488641,0.07906823,0.12014219,-0.060773637,0.06689635,-0.078659706,-0.047619574,0.02599154,-0.077841565,-0.072020635,-0.031011397,0.08893374,0.027691728,0.010270672,0.13859215,-0.12581421,-0.05236083,-0.022566741,0.005131575,-0.04633386,0.089113384,0.09300275,0.07419939,0.082443975,-0.004910531,0.094105385,0.061361425,0.0036152862,-0.018437624,0.061750133,0.026499817,-0.061207708,0.08310323,0.08245581,0.00039477143,-0.090307936,0.0059638903,0.027595755,-0.087915875,-0.020226015,0.05903199,-0.0015834789,0.07422539,-0.041149817,0.028507428,-0.031950258,0.016460411,0.05381254,-0.03020548,-0.077156864,-0.067106806,-0.061950058,0.09574722,0.072977014,-0.033761084,0.09607168,0.06934115,-0.05312452,-0.07127124,0.08972748,0.06865984,-0.03087032,0.08353041,-0.021839155,-0.09291108,-0.099291794,0.058578596,0.019275349,0.02893678,-0.09887717,-0.037788346,0.010334312,0.028232066,0.023354625,0.022266148,-0.015224425,-0.052583408
-0.07820278,0.13732255,0.039813444,-0.008023852,0.083820134,0.06738344,-0.1401152,-0.054261126,0.102430105,0.10763244,0.12631555,0.17592646,-0.03883637,-0.070014365,-0.040102668,-0.05570265,-0.09827392,0.12261753,-0.05905869,-0.09461632,0.13466392,0.0032493651,0.0074473275,-0.0143057145,-0.061312374,-0.0021725448,0.065661386,-0.029242374,0.061195467,-0.010990143,-0.034108616,-0.06042861,0.09089739,0.029747311,-0.13936841,-0.06821211,-0.05475084,0.11046568,0.12026693,0.050413396,0.02284924,-0.07071355,-0.0051658787,0.1513013,0.07641081,-0.0638228,0.045038253,0.01568354,0.04475074,0.049266037,0.029124046,-0.021100935,-0.09416678,0.041912135,0.04280234,-0.08287797,0.039536923,0.0051372065,0.031842824,-0.11187053,-0.043707125,-0.07387041,0.039462533,-0.099952206,-0.04627569,0.011110186,0.11054908,-0.053874608,0.090590216,0.06018843,-0.010680708,-0.0024286327,-0.081868075,-0.00025898466,0.022742841,-0.020370869,0.033879448,0.09345551,-0.08321153,0.09877276,-0.025632244,0.024604727,-0.066222824,-0.061334435,0.0031294562,0.056511734,0.104745,0.08065144,-0.011428714,0.08499816,-0.07639299,0.0007497469,0.09498904,-0.052107528,-0.06362403,0.12630948,-0.018634927,0.09679332,0.00014361381,0.036798794
-0.11859052,0.06559906,-0.14663851,-0.013908762,-0.07354167,0.04955841,0.048843876,-0.0069461945,0.16083089,0.25281215,0.18612625,0.16428116,0.13785267,0.016212035,0.0012149678,0.12627323,-0.077338465,-0.04566166,-0.03129823,0.06265381,0.11191756,-0.045925036,0.003064587,0.088888995,0.012336949,-0.013884189,-0.008779831,0.081360415,-0.16698615,-0.01794802,0.17481707,0.08579675,-0.028130863,0.033101674,-0.16823186,0.074168734,0.06731408,-0.0020635857,-0.043217827,-0.17250116,0.046846017,-0.08240102,0.06932005,0.20800512,0.11237964,-0.014431939,0.00811112,-0.055581156,-0.019999372,0.10339236,-0.061360247,0.070047505,-0.07902085,0.14587444,0.011633624,0.01263203,0.016125154,0.027465206,-0.0010428448,-0.009359839,-0.15265867,0.022062154,-0.06691096,-0.0060021826,-0.022654625,-0.079564795,0.17215219,-0.043121945,0.024230205,-0.047895487,-0.060880397,0.016146699,-0.067882136,0.015204435,0.07304967,-0.06463309,-0.051459562,0.0049207346,0.1362581,0.038730595,0.05240628,-0.028228374,0.11321446,0.07071455,-0.020044103,0.037415672,0.06275935,-0.08156261,-0.093069755,-0.02119344,0.12837131,-0.027422676,0.08300358,-0.04528709,0.039255146,0.06095519,-0.0061195106,0.062014848,-0.07584984,0.043133933
0.057634044,0.051727783,0.065898605,0.031959943,0.09459068,-0.087537035,0.087055124,-0.09187557,-0.0046782694,0.10968466,-0.07240805,0.20460378,0.006045528,-0.0033264447,-0.034366716,0.023567406,0.013240489,-0.017944729,-0.0062868106,-0.0047546206,-0.005593971,0.018329041,-0.12957083,0.10630436,0.0074155675,0.003959994,0.09418994,0.05116016,-0.1536577,0.14079344,0.062225383,0.042592306,-0.05139649,0.009377143,-0.080386296,0.115003355,-0.0009136192,0.14210467,0.03416204,0.01034743,-0.023417177,0.10618655,0.07240611,0.13937604,-0.02584259,0.1237164,-0.012692452,0.028462676,0.010653057,0.06488924,0.015267455,0.034853414,0.08335431,-0.033257876,-0.041391514,0.08577708,0.1276015,-0.09084088,0.022494525,0.08119023,-0.0020183113,0.0002552322,0.01947203,-0.09201702,0.056593686,0.041737642,0.14693582,-0.17016338,0.06503536,-0.04549185,-0.02765514,0.0101931095,0.09851601,-0.065393746,-0.15836494,0.09061446,0.079361565,0.028404871,-0.069284126,0.092029616,-0.03161627,0.10711227,-0.009560715,-0.0017665515,0.06911757,-0.016191706,-0.06261934,-0.06710454,0.05851639,0.03865368,0.025334137,0.08289203,0.084040284,-0.011009363,0.018069878,-0.101301484,0.064578325,0.14282423,0.06558679,-0.12011014
0.101642095,-0.08532761,0.06484225,0.0048844316,-0.011654409,-0.04397,0.12008086,-0.027645418,0.089765266,0.10129029,-0.04245984,-0.008260517,-0.09373333,0.027919665,0.08511335,0.03667391,0.00702389,0.034974396,0.04287667,-0.08431308,0.08093305,-0.08180428,-0.0038154158,0.0008634663,0.017544053,-0.11432534,-0.016679347,0.05520381,-0.037896134,-0.14351898,-0.11229056,0.098220706,-0.06013741,0.08599573,-0.03694663,0.09923585,0.08740296,-0.09487356,0.013373637,-0.06423426,0.053538002,0.13815728,0.07005667,-0.046607412,-0.07013734,0.04467123,0.043496348,0.034068033,0.017531661,0.04578571,0.11973739,-0.023905288,0.005788435,0.019958988,-0.06048858,0.06905813,-0.024702081,-0.028871803,-0.019935986,0.11045072,-0.067573935,-0.061251007,0.100248106,0.0677907,-0.00901286,0.051661007,-0.08452796,0.12221607,-0.062869795,-0.06469905,0.113317356,0.010392663,0.09180725,-0.044097193,-0.013400127,-0.018114606,-0.06546398,-0.05520859,-0.09365197,0.028858941,0.0640492,0.09562077,0.016116386,-0.06513543,0.008623606,0.09387146,0.011380209,-0.0084991995,0.05124574,0.019289182,-0.00033485386,0.031513125,0.037799872,-0.08358465,-0.07219851,-0.0007556162,0.041656308,0.09993892,-0.03173165,0.021079656
0.06267017,-0.022350771,0.05228832,0.0074748914,-0.004388094,-0.07659632,-0.08774192,0.09220822,-0.011934396,-0.017437514,0.022431908,-0.009033583,0.061054375,-0.0663461,-0.010203622,-0.08087621,-0.021108886,0.0102940565,0.03500066,-0.08394031,-0.10592811,0.086144336,-0.05005799,0.03368149,0.07963719,0.06776768,-0.0009314418,0.049868222,-0.008675873,-0.040002793,0.044323776,0.08186706,-0.0622502,0.0403604,-0.087625206,0.017123843,-0.04218976,-0.052048337,0.0512456,-0.04099005,0.023866909,-0.0722654,-0.040620424,0.08167651,-0.09634406,-6.5368746e-05,-0.075605616,-0.033862516,0.09783354,0.023213254,-0.050976496,-0.084140174,-0.05908935,-0.07643897,0.0050897957,-0.06972599,-0.0053637996,0.027301269,0.035081234,0.087831,0.07370367,0.007806365,0.08308705,-0.012627452,0.05550105,-0.04391578,0.005493884,-0.031607095,0.08770475,0.036750976,0.0647426,0.061041787,-0.08468709,-0.060257047,0.09090738,0.017513037,-0.09348044,0.021027995,-0.0023233076,-0.09241666,-0.069763966,-0.034451667,0.07541989,0.011571944,0.078249045,-0.0575257,0.060296383,0.019127691,-0.04156635,-0.027602635,-0.011635614,-0.0749441,0.03027934,-0.041407596,0.116070196,0.10887455,-0.09294835,-0.08200072,0.05078074,-0.06100834
0.07414274,0.15432571,-0.022214783,-0.038316496,0.06684317,0.098202005,0.03064175,-0.018013917,0.17195357,0.011716184,-0.04939965,0.16838935,-0.16204937,-0.028651195,0.0123101,-0.1096315,0.0046128524,0.02404504,0.016781451,-0.021508684,-0.095616065,-0.0006739213,0.10537867,-0.076205924,0.08106548,0.012054551,-0.0967301,-0.02318083,0.0034814426,-0.00029669763,0.0578267,-0.037830684,0.039664056,0.0067235916,0.12217351,0.04449314,-0.0065194247,0.19426551,-0.033872582,0.087006316,0.18200105,0.039149705,-0.005441765,0.10984383,-0.119358234,-0.112282425,0.09758987,-0.016844945,0.12802218,-0.06729317,0.07129522,-0.089122266,0.045163114,0.138073,-0.035420574,-0.084290855,-0.04225449,-0.078176096,-0.12627453,0.017005473,0.1117245,0.07379736,-0.053353027,-0.03355844,0.09717826,0.1699761,-0.020336598,0.061594892,0.08216849,-0.074492946,0.030645184,-0.08183301,-0.020735923,-0.026993776,0.13330483,0.08534127,-0.0578011,0.17190655,-0.06546826,0.071335286,-0.05051372,-0.11394368,-0.14352986,-0.09228718,0.011296736,-0.08385748,0.07832672,-0.084528856,-0.009154439,-0.052107263,-0.1832246,0.033905696,-0.05707868,-0.03966014,0.090945445,-0.05176949,-0.11373183,0.09059803,0.014600154,-0.09824457
-0.051398486,0.024131166,0.005032835,0.069972806,-0.017159943,-0.084226586,0.029937642,-0.07615876,0.06721493,-0.06779995,-0.024460882,-0.06214237,-0.075836934,0.012889181,-0.044898108,-0.0022218407,-0.009145788,0.24684808,0.036066867,-0.08115207,0.028260872,0.075136036,-0.06573036,0.024912998,0.056927733,0.17019674,0.04896992,0.06407814,0.17886463,0.09007415,-0.009561329,-0.013915014,0.08288875,-0.004078971,0.04133522,0.06502505,-0.060643926,0.024862671,0.06665481,0.13110542,0.11745727,-0.063885614,-0.04778133,-0.07129712,-0.1041403,-0.06311388,-0.06389142,-0.024634507,0.036923055,0.0052525243,0.0025563824,-0.097597085,-0.016107569,0.020050753,-0.09762642,0.06247378,0.005864716,-0.071260005,-0.045887172,-0.0022433405,-0.09601953,-0.08059316,-0.02734968,-0.071447514,0.0043580467,-0.015730219,0.030205911,0.078046165,0.04548401,0.15459765,0.017259812,-0.0127854245,0.037397806,0.108935624,0.07592681,-0.0013965007,-0.10823475,0.059548497,-0.096962266,-0.05916253,-0.06421258,-0.030132782,-0.024201414,-0.04428413,-0.03359604,0.093399756,-0.00090692885,0.053115074,0.095803656,-0.079423204,-0.10709469,0.04307656,0.07177113,0.07030628,-0.033254843,-0.027651764,-0.12243006,0.0047743567,-0.029764986,0.15604118
0.02291996,-0.017357014,-0.04350918,-0.02483338,-0.009809867,-0.07608954,0.039744567,-0.04918703,-0.045047496,-0.07132721,0.07167379,-0.0909969,-0.044184912,-0.02711354,-0.098427765,0.03987542,-0.024204878,-0.08473239,0.043683715,0.07505977,0.018569125,0.07986111,0.010661997,0.087699234,-0.09141749,-0.08965329,-0.09961425,-0.06813199,-0.025554927,0.09871621,-0.041920323,0.044716053,-0.032475375,0.05673618,0.025882961,-0.08194144,0.031615533,0.066461585,0.010099654,-0.028688015,0.03104053,-0.061643716,-0.045501113,-0.029253244,0.037489545,0.0067786127,-0.023428654,-0.06648662,0.06683686,-0.019359628,0.057287302,0.027566679,-0.0993807,-0.00061713543,-0.08174918,-0.056203153,0.03292059,-0.07012995,0.09857108,0.06324074,-0.09658253,0.046801463,-0.09418686,-0.016461704,0.066423364,0.046440154,-0.035290867,-0.06538096,0.023269728,0.099615864,0.096378125,-0.07777182,0.061501484,-0.09509406,0.025870698,-0.051014315,-0.093555555,-0.06393393,0.0071966858,-0.005841613,-0.019597247,-0.08852174,0.027235966,0.0021951422,0.030932732,-0.05166611,0.07318037,0.06641293,-0.04832213,0.06503555,-0.04237354,-0.07560261,-0.06778613,0.06154935,0.011521047,0.064960875,-0.006693656,-0.054034878,-0.024156274,0.0027146444
0.07125034,0.04700922,0.11339552,-0.012158598,-0.03880922,0.09005712,-0.039150987,0.022914883,-0.059883136,0.098068565,-0.09032874,-0.09784867,-0.013659505,0.03247243,0.023024442,0.12035769,0.12066994,-0.0029926088,0.069014065,0.08819427,-0.020580236,-0.03512929,-0.09254074,0.0533261,-0.03748745,0.10118122,-0.02244454,-0.038567435,0.012142442,0.024344385,0.04830265,-0.01907664,-0.015435759,0.090406775,0.05556949,0.046977736,0.03576127,0.015739113,0.15809524,0.16372938,0.059220433,0.1348211,0.07052212,-0.10537404,-0.08571355,-0.06961332,0.009988056,-0.03598477,-0.03735076,0.1223918,-0.06777387,-0.07062108,-0.09812986,0.049050357,-0.046746623,0.022360522,0.03773233,-0.09595027,-0.086697124,0.061430052,-0.015638083,-0.021839445,0.05042894,0.027932474,0.097359344,-0.053948443,-0.06834202,0.07801011,0.05460138,0.055034105,0.10577339,0.026639618,0.14149958,0.08479062,0.101065174,-0.038812257,0.044006865,-0.04776087,-0.112085,0.02285934,-0.02288688,-0.0045117587,-0.09627028,-0.033133443,0.09660029,-0.046500903,0.024867615,0.060801763,-0.06355563,-0.10567764,-0.0362183,-0.097769514,0.050955705,0.092669904,-0.109012574,-0.036721602,-0.023055676,0.074699834,-0.09631612,0.0036827014
0.103532255,-0.0074350005,-0.09341508,-0.0064896555,-0.051688988,-0.07330474,-0.0021412994,-0.021673072,0.12547381,0.11054332,-0.026304508,0.07684431,-0.10189013,0.054586813,0.09857369,-0.09717634,0.056866758,0.1630999,-0.07135467,0.011920239,-0.07466935,-0.0037950957,0.0067367377,-0.074214,-0.03846458,0.059004523,0.09353425,0.012202979,0.12389464,-0.014327498,-0.08223226,-0.07662139,-0.084832914,-0.09189377,0.024278093,-0.011670564,-0.023669813,-0.029803202,0.110144876,-0.0014713213,0.1317106,0.11933816,-0.07913912,0.07642716,-0.06657401,-0.026026472,-0.029301276,0.0648978,0.11948511,-0.018853627,-0.013366859,-0.06412643,-0.041354068,0.12295195,0.060997985,0.08427962,-0.02501006,-0.045530207,-0.11444411,0.116830476,0.10630309,-0.00057113473,0.031677518,0.037149828,-0.04685091,0.0034816186,0.07995998,0.0037609902,0.004625511,-0.08362654,0.18709432,0.08871798,-0.10080229,0.051562462,0.17219213,-0.07656358,-0.037418023,0.16077068,-0.08952103,0.015958127,0.08024635,-0.06527553,0.024095211,0.038211375,-0.020668766,0.041397862,-0.012895838,0.034688413,0.06401298,-0.0786125,-0.08889386,0.08115147,0.038469367,-0.05635825,-0.061257392,-0.056215044,0.058129273,-0.05018813,0.0053024995,0.038112618
