-0.03093843
-0.06541172
-0.07317799
0.07725167
-0.008429281
0.012410673
0.0671336
-0.09128856
0.107304
0.16532108
0.055747896
0.11320309
-0.01690812
0.061801415
0.018575285
0.041449837
0.015688932
0.057837076
-0.0765844
-0.070690975
0.05319673
-0.08097491
0.05252925
-0.07910706
0.042632874
-0.060749825
0.046099734
-0.01796949
0.08788
-0.038400378
-0.0369509
0.069074295
-0.023825979
-0.0411822
0.0154917585
0.07445107
-0.08863352
0.11245374
-0.00066316046
0.052584272
0.061421253
0.079600126
0.041623816
0.050104447
0.094483994
0.034199603
-0.040217943
-0.060527187
-0.03898467
0.10275601
0.0522271
0.06417507
-0.050603613
-0.033217285
-0.06855516
-0.017920718
0.066904135
-0.058082327
-0.054618232
-0.004978631
0.114750534
-0.036323365
0.04304635
0.15438373
-0.07747739
0.14011684
0.09449678
0.060252953
-0.07709155
0.04040238
0.11594829
-0.04615655
0.032117996
0.029276809
0.1903819
-0.09642196
0.08479332
0.08514934
0.06852028
-0.018261464
-0.07648759
-0.048031118
-0.0017436092
-0.06027751
-0.0951978
-0.055237144
0.077855736
-0.09030835
-0.0948979
0.09222614
0.09681228
-0.06195587
-0.0064483467
0.008891875
0.05311688
0.054616936
0.04637203
-0.08319648
-0.058254708
0.032358177
