-0.029735554
0.07762623
-0.05662638
-0.042319074
-0.04585315
-0.09388746
0.1671553
-0.03006611
0.05791482
0.063066475
0.10198099
0.011986073
0.035958555
0.02203638
-0.00361149
-0.13192628
-0.050107714
-0.010043942
0.08533866
0.00040926636
0.012247152
-0.0135004185
-0.046662316
0.08317106
-0.050221566
0.12680335
-0.06364586
0.10789292
-0.05491313
-0.005035389
0.060127586
-0.0640105
-0.037029024
0.031003391
0.046060722
-0.10105541
-0.15083008
-0.08783918
0.073773846
-0.10840702
0.032667737
-0.096398816
0.04026807
0.02914738
0.021182263
0.005631807
-0.058889057
-0.07686418
-0.09920875
-0.05043504
-0.056992657
0.06658078
-0.06430777
0.038468625
0.12899947
0.25862074
0.0012099232
0.16866374
-0.014302574
0.090038866
-0.12074849
-0.010931704
-0.07706981
-0.05937043
0.11763577
0.013170506
0.07827997
-0.042553682
0.055471957
-0.010170762
0.0025204383
0.02814055
0.08240712
0.07242126
0.14412293
-0.034248725
0.15664741
-0.084751904
0.18334208
0.089098744
-0.018115213
0.03880076
0.12803139
-0.0031971044
0.020293875
0.070044205
0.050348006
-0.002802197
0.16187204
-0.09344788
-0.09093461
0.047349166
-0.047514755
0.082839094
0.091185555
-0.0045800386
0.08707575
0.039202794
-0.08737004
0.114242174
