0.022180662,0.033560406,-0.031262893,0.03233361,0.034543734,-0.023042638,0.031925242,0.014368851,-0.03217206,-0.018574417,-0.0040453374,0.03343339,0.02780799,-0.027958285,0.0034996197,0.0015561908,-0.024600307,-0.018324602,-0.023595735,-0.032672245,-0.024793018,0.021461982,-0.015288962,-0.007556187,0.001623679,0.017922621,0.010485079,0.0057952106,0.015442397,-0.009819491,-0.021268599,0.031329285,-0.0058705453,-0.021612229,-0.009431837,-0.016160892,0.023503734,0.011771973,-0.0023725564,0.009148275,-0.0073361425,0.002235234,-0.0043809353,0.029789435,0.009355489,0.030260066,0.031257797,-0.020119408,-0.013557912,-0.009084087,-0.034539685,-0.021243779,-0.035322443,0.00354575,-0.023962354,0.0033652447,-0.01391232,0.0076081753,0.032525398,-0.029811021,-0.019516887,-0.03105172,0.024942817,0.013616272,0.030009586,-0.028471002,0.020458834,-0.0035350274,0.00037915583,0.032645464,-0.013275932,0.021744937,-0.025130155,0.0054854103,-0.008260651,-0.02646162,0.025358804,-0.014443213,-0.015826356,-0.031684637,0.03281034,0.034165673,0.022997495,0.03126992,-0.019481681,0.016445085,0.034905132,-0.017589798,0.025045853,-0.013367158,0.02542008,-0.009062396,-0.0145215485,0.022161072,-0.02264857,0.033139993,-0.0033201908,-0.029604819,-0.016356783,0.011303731,-0.006906986,-0.020307885,-0.0039569866,0.029790072,0.02254729,-0.019230593,0.02622116,-0.01797723,-0.022028647,-0.012646136,-0.034302942,0.016291276,0.023768183,-0.02798252,-0.03471485,0.017467387,-0.018709203,0.01262621,0.025526358,0.012702559,-0.00868532,0.0035778782,-0.034854524,0.010905321,-0.0005373869,-0.030689916,-0.033745077,-0.013008254,0.0052054203,-0.029704377,0.03383516,0.015335688,-0.030111121,0.00929147,0.016751597,0.034632724,0.009358812,-0.005486041,0.015026335,-0.028972516,0.0032593086,-0.004258059,0.031730477,-0.0065983506,0.008439051,-0.03492106,-0.024126098,0.031841777,0.019339506,0.0058342847,0.022464218,0.0046774675,0.0055526667,-0.010735332,0.017068248,0.00065239286,0.017756974,-0.029544957,0.024716714,0.019914066,-0.008516498,0.027123298,0.018667895,0.027765376,-0.0006399683,-0.0037594205,0.00303536,-0.0042251656,-0.028139558,0.0058306386,0.0065984433,-0.00011595451,-0.012246921,0.008771875,0.0073628575,-0.0061069657,0.0123201925,-0.019529004,0.03457933,0.035004895,-0.0109118465,-0.0065952763,0.033830002,0.0048858672,-0.032930333,0.031336695,6.727666e-05,0.015700797,-0.028431594,-0.01056548,0.0042879176,0.029788686,-0.003970424,0.016386462,-0.013632191,0.0030693077,0.006151695,0.018425649,-0.0012217384,0.026067037,-0.0039376994,-0.004254588,-0.018379515,-0.0065004327,0.012155342,0.033335224,-0.035493113,0.0019339375,0.0026860852,-0.020030824,-0.025035404,-0.016567819,-0.03096191,0.006836594,-0.034498245,-0.02095319,0.00986127,-0.034378093,-0.016101077,-0.032148253,-0.012133182,-0.025138035,-0.018231865,-0.029391337,0.0050215432,-0.031686455,-0.034513086,-0.027764006,0.017565036,-0.023126619,-0.023913573,0.02229359,0.004239994,-0.007008957,-0.013819451,0.034618337,0.012729369,-0.011992513,0.014843628,-0.025766725,0.004131025,0.0008185372,0.025524184,-0.020635111,0.011874844,0.02681732,-0.010860824,-0.015777115,-0.02288631,0.004693059,-0.011593554,-0.0055003455,0.02940572,-0.024942387,0.02841379,-0.02558926,0.023325669,-0.019321248,0.025224362,-0.0016310164,-0.0071929465,0.014942452,0.012227061,0.0025934393,-0.016621783,-0.023000818,0.016227894,-0.0036455994,0.0054592034,-0.007063786,0.022586213,0.004481023,0.02597759,0.025447508,0.004404557,-0.021678982,-3.560169e-05,0.022406362,-0.019425903,-0.030386651,-0.02701624,0.01663935,-0.029897172,0.030814482,0.0052003213,0.030111397,0.023316408,-0.02692032,0.01233573,-0.027393483,-0.016513504,0.01935837,-0.00040668403,-0.015613734,-0.02479043,-0.014589795,-0.03286111,0.030444127,0.033475086,-0.01737311,0.017525485,0.023538034,-0.018613428,0.011200526,-0.016513929,0.023628397,-0.014177874,0.01496106,0.033723716,0.028182048,0.004635119,0.03189904,-0.017776689,0.029311733,0.025617408,-0.010409245,-0.02218753,-0.006425298,0.035004787,0.023895897,0.0032072186,-0.0058125444,-0.0027241316,0.00051703135,-0.013882562,-0.028107103,0.034858596,0.02413444,0.034781296,0.020731704,0.02996976,-0.015969424,0.023933638,-0.019186657,0.029783048,-0.022539468,-0.004910728,0.003360807,-0.031156817,0.024151191,0.010439347,0.033200093,-0.035232805,-0.0135333,0.023019549,-0.010396743,0.02776502,-0.011073314,0.017591434,0.02457201,0.0028121478,0.031890243,-0.009279358,0.024968296,-0.0020957743,0.0016129588,-0.018344097,0.004529633,0.030725256,0.035546824,0.033124115,-0.016510664,-0.022871576,-0.006300081,-0.031240687,-0.0018393125,0.029170131,0.027360417,0.006001264,-0.009919039,-0.0030703505,-0.0081206225,-0.012508302,0.020003365,-0.011824028,0.0069188247,0.001669868,0.026783183,0.011692153,-0.03278409,0.01299695,0.03367445,-0.010355122,0.008354008,-0.0019077057,0.015786096,-0.016930424,-0.024526842,0.014054749,0.0058944547,0.0040178685,-0.034335658,0.0068568178,0.019906113,0.014402729,-0.002166804,-0.01955071,-0.0068934085,0.011160747,-0.0019943374,-0.009709137,0.025276288,0.013886119,0.023355374,0.0019812116,-0.012512725,0.017417772,-0.025263438,0.02295339,-0.012609634,0.010035401,-0.015211495,-0.01742202,0.009256625,-0.0187446,-0.012967664,-0.028746372,0.00070056546,-0.035233285,0.020930164,-0.025125789,0.0032830213,-0.019559585,0.0040136855,0.00077061437,0.003315519,0.015304807,0.0054037403,0.0292796,-0.025622636,-0.032994106,0.03335394,-0.013941142,-0.013215224,0.017946221,-0.010162893,0.0035391506,-0.032875102,0.028757213,-0.0013697804,0.017607382,-0.011229014,-0.014496829,0.027742459,-0.014495683,-0.017644413,-0.03471939,-0.02652453,0.033862155,0.00899156,-0.03241769,-0.027099581,0.012352565,0.0065246187,0.023139806,-0.027285127,-0.015964374,-0.02759503,0.004082626,0.013108521,-0.012530987,0.025277788,0.0012478724,0.00934225,0.025432838,-0.010224911,-0.014881322,0.009040868,0.00061433273,-0.029903758,-0.0034802756,-0.020941421,0.012431082,-0.019015733,-0.005413323,-0.011257241,-0.019789169,-0.030138588,0.005920751,0.007296546,0.016167525,-0.026689906,-0.019789133,0.035592813,-0.03348303,0.030990561,0.026876593,-0.027433308,0.0041593704,-0.0075215586,-0.010169531,-0.0023968583,-0.018682938,0.028154286,-0.014852106,0.033562716,-0.020215305,-0.026742999,0.0005093871,-0.03071563,-0.019436695,-0.03198178,0.027197279,0.03299913,-0.024824766,0.03457555,0.026741317,0.0079990765,0.031729296,-0.021525493,-0.034826484,0.010602184,-0.035501793,0.005555235,0.026515711,0.005680651,-0.016275838,0.03271997,-0.0074958266,0.021732777,-0.02021961,0.01968542,-0.00013438282,-0.030264148,0.012931519,0.00096534746,-0.00025827874,0.017829152,7.181176e-05,0.030989468,0.0019204128,-0.0314627,0.020146988,-0.006278673,-0.024659215,-0.014972782,0.025057744,-0.019983493,0.014959568,0.0027630592,-0.026803872,0.008271429,0.0336026,0.030364461,0.019758228,0.014847421,0.035375204,-0.016417474,0.011967611,0.011171885,-0.014884446,0.033720378,0.025826426,0.008396176,0.030133957,-0.01245676,-0.02363827,0.005710784,-0.003838588,0.004626263,-0.027367111,0.0164853,0.008403639,-0.0051664654,-0.008121062,0.024513448,0.018413704,-0.02517561,-0.006130185,0.022086805,0.013971042,0.0010695264,0.013576564,0.024530968,-0.01735716,0.014479922,-0.024577908,-0.00915136,-0.025526168,0.011491833,-0.027798615,0.0017455647,-0.020671884,0.031221192,0.017905474,0.0054160804,0.010449965,0.021415047,-0.002263316,-0.00811819,0.02504807,0.03291903,-0.0025557803,0.0346887,0.029634532,0.0070100524,0.018955048,-0.032471053,-0.026204746,0.020381927,-0.023194278,0.035568938,-0.027310885,0.018081518,-0.027076522,-0.017971966,0.021377746,0.009192454,0.034459762,0.025980974,0.031514972,0.033026647,-0.032456726,0.034507312,0.015644861,-0.016837459,-0.0040772837,-0.029847478,-0.0076274523,-0.032611854,0.024813967,0.031492516,-0.021408614,-0.035563037,0.0016391465,-0.0055422336,-0.013172315,0.020549089,0.032002658,-0.013473899,0.033078022,-0.02119447,-0.0069509116,-0.012669661,-0.013317559,-0.032649867,-0.01709857,-0.012349908,-0.028625762,-0.02756693,-0.018015875,-0.026709113,0.023198219,0.024515996,-0.026216082,-0.0064350665,-0.030515138,-0.02099561,-0.025111033,-0.021593664,0.02208642,0.0030273432,-0.0042702677,-0.00998442,-0.034372807,0.011555284,-0.034616612,-0.009642613,-0.012372559,0.013788189,-0.019033635,0.028117293,0.0013082647,0.017544158,-0.019556288,0.007912986,0.017644713,9.926695e-05,-0.034610327,-0.02426751,-0.0069047567,-0.0055172183,0.009832434,-0.012378404,-0.007859299,-0.0036878656,0.013676008,-0.03141197,-0.032725662,-0.0017982513,-0.029521171,-0.029834656,-0.027729476,0.020938851,-0.023733307,-0.019879146,-0.008732032,0.013710211,0.033949632,0.0035543146,-0.021542089,0.031077458,0.022877177,-0.008801528,-0.009040982,-0.012258415,0.021890793,0.025683552,-0.029673439,-0.009111324,-0.0007000454,0.002732288,0.022361772,-0.0147643015,-0.031566802,0.008609794,0.004957115,0.016643602,-0.008283705,-0.004747363,0.009751994,-0.011326468,-0.031718954,-0.025660774,0.011490842,-0.0037538218,-0.0086978525,-0.003603336,-0.012904837,-0.026422711,0.014195996,0.02153425,0.01990402,-0.022857526,0.025331488,0.025208715,-0.026684323,0.034648914,-0.004216496,0.028889652,0.03307573,0.00242713,-0.029627418,0.009510681,0.030234998,0.03104208,-0.019942347,0.02382477,0.020943552,0.016335983,-0.021868622,-0.035438452,-0.015139169,0.013484221,-0.025046282,0.03531524,0.03548042,0.02637632,-0.029417787,-0.008098125,-0.011273114,-0.007834436,0.000112511465,0.024632001,0.0024791248,0.02468802,0.027722146,-0.003222067,-0.017494887,-0.0336314,0.03527889,0.032511637,-0.015782053,-0.020817097,-0.0051226607,-0.035338853,-0.030166062,0.026506625,0.0037374601,-0.01851436,0.013578149,-0.005642789,0.025656233,0.0063017304,-0.00039540336,-0.026414383,-0.013911206,0.017723456,0.033988185,-0.0145881865,-0.0016445778,0.009412024,-0.01603859,0.03155938
-0.03091335,0.02582857,-0.027666062,0.014973793,0.003854718,-0.03003377,-0.0074851643,-0.018411633,-0.016907817,-0.008665349,-0.013096802,-0.034751903,0.0047900733,-0.0061229514,0.03384682,-0.010980761,-0.033837665,0.009744234,-0.0006783083,-0.02788572,-0.033612635,-0.010905467,0.015715327,-0.012129571,0.007963087,0.034816597,0.03390261,0.016259287,0.008006837,-0.011662846,0.019738033,0.00032501668,-0.0043952204,0.022424722,0.03128653,-0.020203141,-0.019475257,-0.032745287,0.001997522,0.006905241,-0.0064218803,-0.02510672,0.008469311,-0.0078370385,0.029817393,-0.034345113,-0.014998175,0.02761027,0.015428372,-0.0033804597,-0.0076853894,0.00669403,0.0010461509,0.007691726,0.022215042,0.013578642,-0.012338238,0.022663057,0.008077957,-0.017801218,-0.014768263,-0.0023558221,0.0090618925,-0.019292155,0.014019184,-0.002107927,0.0067675957,-0.033322576,0.025478939,0.034055963,-0.028553024,0.0025677301,0.0048555247,-0.030023154,-0.0015601757,-0.017622745,9.516672e-05,-0.026620911,-0.026320824,-0.009946866,-0.032489512,0.007459224,-0.020164032,-0.011344599,-0.01686591,-0.030046452,0.026818229,-0.015922783,0.015741333,0.0029366426,-0.021642843,0.0074892906,0.023382192,0.023540396,-0.008580121,0.022563742,0.002993042,0.008773177,0.011373363,0.03130551,0.014800252,0.0060674693,-0.0035705555,-0.021225162,-0.026343575,0.008472522,-0.028133277,-0.026238604,0.0032526297,-0.005616576,-0.028398778,0.015338957,0.010246772,0.021844544,0.02745315,-0.010021195,0.031773504,-0.0057138973,0.035452683,-0.018997233,0.03347431,-0.03457981,0.014112933,0.034245342,-0.013063138,0.015133745,-0.026687237,-0.032668144,-0.035912104,-0.021010602,0.030077131,-0.034919947,0.018330552,0.03233913,0.00379725,-0.016238248,-0.032906186,0.018463686,0.0023850168,0.022144731,-0.009293215,0.009439345,-0.00024208003,-0.035307553,-0.017889857,0.009918863,-0.012734571,-0.01908571,0.03199677,-0.01558292,-0.0039878446,0.018817414,-0.019722674,-0.031441905,-0.0012981475,-0.0051270216,0.025375575,-0.0062045767,0.024013907,0.0045006718,0.03182028,-0.026448652,0.012114889,-0.021543374,0.026817212,0.031926103,-0.010334902,0.019005522,-0.021864623,0.011742536,-0.02590603,-0.014566668,0.02345595,0.028532337,0.009961967,-0.028042015,0.0062548635,0.02568066,-0.0073146406,0.025131922,0.011769967,-0.008509162,-0.01829086,0.016483257,-0.00603571,0.012302793,-0.000108751374,0.026328983,-0.034676887,-0.0140908025,-0.02631825,-0.0064592655,0.02479915,0.01794206,0.011404562,-0.013056093,0.006303383,0.029154953,-0.018850448,0.0011707812,-0.030541522,0.012018826,0.012086762,-0.023376647,0.005185856,0.005780327,-0.011758319,0.016230514,0.022873968,0.03251797,-0.024783086,-0.027968029,-0.023679709,0.0041106953,-0.024842491,-0.029728213,0.0153407585,-0.032613367,-0.03373002,-0.027770163,-0.030305726,-0.030762946,-0.00955848,-0.023628924,0.019182818,-0.013795042,0.032411326,-0.016564364,-0.0037322207,0.006543634,0.031870943,0.01507851,0.005805965,-0.017535612,0.0060955063,-0.0037878193,-0.0064109094,0.021781385,0.019359415,0.0027280634,0.033001624,0.014534893,0.032885607,0.029445125,-0.008622332,-0.014717594,0.0066770683,0.025594056,-0.02876461,-0.033854295,0.029380916,0.03418917,-0.03465287,-0.020392757,0.02449354,0.013505334,0.033041444,0.012590527,-0.011452509,0.021969901,-0.027493466,0.025380496,0.033477094,-0.033916242,0.015212462,-0.034970313,0.02384136,0.018186063,-0.011228144,-0.0039238273,-0.025477318,-0.028555887,-0.030885722,-0.034376808,0.01747115,-0.017424745,-0.013378508,0.026224624,0.012719793,-0.023854902,-0.021228015,-0.030676827,0.013482755,-0.015628094,-0.017273096,0.002603395,-0.009998164,-0.022311766,0.016747184,0.01796408,0.029812032,-0.0207954,0.028548062,0.015748445,0.026030958,0.031084564,0.014716289,-0.015279505,-0.0098671345,0.019393237,-0.035242602,-0.02510423,-0.013706487,0.029207999,-0.021362092,0.003738128,-0.0030084453,0.024935525,0.023679858,-0.022986054,0.035728447,0.01528817,-0.031246351,0.015426702,-0.027778266,0.022171022,0.0023783436,-0.027563082,-0.027400313,0.03051127,0.0137096895,-0.027553052,0.03252132,0.010972939,0.009135829,0.009637694,0.026815701,0.015364475,0.00840949,-0.03359136,-0.0021469814,0.0068955543,0.020594133,0.017572323,0.011240679,-0.033405486,-0.029407345,-0.019795367,0.019195037,0.023858452,-0.01628874,0.03001546,-0.009229549,0.02105675,0.035020854,0.02932815,0.006243885,0.0069689187,0.0052648825,0.016129563,-0.004501668,-0.011357146,0.02466776,-0.025112975,0.021957984,-0.029441243,-0.0019863178,-0.016958226,0.013653186,0.010114401,0.028242504,0.020179626,-0.0044255317,0.0139615,-0.024198558,-0.011197461,-0.030509762,0.0034565497,-0.029084442,0.008745545,0.022758743,0.012246937,-0.022872714,0.029776135,-0.0037542065,-0.03544118,-0.030420456,-0.00962615,-0.0005526242,0.009670667,-0.013685,-0.0037732148,-0.0053768167,-0.0025578835,0.0190204,0.032213155,0.004125225,0.024250269,-0.035218652,-0.010317783,0.027104422,0.034538265,0.016967306,0.0247327,0.008519783,0.0013989719,0.0031275149,0.022571491,0.0035527113,0.0057378053,0.03493877,-0.014079136,-0.017658934,-0.02295419,0.016973415,-0.034028646,0.013568721,-0.0056592375,0.03035725,-0.03164855,-0.011287692,0.0011583106,-0.03362382,0.004464193,-0.03602146,-0.019171875,0.03253738,-0.009917001,-0.028873647,-0.010814118,-0.023768557,0.029855905,-0.025003158,0.015836949,0.021469433,0.016320543,-0.035083015,-0.03483664,-0.0025737311,-0.002732667,0.008929708,-0.022355704,0.009335328,-0.025271986,0.0076103914,-0.020585723,-0.003981699,-0.014142307,-0.034391068,0.0007253001,0.007764017,-0.02543014,-0.015352262,-0.026307581,-0.03525219,-0.03288295,0.0161857,0.0045721238,-0.029827768,0.016398102,0.027075958,0.007979061,0.024653003,-0.012821552,0.009270279,-0.03586925,0.029471006,0.016657293,0.019414661,-0.011001692,0.021687364,0.0168958,-0.016209254,0.015075738,-0.0035380647,0.010171689,0.028302157,0.035237864,0.032708015,-0.026278812,-0.015736982,0.015534203,-0.006642324,-0.028780218,-0.028622262,0.028598629,-0.02841732,-0.009320861,0.026590195,0.028656092,0.021002764,-0.025958693,0.010064617,-0.010393767,0.021569084,0.027053926,-0.015419829,0.0074840556,-0.003837085,-0.011306236,-0.02985654,-0.0074410294,0.0070923045,0.023290396,0.028470675,-0.0008136365,-0.012806535,0.0132277,0.015530458,-0.01687785,0.030330341,0.023833958,0.023895996,0.015610631,0.004309375,0.02106026,-0.01790116,-8.874233e-05,0.017176954,-0.011666039,0.020873835,-0.031254813,-0.02878448,0.0075885397,-0.0042952145,-0.026210183,0.01267939,-0.02505954,0.0057406984,0.03277815,0.029421624,-0.006294062,0.009364657,-0.008905165,0.0016602239,-0.012365722,-0.015907068,0.0018436745,0.013954788,-0.0021838865,0.022793857,0.033745024,-0.034210037,-0.0015493428,0.012897831,0.0048329686,0.021061705,0.024948057,0.00887158,0.018961241,-0.00033836105,-0.01033004,-0.011729588,-0.025121221,-0.008035213,-0.029251598,0.006297588,-0.0015478218,0.0018225691,0.007880089,0.01968219,-0.0074781696,-0.004262757,-0.027157681,0.007824402,0.029911002,-0.008079553,-0.034142155,-0.017348979,0.018044401,0.028530028,-0.026371224,-0.030729894,0.032287255,0.032656092,-0.0018266973,0.021640977,0.028615389,-0.008534354,-0.026955359,0.025264671,-0.014780335,-0.02476707,0.0148267215,-0.002357987,0.009571395,-0.00194277,-0.0077624856,0.031137384,0.02870565,-0.020780433,0.03066896,0.016790563,0.0067818025,0.015527536,0.00059011916,-0.0096622035,-0.017909367,-0.0034660287,-0.029694,0.033915974,-0.011514206,0.003522219,0.028252456,0.025568048,0.0010191655,-0.011186967,0.0030120064,-0.0128814485,-0.020995487,-0.023769934,-0.004255274,-0.011401505,0.018246822,-0.0038380967,0.032620337,0.0009469774,-0.018409431,-0.021218587,0.0092035895,-0.03413605,0.008518601,-0.0001348588,-0.02613488,0.011458765,-0.012372304,0.004796285,-0.013739464,0.010299839,-0.0052696997,0.024070522,0.00054468657,0.027994882,0.0016690705,-0.011917055,0.0135021545,0.027495516,-0.016243426,-0.027507888,0.02906971,-0.00034760626,0.023510875,-0.0014043652,0.034649786,0.01751009,0.008883886,-0.026797453,-0.020567097,0.028187366,-0.013195149,0.033480812,-0.034989946,-0.025765026,0.0034224656,-0.020611018,0.008304305,0.008872002,0.018536594,-0.03361908,-0.0047813444,-0.011581534,0.0010501953,-0.014427947,0.02112012,0.03158113,-0.0285218,-0.03262764,-0.0004305654,-0.021188878,0.0052471124,0.026235964,0.003724485,0.0016724708,0.00087340845,0.007195827,0.02500721,-0.021913508,-0.007679005,-0.031416968,0.033376157,0.0032257424,-0.033267908,-0.0050889514,0.013980899,0.021621862,-0.014167923,0.009043703,0.02064361,0.02034717,-0.025476556,0.028114462,-0.00087463396,-0.030562717,0.02537414,-0.011613378,0.028728262,-0.034552928,0.024648443,-0.026726967,0.012597484,0.007511369,0.015140312,-0.0056386935,-0.019592538,-6.829831e-05,0.024073,0.014699183,0.009785255,0.029679198,0.033066306,-0.030840304,-0.006531328,0.002268874,0.014814213,0.025713056,0.033128127,-0.012748331,0.012862192,0.026725557,-0.02538544,0.026743777,-0.01930337,0.021312654,0.0024909643,-0.006082892,-0.033367433,-0.032953907,0.008544129,-0.021774298,0.018921606,-0.00895552,-0.034052785,0.03138443,0.011256442,-0.008407684,0.03559018,-0.008305429,-0.0015804172,0.029186409,-0.022385875,0.034084264,0.015092842,0.02262495,-0.030110035,0.025451556,-0.010882955,0.00097582815,-0.007712544,0.02003842,-0.012456632,0.013664059,-0.005417761,-0.03183773,0.017909346,0.01564534,-0.011248367,0.0121241715,-0.0007889702,-0.019980434,-0.028907983,0.034466702,0.025874835,-0.0065014553,-0.018745866,-0.022425389,-0.004607985,0.0004979037,-0.0061406065,-0.030870209,-0.035332963,0.022072135,0.018699901,0.016652096,-0.021587748,-0.0056158714,-0.020479666,0.009395827,-0.007937994,0.03409493,0.024484916,0.03444821,-0.030189158,-0.014012739,-0.0008137337,0.005914773,0.01392535,0.0045897164,-0.017252179,0.01019429,-0.034781247,0.017606303,-0.013075935,-0.00080032274,-0.030587658
-0.02238054,0.0063248947,0.01738695,-0.031805053,-0.01654143,0.032920767,0.0056070387,0.016835932,0.013988137,-0.022424826,0.02788293,-0.010119123,0.019166626,-0.0179644,-0.005772542,-0.0029958824,0.010750428,0.025613837,-0.015713042,-0.00882009,0.033817995,-0.028156329,-0.03342668,-0.021674067,-0.03422473,0.03200421,0.000413917,-0.024846133,0.01222273,-0.02705603,-0.021102931,0.03278405,0.015757916,0.0053280615,-0.02298411,-0.033182304,-0.025094382,-0.011977975,-0.020346936,0.011689487,0.022150546,-0.019763058,0.032246906,-0.013791955,-0.006025776,0.035450187,-0.017633738,-0.027635291,-0.014504377,-0.00091038115,0.014019321,-0.011255556,0.02518582,-0.00839743,0.029068891,0.017123643,-0.03141263,-0.0027170144,-0.027346566,0.02636552,0.02347325,-0.013781908,0.008915204,-0.03173523,0.030355006,0.021495413,-0.00563604,0.012664873,-0.032335017,-0.018943721,0.016422672,0.00076850876,-0.019473024,-0.0227342,-0.001867182,0.006173193,-0.0016692132,0.015540614,-0.020126391,-0.012814762,0.0012055498,-0.017550422,-0.030656535,-0.03306177,0.016629718,0.022378765,0.005258904,-0.026990313,-0.0037525124,-0.011193815,-0.0030096867,-0.00531315,-0.027722504,0.031108683,-0.023145419,-0.025056932,-0.012267764,0.00309714,0.026218234,0.008402949,0.018989183,-0.010646413,0.016004184,-0.018031977,-0.027097104,-0.027853835,-0.010743275,-0.0001539343,0.021365086,0.00787248,0.020424563,0.007352732,0.0023438968,0.033713818,0.030175583,0.026499467,-0.033418305,0.012940409,-0.032086324,0.027039712,0.01759203,-0.0035596697,0.020463381,-0.010125397,-0.021951202,-0.012595365,0.009964694,-0.03165708,-0.03365279,0.0012151162,-0.034391545,0.034911238,0.0122519275,-0.029602777,-0.027830508,0.0020996074,-0.007081775,-0.022745496,0.010206827,0.0016097171,-0.032672744,0.0037304424,0.026297724,-0.0024227235,0.0050499435,0.03216964,-0.015641395,-0.017024415,-0.006996016,-0.012108304,-0.00017391845,0.01146949,-0.00064707414,0.0110039115,-0.016905256,-0.023266736,0.021685777,0.007566881,0.0013253954,-0.025675664,0.02113328,0.024171751,0.034704454,0.033133764,0.021010404,0.020500012,-0.017705135,0.024330331,-0.03377525,-0.024135882,0.03419761,0.016290765,0.0031077745,0.014266337,-0.0034360779,-0.022002196,0.008289783,-0.021217566,0.025955237,0.017934365,-0.009281605,-0.029117696,0.030166883,-0.008795962,0.020514866,-0.014641706,0.02132374,0.009785835,0.01603133,0.0077902703,-0.00636138,-0.020647343,-0.03103881,0.029360713,-0.0045517823,0.010518157,0.009427093,0.022622334,-0.02950599,-0.030337492,-0.032511737,0.034270596,-0.021071505,-0.002775298,0.016121881,-0.017210808,-0.013513391,-0.022933587,0.013796085,-0.012124312,-0.032549165,-0.019757176,0.025021084,0.013131563,0.01322808,0.008170954,-0.016541433,0.020510292,-0.0045028264,0.022227108,0.016447376,0.01388481,0.025884863,-0.03201479,0.004204231,-0.034181405,-0.010399513,-0.02971283,-0.02155488,-0.024072817,0.011703241,0.0037827597,-0.012471498,0.0005101014,-0.00091233535,-0.0307889,-0.016864924,-0.007227938,0.012267957,0.028579121,0.016814303,-0.029748447,0.033220246,0.005103753,-0.010985612,-0.008022239,-0.01671768,0.0045060953,0.0076563,-0.024294235,-0.01119989,0.033485543,-0.034178127,0.028243853,-0.016210077,0.008426925,-0.026958827,0.0024435946,0.01576237,-4.627314e-05,-0.028574392,-0.035552524,-0.03209725,0.006044468,-0.03166634,0.0064899195,0.011287407,-0.031734012,0.028491348,0.007667623,-0.026092391,0.03469303,0.024320854,-0.0012789179,8.610128e-05,-0.025490185,-0.013357835,-0.0035502322,0.028212322,-0.0067454646,0.00077996467,0.019657284,-0.0216177,-0.021316241,0.027570074,-0.0037183182,0.009481033,0.027432349,-0.008990178,-0.010399745,-0.008399326,0.0020577468,-0.018001348,-0.03371165,0.021265065,-0.022130085,-0.022636589,0.010665791,-0.003922424,-0.012321293,-0.020648666,-0.0021645362,0.008134861,0.025224466,0.031925384,-0.02233606,0.016914072,0.029489197,0.0018505815,0.027676739,-0.019222524,0.03280251,0.016549964,0.025272137,0.014765756,-0.009961512,-0.021047093,-0.029166533,-0.028281169,-0.02326632,-0.005473399,0.01759548,-0.00835718,-0.00030073264,0.02014242,-0.011067623,-0.009701215,0.03288985,-0.015216732,-0.00790359,0.026583685,0.0021143542,0.0001917364,0.007182675,0.029914245,-0.010644274,0.013686818,-0.033396896,-0.024376841,0.02777221,0.011990288,0.0031846545,0.02386348,0.02889556,0.016534064,-0.027493596,0.0017760678,0.03554057,0.008819863,0.0097188605,-0.030721795,0.016298752,-0.033989828,-0.029552376,-0.01837369,-0.009845938,0.026528554,-0.021093963,-0.010192626,0.023767339,-0.01826883,0.02159691,-0.019043373,0.033656012,-0.023585096,0.012150379,0.0015960434,0.012735964,0.008161773,-0.025736853,0.012998508,-0.02793163,-0.004619994,0.022464357,-0.019280162,0.03459831,0.025554962,0.029358163,0.0076858895,-0.0144618265,-0.030288914,0.0143951,-0.01136036,-0.016068537,0.03409513,0.024162557,-0.03524236,0.004371726,0.010337938,-0.019980825,0.035240006,-0.025667464,-0.020452604,-0.00254734,-0.024616636,-0.03521712,0.025106397,0.0058233724,-0.029103374,-0.025782377,-0.0038836002,0.033087917,0.008095319,0.010378565,-0.031663008,0.03321587,-0.024802836,0.029307147,0.031449694,-0.03196876,0.026218822,0.03580062,0.01278576,0.005734455,0.010088174,-0.029433332,0.019502776,-0.0051946943,0.008098206,0.021094486,-0.007529091,0.032704685,-0.0013325057,-0.019693416,0.008134137,0.029918186,0.029510377,0.014103239,-0.02939065,0.008338916,0.027222252,-0.012523746,0.02963801,0.021425806,0.027798275,0.021743976,-0.01180499,0.025043517,-0.026116885,0.017133398,0.0065134764,0.021401694,-0.015986182,-0.0047074747,-0.008693381,-0.0046610152,-0.002996271,-0.019582639,-0.0047741793,-0.003159074,0.017080678,-0.020872837,-0.011824921,0.010867969,0.03073242,0.033839934,0.018408602,-0.012637437,0.033536326,-0.014867968,0.0018497144,0.010392225,-0.003783103,-0.023953957,-0.007592073,-0.005624967,0.017629154,0.0023032005,0.032115426,-0.025729215,-0.033080406,0.027392972,-0.025770752,-0.0067952625,0.013330171,0.032422602,-0.026708633,0.0077845063,0.03358744,-0.009675455,-0.032650083,-0.03401632,0.031604774,0.030917965,-0.019465158,0.033451427,0.016717635,0.030287674,-0.028560841,-0.010233117,-0.017870592,0.024053624,0.036099777,-0.032491248,-0.0013221888,-0.016364539,0.03213783,0.0064619277,-0.03008938,-0.011336488,-0.031656366,0.028076014,0.024388766,-0.016827114,0.0042192903,0.015550632,0.012338767,0.005518996,-0.006016673,0.008067274,-0.014385422,0.020392813,0.002426829,-0.018360773,-0.0003628947,0.015510622,0.023226397,-0.019106403,-0.01735011,0.027706767,-0.030423574,-0.024375444,0.03577913,0.011331423,0.008325494,-0.030790025,0.0337635,-0.03118342,0.0009770435,-0.007396565,0.004450562,0.02372662,0.02016322,-0.027079567,7.6355565e-05,0.009297171,0.01555134,0.0008600145,0.01763356,0.027887883,-0.0070771654,-0.022385407,0.03031337,0.008285762,-0.010319774,0.036384486,-0.0009834863,-0.015528225,0.00080960157,0.027995061,0.007735179,-0.01716734,-0.013342786,-0.017926738,-0.0027622657,0.023502769,0.028315803,-0.02514233,0.02435485,0.012735352,0.01986619,0.02399758,0.011504552,0.0144167645,-0.0017368979,-0.02563857,-0.014655002,-0.0054967874,0.016722176,-0.017962294,0.025417496,0.008392355,-0.0022921413,0.011357295,0.004018038,0.00616884,-0.029035611,0.017981991,0.02506231,0.018360432,-0.0016355566,0.019041676,0.035310615,-0.02723312,0.022726046,0.019387936,0.013574358,0.020847294,-0.02795965,0.0036566763,0.023277497,-0.025864365,0.029178377,-0.035026103,0.018601965,0.034349933,-0.0026532025,0.030416096,-0.01288027,0.017424082,0.00042338975,0.01548181,0.032120723,-0.020248717,0.026956009,-0.031001305,0.01568213,-0.018731553,-0.002714185,-0.019014586,0.035000738,-0.02450338,0.0053521446,-0.027319398,-0.004540072,0.016094293,0.031518515,-0.0257467,-0.011002356,0.02509881,-0.029088827,0.0021049785,0.002341884,0.0152795715,0.004719977,-0.00071320066,-0.014129055,0.027126975,0.023630956,-0.036527585,-0.019187765,-0.004254152,-0.01287892,-0.024093965,-0.00033259162,0.030720007,-0.018308215,-0.010439934,0.01750169,0.005574538,0.006587566,-0.025703488,0.010707936,-0.005175264,-0.028701877,-0.0022509024,0.032137405,0.019129064,0.030687457,0.0028782326,-0.014727355,-0.0031374344,-0.035895076,-0.032281354,-0.034860402,-0.027232587,-0.008931151,0.025185315,-0.022270849,0.026473565,0.009241332,0.024850728,0.01844182,-0.0076937564,-0.021539243,0.0113927955,0.010781743,-0.025450742,-0.0040619285,0.022140462,0.022619136,-0.006451981,0.006204255,-0.014152119,0.028769378,-0.032469403,-0.03247608,0.019204414,-0.015489515,-0.029167907,-0.020204961,-0.022226594,0.011581043,0.019934837,-0.02761579,0.0019012594,-0.02998313,-8.3441184e-05,-0.034047164,0.0012630649,0.005868801,0.0329928,0.011914298,0.022745874,-0.025766429,-0.012112385,0.008643067,-0.016488211,0.034696847,-0.010525504,0.026369695,0.01042214,-0.029882146,0.0011054236,-0.020442825,0.01563083,-0.012779794,-0.031655304,0.005390519,-0.015211623,-0.010162337,-0.00984048,-0.02579431,0.002616828,0.0033332591,0.0111228535,0.009578929,0.0010873823,0.03285362,0.016265454,-0.008559662,0.021586835,0.022375628,-0.026073925,0.007048963,0.00437266,-0.02567514,0.013538323,-0.027578704,-0.026879806,-0.02516967,-0.023897959,0.032808878,-0.0062952163,-0.021682901,0.024082428,0.0056605553,-0.0040574363,0.027948504,0.026077667,-0.03427282,0.014744131,-0.02417651,-0.006274425,0.013085034,0.018179586,0.0333357,0.009641258,-0.0014498068,0.0072137476,-0.008178957,0.020929689,-0.029922644,0.03402726,1.0218471e-05,-0.024356537,0.010076396,0.025416996,0.0056491755,-0.009680685,-0.012610458,-0.011848062,0.009593104,0.02259227,-0.016848661,0.015514304,0.008816679,-0.03438593,-0.024146039,0.009922586,-0.030545976,-0.035535473,0.008491526,0.021313155,0.022694323,0.0033726122,0.010802779,0.0139183765,0.009573528,0.029249527,-0.034929957,-0.022877473,0.0072622076,0.034299713
0.03111684,-0.03182953,0.01944714,0.013066962,-0.006751282,-0.0040829256,-0.011421289,-0.021001741,0.027491692,-0.029828856,0.011336379,0.028012965,-0.021209532,-0.021423353,-0.020987112,-0.013655076,0.003793694,-0.011361651,-0.027222235,0.016222414,-0.03138187,-0.018868763,-0.01768626,0.011885069,-0.010529004,0.034278836,0.018285915,-0.022990726,0.022132527,-0.025052693,0.025215399,0.011544444,0.0346079,0.012472998,-0.0075172246,0.014749087,-0.0045286226,-0.008545437,-0.017596906,-0.017507661,-0.0055093397,0.016047297,-0.020914568,-0.00075367495,-0.020391816,0.03436417,-0.034490522,0.0034787643,0.00088909135,-0.030788256,3.4883233e-05,-0.031890802,-0.013053903,0.023385163,-0.016818367,0.027283218,0.033081394,0.0071530417,-0.023662524,-0.030244105,-0.026443554,-0.017588109,-0.030915804,-0.025446905,0.009063036,0.021037668,-0.018048272,0.019102426,0.013936418,0.035190295,-0.030953126,-0.0017333849,0.011348747,0.02706785,0.0057537616,-0.01592167,0.010718601,-0.034845002,0.025078798,0.013424542,0.0034605225,0.0046722433,0.017852206,-0.025819294,-0.0045548007,0.030395847,0.0049675005,0.03261561,-0.022955064,0.021333905,0.029285593,-0.026541369,0.018986497,0.032551676,0.011656691,0.027220624,0.024530118,0.000600237,0.0014374529,0.020882284,0.0024417818,0.011301868,0.008310753,0.018256187,0.017219514,-0.018665642,-0.01769816,-0.032304995,0.02190065,0.03570767,0.0020302685,-0.0060637817,-0.032523684,-0.0025594134,-0.009278869,0.021954672,-0.02585183,0.010291372,-0.0007048267,-0.023704661,0.020209568,0.0071492963,-0.006207557,-0.0043973695,0.035362445,-0.016313378,0.023502462,-0.023867419,-0.017359976,0.00013822888,0.019560741,-0.027677992,-0.0032334554,0.012758804,-0.024321774,0.011752841,-0.019572899,0.009337522,0.014936595,-0.028278435,0.032902475,0.0030669458,0.022466028,0.030924853,-0.012281237,0.033662252,-0.01101667,-0.004778992,-0.015497859,-0.026698658,-0.031631038,0.018359933,-0.018713523,-0.010839598,0.0031953645,-0.0212887,-0.024411527,-0.01094955,-0.034149066,0.020942282,0.006565199,-0.009930176,-0.012589865,-0.011024608,-0.02041859,0.01374673,0.014821782,0.031785544,0.015241101,0.028749686,-0.0027787862,0.001506918,0.012491536,-0.0037767238,-0.03155505,-0.017447818,-0.025389371,0.009661804,0.022398911,-0.016238928,-0.013877653,-0.007892338,-0.03602284,-0.020816153,-0.022545923,-0.00068873644,0.0067120576,0.00911286,-0.030963069,-0.015294875,-0.0005122235,0.011275221,0.028118115,0.0032663501,-0.030209834,-0.035577197,0.013568988,-0.010064542,0.03251666,-0.022578247,0.027989613,-0.009765286,-0.011771504,-0.02217964,0.020665422,0.025168076,0.035682548,0.008834513,0.007065325,-0.01401282,0.011496225,-0.0124157,-0.03177177,0.009245519,0.0002905425,0.035154987,-0.033773765,0.014185852,0.0009431887,-0.03208291,-0.005421657,0.008873408,-0.0092743775,-0.007863746,-0.026648413,0.017466176,0.019575419,-0.0031009098,-0.012533869,0.022263443,0.022879902,-0.0077441335,0.010780507,-0.026757155,-0.030006902,0.030294081,0.009488955,-0.015176922,0.03616851,-0.02315799,0.02587663,-0.007632057,0.005803358,0.025491677,-0.031707957,-0.015663393,0.02157494,-0.026233215,-0.03576208,-0.014163875,0.03281118,-0.021939436,-0.0016476163,0.005210572,0.028889533,0.019768944,0.007409382,0.017522562,0.004776572,0.0001817856,0.020124655,0.008147927,0.022697173,-0.0061911927,-0.029092763,-0.0070949597,0.029959567,0.027111933,0.0028557186,-0.007846188,-0.0332838,0.025274688,-0.004407402,-0.021572713,0.023307947,0.00030461082,0.018900603,-0.00024575615,-0.018192733,0.023829682,0.034896635,-0.027088337,-0.031014815,-0.0015118972,0.0019889465,0.0020167986,-0.026374202,0.031363662,0.03432699,-0.0033536504,0.021911716,0.015829934,-0.0011078484,-0.014718492,0.032786366,-0.016295463,0.004401989,0.025266135,-0.012563214,0.01904915,0.03347847,0.0014590431,-0.012912137,-0.017659081,0.029049832,-0.028381828,0.035344332,-0.027064059,-0.027417505,0.026864486,0.028103517,0.028348716,0.0034479513,0.024132913,0.018706823,-0.027358064,0.033756237,0.020590832,-0.021037193,0.00622493,0.029160066,0.034140974,-0.012994709,0.02420218,-0.031092204,0.034810577,-0.022428636,0.024508758,0.004109982,-0.017673897,-0.021901065,-0.02737411,-0.016608836,-0.035189062,0.010190118,-0.014238994,-0.018999495,-0.023056792,-0.0019214912,0.02330456,0.032180738,-0.0035273584,0.0010491189,-0.025766745,0.020565314,-0.0020194573,-0.0069250986,-0.025723096,0.0087435525,-0.032532953,0.028260523,0.013368955,0.024503918,0.013707608,-0.018919855,0.0016376001,-0.023791667,-0.005931696,0.0025419923,0.03167476,-0.0060945735,-0.030359345,-0.017527603,-0.020149356,-0.014943719,0.028523503,0.03433781,0.03454419,-0.00097836,0.027772687,0.028359372,-0.032208033,0.027480563,0.026457187,-0.035635732,0.03444734,0.019846378,0.019475197,-0.021988615,0.0009379967,0.02683497,-0.0048693856,0.02270249,0.015642777,0.013333285,-0.025787314,0.028308004,0.020830106,-0.0026827252,0.02806302,0.022751166,0.020854287,-0.033499256,0.010479144,-0.016133578,0.0018108872,0.028759692,-0.0023897616,-0.0058732308,0.011372009,0.022515673,0.0013966206,0.027412824,0.023649774,-0.006607834,0.0033841284,-0.03189257,-0.021823896,0.032555547,-0.008025656,0.033305023,-0.0015673502,-0.0057691406,0.03135983,-0.016856274,0.01926008,-0.029066142,0.015657417,-0.0052568284,-0.009456251,-0.0004157701,0.0023701983,0.000852328,-0.026444998,-0.002149973,0.033403732,-0.033498496,-0.017019423,0.0050246413,-0.0020667326,0.032348756,-0.023489268,0.00322255,0.023694523,-0.0321615,0.001510171,0.011497052,0.031694993,0.018952271,0.030105395,-0.00073444983,-0.012975622,-0.005510265,0.025055187,-0.010643509,0.032508515,-0.023889083,-0.005501516,0.0032950141,0.026964167,0.024075642,0.0029024868,0.034152,-0.028031709,0.007190942,-0.014953525,0.013147441,-0.011575399,-0.015533961,0.025882961,-0.002791446,-0.0014362594,-0.03553804,-0.022888316,-0.020794893,-0.027219933,-0.024923183,0.0059041795,0.012744417,0.0303796,0.0024380817,-0.032767523,-0.03386862,-0.03213698,-0.020100906,0.0017522695,0.0029127821,-0.011561061,-0.03433579,0.02546152,-0.027328443,0.018908285,-0.020155357,0.010161542,0.03255928,0.014882846,-0.018174056,-0.022218324,-0.0041933926,-0.028150978,-0.0146517195,0.016888846,0.021448791,0.012899795,-0.017155584,0.022997713,-0.002982926,0.008951434,0.012907797,-0.01649057,0.011499848,0.023966774,-0.029801318,0.014558855,0.031638525,0.011315374,0.03467608,-0.00844886,0.0145813795,0.024942802,-0.022403156,-0.022742664,0.027295988,0.008694498,0.008442477,-0.011158976,-0.0006206255,-0.003329553,-0.026336271,0.021077367,3.069813e-05,-0.0062667187,0.0020196147,-0.009039505,-0.009179181,-0.025644515,-0.028129011,0.01854183,0.025906792,0.027143063,-0.017851489,0.010552979,0.008230656,-0.006905408,0.030232726,0.0099584935,-0.0020742444,-0.025219712,-0.010840885,0.00251768,0.024714308,-0.030838868,0.016737424,-0.03091559,0.0051109307,0.0051098554,0.023496814,0.03404668,-0.035106,0.0064591058,-0.010817413,-0.004847399,0.0047737816,-0.035005093,0.009476286,-0.0011205266,-0.017194293,0.033591025,0.011857922,-0.006076973,-0.028249022,0.030043874,-0.018496616,-0.01757927,0.030271484,0.022959609,-0.015865546,-0.01251072,-0.03104589,0.021890823,-0.028738856,0.00076952635,0.007025065,0.0049921474,-0.02133063,0.027275624,0.0032254078,-0.011254751,0.0039810645,-0.025844496,-0.033887204,0.010943953,-0.008685833,0.013777283,0.020141952,0.026421858,0.033179037,-0.03223745,-0.015610529,-0.013691212,-0.022785334,0.014903355,0.035439234,0.00580759,-0.026642337,0.034609422,0.01747903,-0.03429326,0.013866831,-0.03087056,0.01026351,0.022616705,0.019535558,0.01805156,0.031235479,0.020336663,0.02351896,-0.021641238,0.0044879536,0.02142734,0.016407086,0.020357067,0.017909154,-0.032162238,0.0040932563,0.026728855,0.008089244,-0.0042919326,-0.028893424,-0.032126058,0.024481982,-0.027683377,0.010088591,-0.031557564,0.009353692,0.01237116,0.015550819,-0.0077343485,0.030057075,0.018470561,0.013907538,0.007792958,-0.03517745,0.014507823,0.025929468,0.0015531008,0.00989905,0.014844543,0.018741347,0.011478939,0.027973147,0.022344999,-0.01457261,0.0065911515,-0.028400525,-0.011506213,-0.015860176,0.014935679,-0.026232844,0.012062477,0.00673842,-0.024233203,-0.033938453,-0.0014364081,-0.025750272,-0.0065898043,0.03223831,-0.0015678805,-0.02724323,0.019640869,0.014377665,-0.015818799,0.01286167,0.010385762,-0.03134697,-0.0186071,-0.014967646,0.022716438,0.0008873206,0.0059366315,0.009521319,0.02374338,-0.006103128,-0.0033412687,-0.006805454,0.021964362,-0.015662398,0.029433448,-0.012340495,0.0008073731,0.020340616,-0.02410383,0.02158238,0.02849134,0.03004933,-0.024175603,-0.0026532917,0.0016198613,0.035857107,0.022296228,0.0012248522,0.030920807,0.0033120918,0.01030024,-0.031453438,0.014831021,0.014411366,0.026666077,-0.026043769,-0.002022218,0.009279609,-0.03456416,0.031762827,-0.029781803,-0.002171249,-0.02406953,-0.023233991,0.019352514,-0.0043491004,-0.026211467,0.031578757,-0.014172271,-0.006979334,-0.0049260347,-0.026068697,0.0014192796,0.0048801326,-0.008800754,-0.030841807,-0.03220464,0.0075079035,-0.0070015676,-0.0101843225,-0.022769323,0.024927277,-0.033111323,-0.01619037,0.026516967,-0.0019688606,-0.026716255,0.01671382,0.0016130805,-0.014877247,-0.014199014,0.008356881,0.02309448,-0.025520248,-0.03527382,0.034758165,0.001848233,-0.017005857,-0.030339655,0.031069942,-0.013410768,0.0032846516,-0.031639878,-0.007127102,0.0075871274,0.032687455,-0.009182124,0.024889134,0.015730312,0.027582502,0.016025463,-0.0038554296,0.02772678,-0.0016482957,-0.007751882,-0.011736594,-0.020618107,0.0049241125,-0.034737043,0.017630069,-0.008579205,-0.007748492,-0.034381576,-0.004562181,-0.015093968,0.010635011,0.010619887,-0.03420292,0.013717977,0.01517545,0.024086365,-0.019457178,0.0017440381,-0.035144363,0.02986002,-0.029239459,-0.023752034,0.026406232,-0.004657779,-0.00020333007,0.035665367
-0.02816176,-0.015548553,-0.033178985,-0.016798029,-0.010081096,0.01295175,-0.008393589,-0.026980605,-0.009366006,0.026815977,0.00073922426,0.0012975968,-0.030443689,0.006080641,-0.03353493,0.019513387,0.005648762,0.0034478009,-0.0027614422,-0.0348798,-0.019722033,0.03532594,-0.015011452,-0.024071783,-0.02022766,-0.03454369,-0.006523827,-0.025091738,-0.03443919,-0.0026907958,0.018744066,-0.016008591,-0.010889083,-0.0045085214,0.0029457428,-0.0074821915,0.029233327,-0.026301298,0.010426841,0.032906443,-0.0030885423,0.014363354,0.017510759,-0.0060984874,0.006392601,-0.032964837,0.0005014418,0.031337596,-0.010420042,-0.011222902,-0.034720488,0.0024402756,0.016593948,0.015773002,0.012869675,0.0005531274,0.02943642,-0.031704023,0.018242458,0.019042509,0.03204051,0.021485576,-0.028226934,0.010586232,-0.030962722,0.03552399,0.030334225,0.0025648703,-0.011228445,-0.020118669,0.03322894,-0.01923799,-0.020336386,-0.01432561,-0.0018787901,0.024232527,0.016169544,0.0037675845,0.013135365,0.023865808,0.0098142065,-0.0011823758,-0.0062703583,0.015505947,-0.024056226,-0.024522778,-0.017320342,0.022963304,0.010911963,-0.02192577,-0.010499893,-0.016573066,0.015966583,0.023231732,-0.019746192,-0.009842918,0.02531453,0.0057660737,-0.010977483,-0.01332001,-0.031033186,-0.030772181,-0.022769568,0.00029328992,-0.0003899139,-0.016629647,-0.02444613,0.013975315,-0.019004988,0.0240245,0.0069785165,0.03215989,0.011882488,-0.0029382408,-0.027094755,0.032293968,0.0006799789,-0.005039746,0.028925773,-0.0048562493,-0.033868022,-0.006985993,0.018493539,-0.005249034,-0.015389514,0.007235358,0.0036004237,0.00938664,-0.010963877,-0.026271718,-0.024625413,-0.016164754,-0.01852377,-0.013800264,-0.024232276,-0.015047741,-0.0059335465,0.03418442,-0.032202348,0.03259557,-0.014348106,-0.033258207,0.0051519005,0.034582887,-0.0036990491,0.026053298,0.008781013,-0.008429305,-0.03373729,0.028083054,0.0012155558,0.01664428,0.016707623,-0.014685415,0.027648743,0.03008126,0.0071178414,0.009281512,-0.007652141,-0.015519307,0.0106909,0.01655442,-0.022079157,-0.03462991,-0.033887874,0.0035789635,-0.005646534,-0.007503455,0.027402278,-0.021837285,-0.01715603,0.0037304517,-0.010341742,-0.01651928,-0.019940782,-0.007323711,-0.014979115,0.02791877,-0.020157315,-0.020811655,-0.025197482,0.009825045,-0.030876324,0.03442158,0.00012858429,0.026077798,0.024314022,0.0037069295,0.007055294,-0.03297341,0.020756342,0.020914834,0.0059032086,-0.03240022,-0.029482283,-0.013308071,-0.028256873,0.004437716,0.03059462,0.031951055,-0.008486097,-0.00708763,-0.03401911,-0.004740375,-0.010828177,0.019102177,0.025956476,0.029040117,0.035999145,0.022269921,-0.020636378,0.035927225,0.0041397503,-0.0045645735,-0.0030712304,-0.0049030827,0.028263748,-0.015747111,-0.029437512,-0.011418321,0.011586058,0.031760562,-0.008561723,0.029484686,0.015311542,0.014898271,0.033253744,0.027687943,-0.010826761,0.035003994,-0.021284021,-0.021228304,0.0024491209,-0.025281174,-0.012453192,-0.019378737,-0.030375818,0.0099948095,-0.0043899673,0.031627044,0.008685378,-0.007357951,0.014782552,0.013463112,0.025275024,-0.02002769,-0.017602243,0.021487877,0.0019892696,-0.0055022845,0.03519603,0.009051389,-0.011703673,-0.030803941,-0.03557255,0.0105957175,-0.013348828,0.021652075,-0.03266637,-0.006486644,0.016421095,0.018140309,0.032832745,-0.0068577523,-0.0059410287,0.035887647,0.005760818,-0.015941078,0.005803978,0.02491178,0.00640267,0.017943164,0.014434927,0.013652227,0.02996568,-0.03426748,0.0082041705,0.03481832,-0.0035827248,0.03372983,-0.0020560566,-0.031145858,-0.002089235,0.0053459536,0.034309596,-0.024771918,0.0007938578,0.021658376,0.03067827,-0.01765912,0.022890437,0.01666453,0.028981965,0.020736123,0.006249686,0.03412262,0.009186272,0.021951567,0.0049246843,0.027177185,0.001627413,0.006981841,-0.02652772,0.028121036,0.028657435,0.0023579544,-0.0067612655,-0.012013023,-0.024034694,0.0149129145,0.032949906,-0.0037451626,-0.030413121,0.029295012,-0.018257478,-0.02941136,0.017229863,-0.031132136,-0.03355636,0.01740925,0.018387232,0.00011950232,-0.0062124864,-0.024001138,-0.020617263,-0.022716606,0.010508699,-0.019246835,-0.028697222,0.017341785,0.02090366,0.022598242,-0.018386452,-0.020005748,-0.03511588,-0.022835001,-0.012726296,0.004870165,0.027961351,0.022053786,0.019392563,0.003027314,-0.03529973,0.007386869,0.021198472,0.0136860935,0.01621065,0.023488328,-0.028045084,-0.023754919,0.015802734,-0.019001449,0.032038633,-0.036126293,0.032990612,0.0012441009,0.019586533,0.02714541,0.0050264755,-0.026020182,0.006898821,0.017765693,-0.023302387,0.024053877,-0.023855573,-0.009821742,-0.025286144,-0.008866943,0.035236467,0.019070001,-0.0003413835,-0.015334382,-0.021881778,0.0013496941,0.03526461,0.027903322,0.0027971119,-0.019679438,0.025729885,-0.031129843,-0.0101085305,0.017026793,-0.034960315,0.016030876,0.026961189,0.026747972,0.015167278,-0.010333663,-0.009301572,0.014941097,-0.012981924,-0.033190012,-0.00994785,0.034983102,-0.033188473,-0.024234751,-0.00084969454,0.00047655537,-0.010550876,-0.027218623,-0.016598098,0.0024673236,-0.009774408,0.027669987,0.0043991366,0.0035052863,0.030877547,0.01238428,-0.0057814643,-0.03569176,-0.0030530915,0.015557073,-0.015874382,-0.030235503,-0.0028259715,-0.034492288,-0.0045634997,-0.014891546,0.0020240427,0.019092653,-0.004117556,-0.027232131,0.032386772,0.032355152,-0.021484988,0.02229641,-0.029289035,0.01867508,-1.5840448e-06,0.011890131,-0.026668197,0.00844963,-0.02591189,0.017312646,-0.019641355,-0.011385002,0.0066038882,-0.02199144,-0.035696138,-0.003927784,0.012895978,-0.027314702,-0.03242126,0.032609176,-0.013849384,-0.02638023,-0.023536729,-0.018575296,-0.0027966811,0.0211504,-0.015198009,-0.008752028,-0.016189314,0.028258102,-0.0059530865,-0.030688323,-0.0061072414,0.0341916,-0.009459471,-0.0032874665,0.010468914,-0.015267088,-0.016860694,0.016033662,-0.028242413,0.030868437,-0.029208878,-0.028660929,-0.025025722,0.0108032515,0.017695185,0.016484419,0.028804569,-0.014512313,0.01936011,0.012830905,-0.014901392,-0.014331936,0.022847703,0.0176029,-0.031947043,-0.029682878,-0.016520271,0.012715156,-0.012997676,0.018168075,0.029653106,0.030097386,0.029322853,0.0019866715,-0.032470938,-0.032650735,0.027446683,0.019300919,0.012514284,-0.002829984,-0.034505486,-0.008742342,0.021197133,0.02824115,0.016846158,-0.028660834,0.026814308,-0.014689979,0.01916637,0.029385738,-0.012681961,-0.008024226,0.0007565675,0.034588184,0.02773135,0.019237269,0.01889272,-0.020151066,-0.0078016925,-0.0114183435,0.01989861,0.01192365,-0.011049121,0.02126788,0.008914888,-0.0013097171,0.025257582,-0.027803317,-0.008092545,0.020768788,-0.0145391915,0.007863624,-0.018269464,-0.020250833,-0.006964561,0.035089884,0.028564647,-0.003791563,-0.008260103,-0.028715476,0.007532427,0.007611657,-0.00627953,0.021686746,-0.034330502,-0.0032953478,0.0039991746,-0.006946917,0.009120379,0.014006181,-0.026466675,0.0130362185,0.016610699,0.0058436575,0.030932397,-0.00503278,0.03277211,0.008132905,-0.021534648,0.00044645436,0.022355456,-0.015079523,0.03495196,0.03414741,-0.011540502,0.022293579,-0.033425033,0.018027736,0.0037204274,-0.012300323,0.035359036,0.009657093,0.028965624,-0.015029123,-0.025814654,0.0052396767,0.025728848,0.026565114,0.032398548,0.024989894,-0.0008818231,-0.0025793444,-0.014795618,0.0021114869,0.0049780444,0.018597664,-0.035243392,0.012536682,0.005334986,0.027930237,-0.01136166,0.016616752,0.025186157,0.0034370935,0.02045041,0.020978361,0.014857227,-0.033052735,-0.012135132,-0.01034044,-0.018004905,-0.011370508,-0.025096783,0.008860397,0.033020362,0.026505886,0.003009022,0.017800344,0.022975886,0.032104492,0.018018473,0.021878986,-0.0209602,0.02927492,-0.022389682,-0.012133734,0.021614676,-0.024705952,0.03275395,0.0124090435,0.031279396,-0.02830927,-0.0020517611,0.0015169918,0.010355593,-0.0311299,-0.0022579103,0.01466839,-0.015805332,-9.4409166e-05,0.034051053,0.03301219,0.0104438905,0.023591012,-0.030048497,-0.0263547,0.024291987,-0.0063659837,-0.01375358,0.023296338,0.022409985,-0.019586496,-0.0051140925,-0.0019222584,-0.009569295,0.0032728428,0.0077932947,0.0050403955,-0.011536475,0.01764191,-0.00014611543,0.013915854,0.031925157,0.008562162,-0.020378053,0.006670605,0.008231473,-0.016021825,0.013091267,0.027335892,-0.029537342,-0.011890385,-0.022546371,-0.0009146626,0.03431392,-0.033988778,0.029863417,-0.0045039,-0.029813118,0.0058106785,-0.032067165,-0.03196931,-0.014102172,0.0132481605,-0.01078001,-0.028574016,0.007710334,-0.015033215,0.03224571,0.0098415,0.008594866,0.016416384,0.0269119,-0.017488398,0.02864039,0.018399626,0.0056654513,0.015055828,-0.000468201,-0.019569594,0.017262088,-0.026740858,0.028988505,0.021036902,-0.030462842,-0.0010187264,0.003648823,0.03151355,-0.020609232,0.027904028,0.029391889,0.011486982,0.007960179,-0.03246479,-0.022355884,0.032262366,-0.024630498,-0.0026749426,0.023401663,0.0028431967,-0.010840232,-0.011027299,0.02706646,0.0033977067,0.009711812,-0.010771476,-0.01663036,0.0021806818,-0.03251145,-0.0267855,-0.022767713,-0.026696455,-0.0074164905,0.012879633,-0.021967798,0.018026588,-0.024230659,-0.0025214474,-0.012941724,-0.0138004925,0.027405664,-0.013162537,-0.015282972,0.027877126,0.004334245,0.029127901,-0.026001783,0.006254386,-0.02983409,0.029480163,0.02817394,-0.019486846,0.0075053745,0.026863221,0.024171816,-0.015053011,0.025789255,0.029948017,-0.028035842,0.01670463,0.033681657,-0.005520974,0.026414067,0.028896105,-0.0053118537,0.015419306,-0.023321383,-0.01926128,0.03439528,0.0037388913,0.02378507,0.0209903,0.014475532,0.031618033,-0.035093535,0.011255803,-0.022568963,-0.021672223,0.006138437,0.007825097,0.03374769,-0.011501487,0.017328968,0.007050732,-0.0065607713,0.014338121,-0.0020878485,0.020932961,-0.03150052,0.016684266,-0.028728517,-0.024915121,-0.01866278,0.003917358,0.013706297,-0.02303585,0.0018316805,0.03152817
0.022999134,-0.03266362,-0.02900997,-0.0069915876,0.0042484514,0.009391822,-4.958734e-05,0.0032019876,-0.027396195,-0.01734806,0.013149101,-0.033831134,-0.03412845,0.016497782,0.009562828,0.033866372,0.009462144,0.010533389,-0.010823349,0.0111155175,-0.0041410886,-0.010938657,-0.01732645,-0.012820147,-0.0032282695,-0.014679514,-0.029617,0.01876828,-0.024214635,-0.031419333,-0.025800386,-0.031155523,-0.012463566,0.01670593,-0.0004141964,-0.032791197,-0.02092216,-0.0008701009,-0.018192707,0.03529439,0.025572214,-0.027778415,-0.0249012,0.012354857,-0.009715242,0.022707673,-0.003932404,-0.017920597,0.017094966,0.026205586,0.022637686,-0.025409453,0.02158662,0.030185934,-0.0033736937,-0.019727848,-0.03217746,-0.006140683,-0.025837049,-0.026696544,-0.014091786,-0.010747505,-0.018466992,0.0024732691,0.0035290613,0.02560717,0.02752457,0.026100596,0.0073280446,0.033111166,-0.023660515,-0.022429645,0.000164966,0.0059949416,-0.0028044842,0.034724947,0.032434396,-0.033706877,-0.0120229535,-0.00791032,0.025887873,0.0065295123,0.027795706,-0.009520395,0.007219702,-0.0038345791,0.011952311,0.01874028,-0.029351538,0.012052793,0.00122767,-0.006110941,0.0071952264,-0.01186283,0.009761938,0.028828025,-0.025908526,-0.01539014,-0.03268124,-0.0020290974,-0.0075769993,0.03410932,0.019938624,-0.025841653,0.0057265335,0.011876347,-0.019102504,-0.011213043,0.010368534,0.016611991,0.024246752,-0.014806693,0.00074832886,-0.02271922,0.01953594,0.02862158,0.021980008,0.016958384,0.015410379,0.013770947,0.03531149,-0.026774555,-0.0036464268,0.03249617,0.009943392,0.0021828,0.0060473024,-0.012060141,-0.031549077,0.01169047,-0.005862768,-0.02990716,0.03560046,0.0036933513,0.027783627,-0.018933281,-0.0039792415,0.032613974,-0.020454295,-0.02090842,0.03283933,0.01789559,-0.027301488,0.004484032,-0.03437885,-0.0024110912,-0.025178188,0.014043127,-0.03508965,0.008505637,0.017543415,-0.016883492,0.012004268,0.028749704,0.024534522,-0.0068949223,-0.025648937,0.0053091934,0.0020471632,-0.025399216,0.0161955,-0.013355698,-0.03257594,0.0053565763,0.005068581,0.012771021,0.02795068,-0.0017157348,0.005733501,-0.01083687,0.0080760745,0.033092268,0.017765807,-0.034966175,0.006285959,-0.0012399749,-0.008654831,-0.013938603,-0.016521482,0.003354224,-0.015362331,-0.018792957,-0.025554728,0.012706418,0.019210732,-0.026864775,0.027494086,-0.003269701,-0.03186339,0.011493888,0.01623551,-0.030077096,-0.025544211,0.011480667,0.027777838,0.008730614,-0.0065807397,-0.026143542,0.0013096743,-0.016620344,0.026777543,-0.03309577,-0.013855349,0.015458299,-0.011382606,-0.032711737,0.011192011,0.010894286,-0.02308202,-0.013280145,0.00032422788,0.029836584,0.01118371,0.023579936,0.031230113,-0.0046433206,0.022853069,0.0074445787,-0.00029139782,0.02581061,-0.019416314,0.033147085,0.035504412,0.024454802,-0.019008134,0.030741025,-0.023462068,0.019904884,0.03157064,0.018515985,0.032343827,0.026305879,0.029045515,0.01943969,0.034896422,-0.017569905,0.012980324,-0.031047307,0.00093862455,-0.03337576,0.009294127,-0.00488778,-0.029643906,0.014326711,-0.0031166957,0.0074811447,-0.009386905,0.031598702,0.026182171,0.025860598,0.011520389,0.034689087,-0.0012195392,-0.008654357,-0.023599051,0.032261826,0.021978226,0.010827894,-0.009543253,-0.031833358,-0.027113438,-0.010844833,-0.032942437,0.028174449,0.010862184,-0.015154994,-0.028975425,0.034817923,0.022352455,-0.023038458,-0.006435457,-0.032990403,0.018374812,-0.027322588,0.026700009,-0.0002804774,-0.034954928,0.020884577,0.029861066,0.0020723285,0.005681737,0.023454074,0.00902553,-0.017170444,0.025677435,0.014527105,-0.0074885627,0.029497374,0.024278011,0.00015074998,0.035718694,-0.03408722,0.02879752,0.020539299,0.0033204614,0.03433553,-0.018018814,0.011268488,-0.034384917,-0.03458394,0.013976233,-0.03371672,-0.013760749,0.014817345,0.027702164,0.02750385,-0.033899512,0.026694328,-0.026132096,0.031017672,-0.007492195,-0.025751175,-0.024561534,0.03213559,-0.013998992,0.013244748,-0.0022552884,-0.005824922,-0.013827397,0.013332585,0.033159375,0.0032962398,0.011996726,-0.011578654,0.029687466,0.029578727,0.011782823,0.00066336896,0.013859565,0.0029364026,0.033053365,0.031466633,-0.0041688653,-0.012327813,-0.0062106582,0.01641789,-0.017013662,-0.02651008,-0.026466275,0.012957994,-0.013465307,0.007877795,-0.022626108,0.034051728,0.019092143,-0.033664133,-0.024608005,0.03210034,-0.02626802,0.020690447,-0.002766572,-0.029794488,0.020722497,0.025925318,-0.0070331823,0.0017468461,0.016423203,0.009933328,0.01320905,0.026889386,-0.032726012,0.035572328,-0.03214502,-0.03351153,0.0044915266,-0.03518103,0.009623011,0.035215046,0.034203026,-0.029282039,0.0068051256,-0.012459771,0.015732689,-0.005820536,0.0051608114,0.008312884,0.0009796185,-0.01722486,0.021523388,-0.02008012,0.0066034254,-0.005922928,-0.006052971,-0.031081965,-0.006466733,0.027696515,0.019205589,-0.01610998,-0.02378279,0.009172289,0.00018363599,0.004152661,0.009648021,0.005191816,-0.030009113,0.015461286,0.007138288,0.002714655,-0.004135899,-0.012248447,-0.016594041,-0.021333275,-0.001819097,-0.028287789,0.01939386,-0.01118818,-0.027581599,-0.017507434,-0.026917487,0.0063761715,0.018103164,0.00066283555,-0.019262113,0.01189336,-0.016112158,0.029222712,0.021600118,-0.023175567,-0.029949408,-0.010040938,0.0139576,-0.0017069019,0.0027413135,-0.007693361,-0.0004901998,0.0041734176,-0.021566171,-0.01119522,-0.021427494,0.013721194,0.016277764,0.013752804,0.028187044,0.021633312,-0.015150244,-0.029203638,0.014096405,-0.00883405,-0.006880279,0.02447381,-0.014372683,0.03156405,-0.014330853,-0.022055637,-0.0057951426,-0.02268809,0.028873377,-0.0019044179,0.003276711,-0.021834226,0.03245122,-0.010961125,-0.0018884399,-0.028109,-0.016799986,0.0063624373,-0.027949015,-0.028079847,0.014944502,0.0013740447,-0.023561852,0.008096295,-0.018007489,-0.009967643,-0.0130490735,-0.019457389,0.027091844,0.0061734924,-0.0022837583,-0.009813675,-0.0049196207,0.018565075,-0.0033152113,0.0037239634,-0.017664457,-0.023995655,0.03199103,-0.0017557809,0.017581746,0.017527943,-0.0024805926,-0.0054686624,-0.0038330215,-0.010657704,-0.013374571,-0.015217966,-0.0032118997,0.0039170156,0.004210707,-0.010584911,-0.013744904,0.00033165424,-0.034739014,0.0051913857,-0.01794368,0.025448434,0.02810127,-0.0039900416,-0.01961727,0.030462671,-0.028960565,0.017043239,-0.034302544,-0.012402603,0.012811955,0.0352383,-0.011648434,0.032488205,-0.0123017,-0.0064677293,0.022823391,-0.025948638,-0.019526761,-0.030073162,-0.009833739,-0.033400536,0.03178671,0.013048588,0.012844305,0.015221524,-0.004567719,0.005680414,-0.028903581,0.0062242444,-0.014645677,-0.021738432,-0.004571261,0.0073078847,0.029460164,-0.026649348,0.017419867,-0.019687474,-0.02335675,-0.006076483,-0.032249894,-0.005008996,-0.032981966,-0.025651017,-0.0064869802,0.009502145,0.02369787,-0.016478645,0.033415217,-0.029783595,-0.01168473,0.010741563,-0.024219938,0.0147994775,0.014785725,0.018991526,0.0061469683,-0.034294467,0.019253004,-0.022990583,-0.014532466,0.008913129,-0.004434149,-0.025658797,-0.018664865,0.009162918,-0.02725755,-0.026335819,-0.02256912,-0.007218122,-0.025875963,-0.009395765,0.033230178,0.0026769524,0.030426301,0.014474791,0.011862651,0.0090161795,-0.010569331,0.0076684696,0.034793835,0.0067887916,0.0059762592,-0.016382322,-0.031234318,0.012858369,-0.020368654,-0.032307494,0.00290012,0.03216163,-0.017070724,0.029825661,-0.033704504,0.00258768,0.026641905,-0.029311089,-0.028432447,-0.021880059,-0.029263265,-0.002982806,0.016403962,0.0040522465,0.035266146,0.024197971,-0.025627796,0.017495967,0.019974865,-0.018556472,-0.03008732,0.031329755,-0.02589184,-0.001793516,-0.0141381165,0.00010052376,-0.0069958274,0.03390515,-0.03402126,0.030517312,-0.03066998,-0.021621129,-0.022779701,-0.026278624,0.031024314,0.019365843,0.028777968,-0.0016881584,-0.0065317415,-0.022626085,-0.014767115,-0.0030151175,-0.009278003,0.011140878,-0.016277492,-0.007547599,0.023730297,0.0056786635,0.033897147,0.021908164,-0.023966148,0.0003737379,-0.026413914,0.013862041,0.024916444,0.012860744,0.034232475,0.015057065,-0.011726116,-0.025916824,-0.023758003,0.035028648,-0.015796969,-0.0112072285,-0.029226836,-0.021799441,0.0059715663,-0.029618988,0.009691724,-0.0094338,0.016048305,0.020158427,-0.027192913,0.016908525,0.024716577,-0.008062251,0.018268649,0.0036718799,0.03323892,0.0046007154,-0.017080443,-0.007778868,-0.021428792,0.013679017,0.017770834,-0.02398056,-0.022769058,-0.023340823,0.01986817,0.006400734,0.0009947419,0.027364228,0.0036362316,0.017870937,0.03309591,0.002855095,-0.0021013264,0.033148553,-0.019875612,-0.0079632355,0.017309736,0.017772658,0.01236163,-0.012484316,0.014362205,-0.02547757,0.027995724,0.029561631,-0.014576343,-0.008237893,-0.016399324,0.013452625,0.01593175,-0.01144689,0.035318,0.021220118,-0.030339964,-0.014873603,-0.03211052,0.0012048408,-0.0042875838,-0.03199893,0.024865389,-0.012287785,-0.006499745,-0.0330576,-0.02307478,-0.009248806,-0.0037501543,-0.01381695,-0.012310842,-0.022231767,0.018576376,-0.0027147816,-0.033630587,0.004900955,0.012305082,-0.016282018,-0.016790317,0.015302156,0.007281838,0.02774559,0.034225725,0.019369338,-0.0069170557,0.023780942,-0.033317786,0.028620299,-0.014741557,-0.018339077,-0.030305313,0.009606196,0.0077116345,-0.018276135,-0.016979747,-0.021591116,0.01273955,-0.023317518,0.010744638,-0.01519715,0.034120593,0.024925778,-0.015531202,0.027983647,0.033357065,0.028878687,-0.011061788,-0.029966548,0.0121657485,0.0060189962,-0.0068289433,0.015292391,-0.011866711,-0.030807922,0.019259285,-0.029530862,0.021988478,0.014129553,-0.011972143,0.028315084,-0.019622788,-0.032109864,-0.03448281,-0.024516553,-0.020259213,-0.0073754117,-0.026286155,0.011573439,-0.034122247,0.02345559,0.0054456643,-0.031295564,0.011606932,-0.013411775,0.019683925,-0.016703494,0.0069545475,-0.03266262,0.018977344,-0.007600218,0.030276243,0.0137805715
-0.0034318343,0.02736124,-0.015937436,-0.014957935,0.016108297,-0.015588025,-0.02359063,-0.024615306,-0.0102579165,-0.017712897,0.020950068,-0.025696909,0.029565454,0.010730682,0.009400066,0.016706053,-0.035021234,0.028744947,0.032304626,-0.03143629,0.00801212,0.033634495,0.010107327,0.0008411631,0.017298538,-0.027402738,-0.035693567,0.021383379,0.0029064044,-0.0027415454,-0.024551287,-0.021296114,-0.014164216,0.013256568,-0.034384493,-0.016402725,0.029068645,0.008403192,0.030308632,0.035024025,0.0035176992,0.0031035987,0.022304649,-0.0008758521,-0.018929742,-0.015908526,-0.01592726,0.0089325,-0.009915626,0.005120204,0.01025027,-0.021867812,0.026837971,-0.01172317,0.0054150447,0.028712656,-0.018924458,0.0260186,-0.03264405,0.0056959577,-0.006084291,0.013201078,0.0047635017,-0.002468693,0.0115783205,0.031752285,-0.03247312,0.009197268,-0.033737652,0.0053349393,-0.029644325,-0.0141560435,0.016800843,-0.028037857,0.027956901,0.00039030518,-0.009518732,0.0058753644,0.031395894,-0.027330175,0.023566956,-0.012010796,-0.007451432,-0.0027861297,-0.028784718,-0.03181597,0.028421659,-0.027048057,0.021954468,0.029043574,-0.0048055626,-0.018056834,-0.025514334,-0.023387779,-0.004555473,-0.023714595,0.01132393,-0.009109596,0.01671232,0.034898236,-0.02718034,0.030920822,-0.019838985,0.005524309,-0.00562915,-0.016993169,0.0029319618,-0.0020037831,0.0075957966,0.0009864656,0.015509859,-0.010479145,-0.0036212802,-0.0040598176,0.033063147,0.021616219,-0.011488027,-0.032610573,0.024191335,0.018821532,0.012833984,-0.011205313,-0.023068724,0.010314992,0.021342104,-0.020466307,-0.0059214225,0.019068757,-0.028864326,-0.032703545,0.0032869282,0.016519237,-0.009497423,-0.017846998,-0.03156258,-0.0036192406,-0.029733757,-0.015749924,-0.00554315,0.00013006479,0.000109467655,0.020432383,0.020327084,-0.012450422,0.011321566,0.024155311,0.022783482,0.0008203583,0.032942913,0.0069576814,0.010357532,-0.015686728,-0.025801163,-0.020965904,-0.031890612,-0.013324723,-0.0048740013,-0.02670464,0.020437764,0.016835244,0.025436772,-0.034361016,0.004496103,0.019412884,-0.01671423,-0.00782623,0.020262878,0.025421983,0.012706235,-0.02797289,-0.011693845,0.033990942,0.029781545,0.011284486,-0.030184474,0.027128462,0.01320212,0.0064611854,-0.026513008,-0.0035877733,-0.015391109,0.023433715,0.021388559,0.015539512,-0.018010892,0.025198903,0.019166538,-0.019395385,-0.03095176,-0.015370524,0.011900557,0.0258214,-0.019482877,-0.0057781786,-0.02131396,0.023437751,0.010842183,0.03257773,0.026993833,0.034179054,-0.013337791,0.025162566,-0.015423089,0.033286005,0.02998645,-0.033313584,0.00025590986,-0.0069714645,0.008167982,0.0055569885,0.022051293,0.00723027,0.032511126,0.007649882,-0.018344842,0.030315772,0.0041050827,-0.035041124,-0.014068939,0.008894403,-0.0077206055,-0.009746371,0.010110883,0.0032389204,0.025144877,0.026815694,-0.021448605,-0.024851596,0.03236132,0.03384698,-0.009277135,0.031495027,0.0013387721,-0.033082098,0.009101817,0.005357809,0.028122855,0.026203874,-0.0023194586,-0.0156191485,-0.009836976,-0.028276939,-0.009424322,-0.01571323,0.0331567,0.03059317,0.02021658,-0.008707437,-0.0004040396,-0.018550225,0.007198116,0.0015092442,-0.02308167,0.003177517,-7.4196037e-06,0.033257123,0.02520359,0.029380051,-0.021451548,0.010717993,0.018636264,-0.019696305,0.00078327075,-0.017296163,-0.018797942,0.030198013,-0.00041111224,0.029057054,-0.013194584,0.008600749,-0.01723031,0.0024063727,0.017178977,0.008822918,0.024062295,0.027862325,-0.014679717,0.0057661473,-0.031580556,0.009871208,0.0111680105,-0.019861484,0.026368013,-0.026993116,-0.023771923,-0.0010579212,0.017647222,-0.014030029,-0.0044903425,-0.0013763637,-0.007584921,0.01723095,-0.024694702,0.023493662,-0.030878747,0.0030614007,0.0032403283,-0.027898133,0.0036262926,0.008417041,0.0328814,0.017470317,-0.017251536,-0.014164609,-0.013953665,-0.008187341,-0.01580659,-0.025482735,0.028998565,0.005284661,-0.015191732,-0.03305625,0.002918079,-0.00671054,0.012532645,-0.00067277363,0.018161347,0.012244039,-0.0055086864,-0.03166024,0.009386058,0.0039214515,-0.011277101,0.01076728,0.010467641,-0.018101694,0.015796848,-0.022638252,0.034424484,-0.031028103,-0.022160178,-0.029786048,-0.013200164,0.029936682,0.033250738,-0.025428334,-0.021422299,0.011319312,0.018241432,0.0299659,-0.030462885,-0.0029215254,-0.012866606,0.03369943,-0.020577319,0.0058938335,-0.03200483,-0.0044211317,0.016759431,0.019377207,0.010563817,0.024829827,0.023083562,0.0135570755,0.025942165,-0.02974266,-0.0073938402,-0.03339118,-0.024319405,-0.013427595,-0.0307213,0.023447236,-0.016806103,0.019947527,0.032286666,0.034529522,0.009936158,0.022693302,-0.010764652,-0.020784153,-0.035141136,-0.028653951,0.005015557,-0.013033911,-0.03306752,-0.03067493,-0.008174274,-0.008019028,0.024584949,0.0050232643,-0.009156781,0.019220013,0.012040644,0.028790103,0.028445669,0.003625749,-0.015802069,-0.03346403,0.0009980783,0.025796503,-0.0050504482,0.03172258,-0.026549654,-0.0072469986,0.02013493,-0.034179177,-0.032553446,-0.017339807,0.009596761,0.026078744,0.015653294,-0.023266528,0.0045213494,0.035403784,-0.016851671,-0.0072702407,0.011429862,0.001979641,0.021920986,-0.010455042,-0.03382495,0.034158565,0.018322032,0.029478114,-0.031251103,0.0101244515,0.029969878,-0.013588657,-0.008913723,0.010077873,-0.012116722,0.010301779,0.020222593,-0.03496698,0.0144808935,-0.0026351183,0.02091224,0.014230247,0.034791805,0.004226809,-0.02865865,-0.010936596,-0.00748789,0.0022616452,0.003635325,0.0066890973,-0.033834644,0.027983988,-0.0059179394,0.026675474,0.029042698,0.022996666,-0.0027499034,0.03266712,0.014143972,-0.023164336,0.031273678,0.021004,0.027351672,-0.0049004667,-0.033776753,-0.026461368,-0.016176583,0.023731684,-0.015769765,-0.020840915,-0.00042707432,-0.032133557,-0.010799272,2.643221e-05,-0.03450237,0.0150347715,-0.021217683,-0.01984378,0.0046567726,-0.026787663,-0.016153453,-0.0033179387,0.0020723229,0.009738531,0.022287123,-0.020054573,0.019158093,0.03138318,-0.019309757,0.025608692,0.031968515,-0.022337822,-0.024906987,-0.03200304,0.033888813,0.007577625,-0.006879368,-0.009725447,0.0057118614,-0.02340228,0.014135926,-0.029156325,-0.0249511,-0.022887353,0.025302494,0.016196815,0.006699786,-0.0069757127,0.016050382,-0.0019868298,-0.0033773303,0.024799924,-0.026721366,-0.021309637,0.023462258,0.0045743594,-0.0032381515,0.008569894,-0.006322493,0.027339933,0.021554464,-0.0057299375,0.0055340985,0.0022052918,-0.018924046,-0.019766897,0.014631442,0.028488545,-0.018817555,0.004969719,-0.019200258,0.030676642,0.0070614037,-0.032228403,-0.027343448,0.00092037994,0.024740763,-0.009856262,8.2538434e-05,0.01224497,0.015873702,-0.004279117,-0.03560856,0.012151818,-0.021955479,0.031673048,0.01869969,-0.0051431484,0.015405292,0.02468749,-0.023117166,-0.029879518,-0.010841261,-0.007499193,-0.004098656,0.030400999,-0.026056312,-0.009044994,0.03248231,0.002673435,-0.0066941786,0.033124484,0.01578009,0.011861361,-0.0022145654,-0.01171576,0.01538891,-0.008113427,-0.01427258,0.032052793,0.0071406504,-0.014557155,0.022721035,0.004850085,-0.032411247,-0.022662751,-0.013871066,0.034451067,0.013660949,0.009031052,-0.025573373,0.028243596,-0.01982434,0.0075422516,-0.010322604,-0.025721204,0.02887752,-0.032165743,-0.032184467,0.01158781,0.013422889,-0.003920153,0.026351448,0.0106017105,-0.03254485,0.01431422,0.031213515,-0.028802799,-0.03397338,0.0220679,-0.0085663665,-0.03562268,-0.007082965,0.024005769,0.022729939,0.0078983,-0.020842686,0.019975405,-0.008510724,0.015792914,-0.022266604,-0.029037695,0.023456657,0.0029818257,-0.019195328,0.019108176,-0.0043895366,-0.0009614496,-0.030648686,0.032837033,0.024529096,-0.02681544,0.009392689,0.032624345,-0.015342762,-0.005532617,-0.027871907,-0.013732553,0.0039934125,-0.01842449,0.006627474,-0.013485079,0.014519204,-0.03249953,0.033296213,0.005798032,-0.030260129,0.029854013,0.004694779,-0.014651296,0.0044903504,-0.031981155,-0.0035980216,0.021362456,0.019844951,0.01820578,0.02724339,-0.03469297,-0.020031583,-0.012949273,0.023008605,0.02343181,0.0022840786,-0.013461805,-0.0064501953,0.016185367,-0.0044106874,0.017839693,0.021804731,-0.017810632,0.02268231,0.010348266,-0.008474596,-0.024387904,0.03434733,-0.008264682,0.005523545,-0.022127222,-0.013060674,0.033055916,-0.026505718,-0.029550504,0.026343472,0.020106258,0.014881992,-0.026155798,-0.033217926,0.030364858,-0.012835874,0.0082173385,-0.010818509,0.010713955,-0.023086686,-0.010510553,-0.0036682012,-0.031775102,-0.0019030161,0.034892652,-0.020437146,0.029660128,-0.03287824,-0.02456538,-0.02453779,-0.028829087,0.012614856,0.0138116535,0.010722932,0.013765747,0.02902254,0.031185472,-0.033136904,-0.0019423993,0.03481482,-0.0010846327,-0.00898749,-0.02807178,0.002468694,-0.030799551,-0.0074186185,0.00022398784,0.0047192667,0.032417007,0.030241933,0.03244434,0.0012094118,-0.0330487,-0.004518992,0.0064353137,0.016808044,-0.023984117,-0.0138840685,0.00108537,-0.010204031,-0.014466399,0.023847772,-0.0057098335,-0.0040369174,0.022610536,-0.031925827,-0.011270476,0.02497466,0.010809128,0.01539378,0.026398757,0.010599656,0.034895826,-0.013583645,-0.017092206,-0.031036068,-0.019455928,-0.016431473,0.008050974,-0.03400896,-0.016970187,0.009023957,0.024969202,-0.0045003886,0.03235984,-0.027560066,-0.006625593,0.033795517,0.00039325256,-0.028669352,0.015652675,0.01923707,-0.028134659,-0.00866251,0.028269986,0.028384736,-0.016939621,-0.02633394,0.0029945655,0.025523404,-0.018434787,0.029872227,-0.020356046,0.03168009,-0.010554247,-0.021931883,0.033317488,0.014304724,0.02276351,0.010953631,-0.027686503,0.032147948,-0.021086248,-0.016451996,0.0243417,-0.009240226,0.027911177,-0.016238187,0.03348564,-0.01205138,-0.030762216,-0.006854727,0.004978866,-0.03520743,0.024696833,-0.011712003,0.026609708,-0.009688399,-0.020003024,-0.021617208,0.019069819,-0.011455728,-0.031762764,0.023634933,0.026060302
0.026964512,-0.028231477,-0.017518027,-0.009289853,-0.0103004705,-0.0074292123,-0.015207708,-0.02843919,0.019611448,-0.01904325,-0.034284584,0.028096054,-0.03505778,-0.00086927443,-0.025861263,0.013802401,0.016524095,0.031723175,-0.00803907,0.01763045,0.020995911,-0.021511024,0.018426768,0.030108396,-0.0017000735,-0.00899592,0.008970261,-0.024041142,-0.0129233,0.024119198,-0.00891115,0.0062155016,-0.029142352,0.03248856,0.008745803,-0.010179172,-0.014642804,-0.0036353401,-0.024321474,0.00904146,0.024938965,-0.02474994,-0.0024150945,-0.018028028,-0.020419018,0.03028359,-0.0013423373,-0.0099217845,-0.0154952705,-0.004921838,-0.018973785,-0.02857216,0.013342593,-0.011599289,0.019753937,0.031925272,-0.016775703,-0.025020137,0.016106648,0.024539504,0.024585638,0.034301966,-0.017470881,0.03546774,-0.0076441495,0.0012133581,-0.020824827,-0.015725177,0.0011429362,0.022027828,-0.018709542,0.031903442,0.020798113,0.026701426,0.03014014,-0.034556124,-0.033442885,-0.0063448707,-0.02846523,0.021737786,-0.024616225,-0.02017338,-0.0013885126,0.003520172,0.03216253,-0.023215652,-0.013255411,-0.016762411,0.027086074,-0.019034212,0.00055721914,0.025462078,-0.010536016,-0.03473823,0.004655053,0.03137211,-0.034654725,-0.028597184,-0.008907536,0.019395325,-0.0009716605,-0.00764943,-0.004637332,0.03342013,-0.026736649,0.033932846,0.022772502,0.0015716958,-0.022925433,0.015394531,-0.016177163,-0.010104844,-0.008647183,-0.0007064867,0.02367706,0.03320226,-0.018468842,0.017758371,-0.0047894623,0.035040487,-0.018469842,-0.0015023986,0.02696706,-0.0005018415,0.02891004,0.033474248,-0.014809415,0.015581903,0.02539042,0.01781703,0.030378517,0.029750999,0.020078706,-0.015053524,0.01817482,0.02107001,0.010059061,0.031019393,0.0041080504,-0.032583404,0.0107454695,0.032073732,0.013772606,0.028736027,0.026732914,0.024714306,-0.016014865,0.01849392,-0.00018571435,0.017944876,0.011907351,-0.015840808,-0.028500624,-0.0331755,0.036169723,0.031765096,0.025018949,0.024283037,0.0024434628,0.03227742,-0.028927132,0.012573219,0.024770333,-0.0065059364,-0.03260578,-0.004365819,0.023352737,0.02123047,0.0239041,-0.026038755,-0.024311507,-0.009661927,-0.006488266,0.015723612,-0.031766433,-0.025230264,0.022129642,0.012950791,-0.02823242,0.028471408,-0.03400463,-0.022649268,0.002012517,-0.02229477,-0.010577173,-0.0015408662,-0.028604161,-0.007758874,0.015121961,0.022185095,-0.023943555,-0.0100011425,0.0102172475,-0.0062819305,-0.029191868,0.032955527,0.02697054,0.011342261,0.014609204,0.011552219,-0.025673756,-0.01263982,0.03521539,-0.0076031447,0.027270688,0.007010381,-0.03310519,0.00045912,-0.026321042,-0.013783707,0.025547354,0.014930224,0.023454791,-0.014869607,-0.0092172455,0.020303875,0.026662657,-0.018964,-0.033275865,0.016403286,0.002310355,0.008790416,0.016246881,-0.015623531,0.01958732,-0.032671846,-0.029505614,0.010239749,-0.0007676644,0.012947491,-0.018093243,-0.029979726,-0.01714484,0.0026855723,-0.008392003,0.02764146,0.024209501,0.015533887,0.014400189,0.01851417,-0.015405833,0.026926748,-0.033372927,0.00027620886,-0.021003637,-0.025295569,-0.0029032114,0.014590311,-0.025181124,0.012588792,0.010038923,0.031772576,-0.0159794,0.013005521,0.01599965,0.019917514,-0.0053388993,0.022043033,-0.008791416,0.025420487,-0.034285184,0.0051214816,0.01573593,0.02660149,0.0107784495,-0.014709724,0.031904623,-0.009765224,-0.0059005506,-0.01089823,0.025386004,0.022588007,0.021145716,-0.020302948,0.00083766883,-0.00443008,0.03401724,0.0055505307,0.021807613,-0.034118682,0.0040367837,-0.0073813284,-0.015891697,0.014237613,0.025447449,-0.00064801483,0.02506435,-0.0022012591,-0.031498,-2.0297319e-05,-0.023550102,-0.032044206,0.002864242,-0.016231066,-0.029984318,0.01795344,0.03272752,-0.030577645,0.01820938,-0.034649603,0.0044157645,-0.026989976,-0.033530228,0.025490562,0.015103747,-0.025827492,0.010092119,0.0058358666,-0.01755751,0.0014064683,0.01788338,0.022134094,-0.016143035,0.019456252,0.014917513,0.02416351,-0.014813781,0.011934863,-0.029994292,-0.026087798,-0.014372828,0.017167615,0.019896032,-0.015961032,0.027929334,-0.03084803,-0.0090891,-0.021091783,-0.020223815,0.023287907,-0.0050140657,-0.02326478,-0.0039935214,9.25885e-05,0.006229536,-0.023781665,0.01853317,0.019577986,-0.0015538302,-0.034211304,-0.019523105,-0.0008882702,-0.015813515,-0.02746741,-0.030433757,0.00849364,0.032628447,-0.031128464,-0.007435374,0.020951962,0.02032989,-0.0011036922,-0.014658804,-0.031263236,0.010003943,-0.029208202,-0.033783473,-0.01236007,0.004223865,0.0077809794,-0.033918694,-0.0055151824,-0.016577335,0.018517205,-0.00031265942,-0.012508848,-0.026798906,0.0047666347,-0.0022111065,0.010174747,0.005992849,-0.001954908,-0.015072321,0.013761713,0.021525873,-0.0070472797,0.022514446,0.0033040876,-0.026473507,0.027947128,0.028556747,0.01947812,0.00710202,-0.008995732,-0.034368254,-0.030864263,0.014465833,0.004619979,-0.006663215,0.025058908,0.030884061,0.025256507,0.005758892,-0.013159971,-0.0071158134,0.031149156,-0.016330963,0.02226932,-0.011368137,-0.031747386,0.016761119,0.012566017,0.027628658,-0.011328262,-0.021168854,0.007141815,-0.012338443,-0.013041949,-0.0066828076,-0.03355891,-0.030236766,0.030062465,-0.021285698,-0.009071852,0.022972029,0.013159735,-0.029557347,-0.028134743,-0.033036694,0.0030353873,0.013422246,0.015775144,0.028435992,-0.010225559,-0.02311997,0.028806489,0.0016463439,0.02866154,-0.003482322,0.03339958,-0.004560693,0.030790556,-0.0039158845,-0.01724699,-0.025780715,-0.023907494,0.0029886337,0.011659891,-0.00811183,0.014813135,0.034197856,0.008062895,0.016840067,0.015241641,-0.0010636043,-0.021018201,-0.014430614,-0.020611182,0.021897618,0.026857655,-0.008861301,0.022820927,-0.03149699,0.026196918,-0.008539262,-0.029135756,0.030067232,0.010737208,-0.0031280129,0.032237977,-0.010480437,0.032859776,0.016489226,-0.023697704,-0.030182337,0.018061811,-0.010007423,0.0007985147,-0.020333497,-0.016888702,-0.02318772,-0.027512832,-0.0006603936,0.0077246,0.007545073,0.02944456,0.016815055,0.032827612,0.015630245,-0.0250415,-0.0032399877,-0.018249612,-0.009464031,-0.006095888,0.025876284,-0.008945168,0.009691488,-0.0023603532,-0.0044792746,0.030683117,-0.03479847,-0.026477395,0.02133694,0.008693699,-0.026794262,0.012905082,0.035635233,-0.021229915,0.028944526,0.007286532,0.021764517,0.0014344447,0.01162481,-0.011984419,-0.0046753585,0.013119389,0.013016922,0.015016258,-0.01936872,0.018260522,0.022455703,-0.011379006,0.03268584,0.020830458,-0.011035769,-0.02679625,-0.027003426,-0.010283836,-0.0075770803,0.029706458,0.0099395,0.032840975,0.01505247,0.021535235,-0.020184714,0.02561585,0.0039202226,-0.007766451,-0.0061592953,0.013277814,0.025286293,0.0012470746,-0.002613072,-0.018860001,-0.018891811,0.017008094,-0.020586967,-0.015251438,0.033281088,0.0055598444,0.013064818,0.024602285,-0.016861467,-0.0075094565,-0.025243213,0.027856024,0.004137874,0.03232079,-0.02766865,-0.032148458,0.012857933,0.032276962,-0.010739356,0.0130855,-0.017308729,-0.009448976,-0.0062103816,-0.01934604,0.031130517,-0.030546479,0.030493628,0.014295908,0.0023771268,-0.020381989,-0.012699756,0.010669897,0.005947837,0.01097276,0.03155297,0.012189802,-0.0064961337,-0.015025726,-0.022329478,-0.022360431,0.029192524,0.0019244988,0.024622226,-0.032044373,0.02488887,0.026036259,-0.0025052337,-0.0034244547,-0.002643314,0.020010505,0.019878209,-0.02816034,-0.019818004,0.03329909,0.027946157,0.019054255,0.012632936,-0.005305359,0.007423166,0.012158876,0.02725395,0.0066524055,0.02950754,-0.0069930926,0.01949498,0.027243806,0.00058938406,-0.0017858625,-0.016892374,0.027017258,0.012007408,0.002411543,0.032022897,0.023388337,0.033925906,0.030901711,0.021678774,-0.035814114,0.030043317,-0.0019450624,-0.020535335,0.020924622,-0.0032036225,0.00044950083,0.017163102,0.019140592,0.021665698,0.006880068,-0.020208284,0.0077862483,0.033133157,0.03498998,0.0017412697,0.005523941,0.03248351,-0.010267249,-0.015117807,-0.0025631352,-0.021382652,-0.02907002,0.03355651,0.023576563,-0.030386947,0.028808884,-0.022301737,-0.019117802,0.0023038029,0.008430744,0.035571456,0.009294334,-0.028449312,-0.029899603,0.022528766,-0.0104385605,-0.0053104097,0.017163541,0.0038910026,-0.011840594,0.028379051,0.016246619,0.01980757,0.017312055,-0.01982235,0.013006066,0.01991088,0.0069849733,0.033369962,-0.029672824,0.030978937,0.01719683,-0.032746978,-0.025048953,0.02653942,0.019668998,0.010805029,-0.0066649956,-0.01927391,-0.02131713,0.029105503,-0.034809284,-0.03147846,0.016704015,0.015509247,0.010271066,0.010679099,0.034499314,0.018720908,-0.030129753,-0.008226313,0.020034516,0.0021635264,-0.023743479,0.002801565,0.017793449,-0.033969473,-0.026086194,0.005908098,-0.012808953,-0.007291279,0.013486562,-0.016014848,0.024012687,-0.009041768,-0.028271738,-0.013238855,0.019809607,-0.0026333816,-0.011019401,0.005460116,-0.001870518,-0.023189131,-0.010886203,-0.015993552,-0.00613796,-0.014588672,-0.028342318,0.020241836,-0.023849724,-0.027609922,0.02027515,0.0100102825,0.012226288,-0.005064961,-0.028260408,-0.031457257,-0.010945263,-0.026555117,-0.014311392,0.03038855,-0.009809901,0.033337586,-0.00820672,-0.022478782,-0.025950506,0.015310939,0.022390805,-0.034861237,0.0127161965,-0.0042903586,0.02613929,0.028547268,-0.026976105,0.012044175,-0.023337888,-0.027192283,0.026133757,0.005314767,0.032866415,-0.012214768,0.020433344,0.014260665,0.03125196,-0.0022628969,-0.009598605,-0.0063679973,0.0015200565,-0.022155076,-0.0085740695,-0.031013777,-0.015564753,0.031617474,0.02949446,0.030531894,-0.017310917,-0.02289581,0.01651406,0.020531505,-0.011608895,-0.017564215,0.006707778,0.029550634,-0.006996766,-0.014980727,0.025032207,-0.025447942,-0.030444166,0.002472118,-0.031892102,-0.025053293,0.025770543,0.006135924,0.034675423,0.005192622,0.012725665,-0.015869258,-0.023166487,0.0069611073,-0.014355106,0.014528856,-0.0055444203
0.008739922,-0.025328271,-0.022774953,0.009500984,-0.015706986,-0.03048059,-0.016436467,-0.0063579306,-0.018702159,0.004735492,0.03127339,0.019593727,-0.01859533,-0.003399216,0.018147297,-0.0066004596,-0.020428449,-0.02526913,0.01890421,-0.03254966,-0.018129392,0.005276192,0.02637801,0.028687324,-0.012509214,-0.030148316,0.019505017,-0.009415066,0.0057354867,0.025865559,0.024709482,-0.032156255,-0.00012157543,0.004275192,-0.008344305,0.005281742,-0.024356937,0.030397898,-0.024310376,0.02357659,-0.0062500937,0.005900061,-0.012740145,-0.023212329,0.033988077,0.0026762215,-0.013598876,-0.021984706,-0.0048359763,-0.02634546,0.019682523,0.005683375,0.0006988868,0.0116962865,-0.03504598,-0.017209513,0.0031677522,-0.0034007058,-0.008793368,0.022702308,-0.031237885,0.01133435,0.02447331,0.010221253,-0.0010502121,0.019742906,-0.012894992,-0.03557454,-0.010723119,0.016142251,0.023274258,0.035335787,-0.012279334,0.029692814,0.0028647643,0.027316246,-0.008132695,0.031890295,-0.006475157,-0.032628752,-0.016591758,-0.01850746,-0.012091475,0.011715081,-0.029489944,-0.010288069,0.018751299,0.024915816,-0.013756676,-0.022012316,0.02763721,0.023856144,0.03284552,-0.033608265,-0.01745281,-0.00540053,0.018376328,0.024097726,-0.026640747,0.019243589,-0.027040813,-0.020496795,-0.000455324,0.028754182,-0.011252878,-0.011954301,-0.00966647,0.018786613,0.014489654,0.026163131,0.026621103,0.0006757416,-0.028707262,0.0058026356,0.02011555,-0.025880951,0.020148413,-0.0136229955,0.024900196,-0.0035236562,-0.012261381,0.0019389024,0.017144367,-0.022131491,-0.00020214636,0.014820367,0.019338917,-0.0041085836,0.02541048,-0.010698874,0.018429762,0.01967219,0.019381342,0.0030112704,0.01906746,-0.024643162,-0.012133574,-0.030420229,-0.01775792,-0.016448278,0.0024207868,0.031578455,0.012463044,-0.013714104,-0.02507276,0.033307873,0.02724082,-0.020304305,0.009903901,-0.01790638,-0.0021179335,0.031903967,0.03444329,0.018560749,-0.007329769,-0.01564601,-0.033184174,0.014224084,0.023454301,0.0058195605,0.011798975,-0.0042656558,0.025267586,-0.017797535,0.028912703,0.002118932,-0.030621104,0.017665248,0.034875635,-0.0064530685,0.03407097,0.0285817,-0.028345358,0.013612907,-0.01784336,0.009840746,0.023628281,0.012798776,-0.023448005,0.0022619574,0.007297128,-0.01081211,-8.571758e-05,0.010421675,0.0028583717,0.002491953,0.032612868,0.03686346,0.034284815,-0.0010908995,-0.0036749272,0.016045308,-0.01501628,0.008603791,0.027352367,-0.0034877858,-0.03326746,-0.0047404887,0.0011973939,-0.021323191,-0.0054764934,-0.028738156,0.014868098,-0.002569404,-0.0019459684,0.03538457,0.016807014,0.021808255,-0.013553029,-0.012138101,-0.009470322,0.027026957,-0.0042155795,-0.0031786284,-0.012074082,-0.030239929,-0.027297052,-0.005412313,-0.017547322,0.03164594,-0.015915507,-0.028033135,-0.009434386,0.00849571,-0.020156756,0.00082681235,0.0041616727,0.013712016,0.028566895,0.0222125,-0.011487939,-0.001692926,0.00929461,0.029254522,-0.027045436,0.034690823,-0.00087410276,-0.0010838057,0.0051543377,0.010908158,0.022988677,-0.0077903206,0.009728924,0.012710173,-0.00090853544,0.010358824,-0.011906376,0.034520835,-0.024761317,0.026050337,-0.01741734,0.027080825,-0.0069434387,-0.020927267,0.017480241,0.02808418,-0.032626536,0.004414969,0.032431714,-0.023957988,-0.016530244,-0.010707199,-0.02118725,0.032897845,-0.00608154,-0.014507267,-0.033689886,0.0072590387,0.008401078,0.009822925,0.023451665,-0.019943513,-0.026160147,0.0049530715,0.034955166,0.011069028,-0.02722113,-0.004188848,-0.0032894432,-0.0093856165,-0.00067015004,0.029206526,-0.009685383,-0.009115049,0.032272395,-0.025061814,-0.0063589667,0.019852372,0.005801406,0.029755121,-0.0010000624,0.019879645,0.00298096,0.035265036,-0.012555297,0.030818546,0.019550504,0.0031293917,-0.026817119,-0.030322269,0.002163577,-0.029041491,0.022307899,0.003436173,0.0006174834,-0.0002665147,0.011686995,0.035243154,0.0061061303,-0.0211656,-0.015147667,-0.016801773,0.013932862,-0.02042654,0.030043837,0.034333654,0.023500115,0.028059112,-0.021251012,-2.1593489e-05,-0.0053630094,-0.02465757,0.0022767924,0.026297446,-0.022814535,0.013606033,-0.009449477,0.01169161,0.026928103,-0.035527226,0.010377782,0.0023014587,0.014964358,-0.011067502,0.012409217,0.0024584276,0.020746894,-0.005618988,-0.008246795,0.018061599,-0.035249926,-0.027736258,0.024176205,-0.032408223,-0.0032863137,0.024111664,0.020869812,0.0074652326,-0.023063743,0.0241582,0.031544454,0.022694895,-0.026871663,0.03025597,-0.023447938,0.014742934,-0.018218802,0.0066666873,0.020932509,-0.018839762,-0.02547727,-0.034090336,-0.0141662955,0.012914494,-0.025464581,-0.025838811,0.01206472,0.025847236,-0.022955753,0.029259777,0.024936557,-0.03552318,0.006446426,0.027251279,0.02777911,0.010012187,-0.011508403,0.022048628,0.03530011,-0.023721544,-0.035618763,0.011055299,-0.013100925,-0.02845171,0.006062656,0.005868794,0.0022839478,-0.026161132,-0.024810135,-0.0152061675,-0.010797158,-0.03442606,-0.019624932,0.035363413,0.0072881044,-0.0039896397,-0.0015003157,-0.025416177,0.028826809,-0.010842386,0.019579751,0.009439601,-0.007908622,-0.025526721,-0.0095736645,-0.01588576,0.0025075523,-0.0064664716,-0.023875812,0.021096494,-0.009831178,0.010467791,0.031970706,-0.03513008,-0.0012558337,-0.022562912,0.027939253,-0.032078274,0.019426618,0.011798352,-0.012834313,-0.0010940698,0.014729095,-0.028857332,0.012528804,-0.0047792355,0.024519091,-0.012519174,0.0018736849,0.021617617,0.0068366514,0.026975796,0.027692698,-0.02591538,0.009764338,0.0219326,-0.036295045,0.013407367,-0.0134700965,-0.009720701,0.032551676,0.015884522,0.004674013,0.003798837,-0.017021446,-0.003931559,0.028730366,0.016406287,0.0021108375,-0.017376963,0.030900152,-0.026107391,-0.023701642,0.00051581475,0.029850887,0.004910493,0.004318213,0.022627342,0.008070833,-0.012882803,0.008857077,0.017119706,0.014500677,0.018046562,0.025617318,-0.035976425,0.003448457,-0.0063681873,0.024532462,0.02181665,0.021151735,0.026300801,0.025097573,-0.021802878,0.026539413,-0.010242868,0.02187461,-0.034185573,0.018637957,0.018821351,-0.026885234,-0.02858533,0.008514534,0.028074246,0.024856098,-0.03578334,0.016742373,0.024698986,0.030034382,0.03451752,-0.005475866,-0.011106625,-0.016210571,-0.01753791,0.007576848,-0.021871412,0.02093476,-0.008743808,0.02271911,0.03259963,-0.021660848,-0.02579397,0.0016213454,0.01692789,0.016900953,0.019138213,-0.0038674106,0.019220319,0.03157535,0.032114647,-0.02939305,-0.03072274,-0.030850498,0.02187247,-0.021352716,-0.008857266,-0.023263104,-0.0036012807,0.0046593454,-0.03175688,-0.016967775,-0.015369917,-0.020327186,0.027257103,-0.024780408,0.023400694,-0.02391712,-0.02558476,0.03558705,-0.006556603,-0.0008106386,-0.027399626,0.035388816,-0.032098986,-0.01952921,-0.003435314,0.0056287665,0.0147779975,-0.01976258,-0.03388879,0.026037233,0.0117864,-0.00924893,-0.029162819,0.03235617,-0.02503047,-0.016711049,0.02768149,0.032691687,-0.018678237,-0.011633782,0.0066698166,-0.014897792,0.0034324026,-0.02048147,-0.006353788,0.0058849496,-0.008024736,-0.01269925,-0.02481791,-0.012045091,-0.0020035645,0.014714888,0.01404608,-0.012524572,-0.0350704,0.016921872,0.032683842,-0.017667774,-0.012200268,-0.032095894,-0.029996736,0.026612708,-0.0022532877,0.017504046,0.021702724,0.027916742,-0.014708903,0.012714253,0.027884506,0.0024988514,0.0033633632,0.029237192,0.019137714,-0.0139107285,0.011037278,-0.030977048,-0.014586634,-0.02538746,0.032344636,0.009128187,-0.019548908,-0.020741303,0.026520306,-0.00074068276,0.03242368,-0.027565597,0.0058225878,-0.013646562,-0.02713757,-0.024078272,0.020506332,0.02862008,0.005701196,-0.0048637716,0.015478027,-0.030875064,-0.011707015,-0.030563705,-0.013725104,0.015548947,-0.021432256,-0.013356471,0.018685443,0.016768757,0.00084954087,0.031242022,-0.0027354606,-0.0019737869,-0.029864699,0.031538736,0.027273184,-0.031482078,0.0020638928,0.02672124,0.005960726,-0.03162737,0.01922889,0.009250044,-0.025001671,0.00766892,0.024289122,-0.032064583,0.019914487,-0.0066565946,-0.01766844,0.016980816,0.028711729,0.01135719,-0.016017452,-0.020119445,0.008989729,-0.028034752,-0.011219749,0.02572526,0.0030826554,-0.008985601,-0.03079983,-0.01124729,-0.035355467,0.018521247,-0.004791021,0.03193342,0.028738165,-0.0027778577,0.008311806,-0.028853947,-0.010257811,0.034325108,0.025450211,0.015310254,-0.032519013,-0.006911236,0.009324526,-5.5757933e-05,0.00086007477,-0.018489245,0.029526383,0.022351263,0.0070175384,0.024885323,0.027127642,-0.003967583,0.022925463,0.03463038,-0.01990015,-0.0039141104,-0.016533967,-0.0260756,-0.01990846,0.027489737,0.033000585,0.0058216224,-0.030767128,0.031102713,0.012914908,0.017906688,-0.027024193,-0.021657387,0.025366617,0.005484959,0.025095014,-0.0009629091,0.03474381,0.0056912047,-0.013815847,-0.026766613,0.0136212185,-0.010877675,0.018461823,0.034720425,0.021062937,-0.029425016,-0.011876647,-0.0003463059,-0.019164236,0.005926656,-0.026662506,-0.007152573,0.006416673,0.0013319775,-0.024025764,-0.029165447,-0.035829525,-0.025276082,0.017045358,0.0026312706,0.013063161,-0.019818006,0.021215687,0.024376921,0.009525808,0.0059399433,0.005757039,-0.0051863035,-0.0049748365,-0.035667658,-0.0035460815,-0.0102714095,0.018449772,0.009771127,0.0039543547,0.0035218892,0.028698392,0.024283243,-0.031974487,0.0037784718,0.033018116,0.0053578992,0.0042101163,-0.029604219,-0.017222516,-0.026572708,-0.021627149,-0.009656372,0.0073184273,0.032823384,0.014379487,-0.020789696,0.028397225,0.0022552204,-0.016821664,0.025699953,-0.016668087,-0.0019005947,0.013920337,0.017408252,-0.020370847,0.03332104,-0.019126756,0.0044471566,0.0064301477,-0.030604651,0.008101419,0.01964531,-0.02941157,0.03439073,-0.015808186,0.018095866,0.0294375,-0.00894397,-0.023010314,-0.024827713,0.0075947572,0.0054382556,-0.003222876,-0.0033515254,0.0061879065,-0.01775899,0.01966461,-0.028013887,0.023510043,-0.012394564,0.03372718
-0.0051013622,-0.011124024,0.00281436,0.014756441,0.03232209,-0.031596135,-0.020344421,-0.0066118073,0.033058595,-0.008338358,0.016548246,-0.015333295,0.03317799,0.028924692,-0.03491832,-0.019304702,0.01901501,0.02037235,0.00037526712,-0.015423188,-0.0026699305,-0.014325956,0.030290429,0.0337899,0.016380638,0.02960648,-0.0347126,0.0048011057,-0.021958033,-0.0031647682,-0.026055843,-0.035684302,-0.021234823,-0.021498822,-0.005585544,0.008872075,-0.021909898,-0.026521774,0.019737035,0.034299772,-0.020322809,-0.031357843,0.011593976,0.032012127,0.02488157,0.014331043,-0.002117781,-0.02285739,0.03310443,-0.0073916838,-0.01246796,0.026580941,-0.007962499,0.009891808,0.007488683,0.020942945,-0.004279908,-0.022826422,-0.015720002,0.01846262,-0.01156299,0.018835915,0.03200879,-0.034774408,0.01028291,-0.005962027,0.022880604,0.030915227,-0.0015356287,-0.020328704,0.004760411,0.00939124,0.005824436,-0.026424542,-0.025468519,-0.017198794,0.016761435,-0.0066518057,0.03560149,-0.029663768,0.014538714,0.03341715,0.008955296,0.017493092,0.03277302,0.026491612,-0.021666046,-0.023599908,0.017466353,0.009331263,0.0067671463,0.031383652,-0.0060293083,0.020745015,0.028504929,0.0020858163,0.025202073,0.027910968,0.018682068,-0.026243052,0.01985751,0.012141132,-0.03048186,-0.015511068,0.018087747,-0.025555965,0.027046593,-0.014838667,-0.011483062,-0.005400369,0.026751291,-0.007821947,0.014203925,0.014211695,0.017427746,-0.0007025204,-0.005682731,-0.023453243,0.02970336,0.008478644,0.032546584,0.0026658196,0.032535948,0.02992748,0.029843163,0.03194227,0.009503965,0.010584184,-0.014673427,-0.0007984753,-0.010813348,-0.030077085,-0.009356158,-0.028158208,-0.023135068,-0.02415053,0.008254298,0.010412284,-0.025457261,-0.031978972,-0.0039169304,-0.02978858,0.005360061,0.0122074485,-0.030046599,0.03390884,0.006589257,0.007986076,-0.028411673,-0.0146049475,-0.014172648,0.01736301,-0.011036695,0.031634264,-0.0139206005,0.0028396277,-0.02382575,-0.017858615,-0.02621982,0.031899966,0.010973807,-0.002240376,-0.023276795,-0.015944822,-0.029502664,-0.01904607,-0.013267245,-0.024783913,0.027618539,0.0026544072,0.011762891,0.01378361,-0.035436198,0.0037406024,-0.008928657,0.033163123,-0.009205952,0.028591834,0.032702286,0.016085304,0.018642228,0.0060192794,-0.026745677,-0.02897689,-0.030452,0.028704809,-0.03380425,0.012326968,-0.0318884,0.03506132,0.008296789,0.016774869,-0.0021216737,0.035044678,-0.0016324647,0.008505289,0.013879091,-0.008520643,0.006335808,-0.016671317,-0.0032319261,-0.0030450632,-0.028702708,0.00063731865,0.005533571,0.0068687983,0.025674492,-0.01863922,-0.010329974,0.012376997,0.034578886,0.007294713,-0.01335495,-0.033324018,-0.017740333,0.00068901805,-0.003976572,-0.01580356,0.0043993895,-0.01024857,-0.032166272,0.03435821,0.023168586,0.010996685,0.021023273,-0.03333771,0.00046038465,-0.021674711,-0.023643972,-0.03581459,0.021528816,-0.013414422,0.019374028,-0.018844645,0.013013603,0.034234405,-0.021691734,-0.0107688,-0.014769257,-0.02660576,-0.026585087,0.024283968,0.019439826,0.02653911,0.0157771,-0.012993119,-0.03439166,0.0032515433,-0.034448337,-0.022950038,0.025836974,-0.005145931,0.0179719,-0.035613284,0.0058245314,0.01489499,0.021521747,0.01630239,-0.022356765,-0.0358617,0.028832098,0.025356866,0.011416438,0.013670191,-0.02330285,0.009247594,0.024513248,0.013104765,0.023777364,-0.014041707,-0.018269496,-0.02793322,-0.025760895,-0.0021880432,0.00028754753,-0.008181304,0.03296991,-0.020975547,-0.027597426,-0.01865849,-0.0106398035,0.028537491,0.010389785,0.017215027,0.00034290864,-0.024357235,0.009259035,0.02660882,0.0009732022,-0.0007869636,0.0236692,0.024850173,-0.030824222,-0.010759896,-0.024276866,-0.00746605,0.014807582,-0.019650534,-0.008629121,0.005136582,-0.029703569,-0.007214196,0.00731504,-0.014343216,0.0033375318,-0.017568748,-0.007356631,-0.012330972,0.022442669,-0.017710771,0.021839252,0.010007231,0.024667302,0.006200797,-0.029591044,0.022920202,-0.011260835,0.016859064,-0.007672189,0.015921026,0.03312103,0.0019000277,0.0072779222,0.019206664,0.0026142253,0.011303232,-0.0015017221,-0.028467147,0.017245488,0.0054455255,-0.021834692,-0.0116019165,0.011657227,-0.025095552,0.030417299,0.013784188,-0.011939465,-0.03265354,0.025051635,-0.020564321,0.02622572,0.012075787,0.01752234,0.034055647,0.0352965,-0.014734454,-0.03291658,0.029536419,0.00018224287,-0.0016522788,0.0046371813,-0.012886213,0.01005827,0.028069193,-0.017992651,0.008756916,-0.022040349,0.026923683,0.021480834,0.027829228,0.011324417,-0.014759165,0.023196278,-0.019503294,0.030710097,-0.01180263,-0.007914448,0.033361692,0.018412312,-0.009180239,0.01928206,0.0100413645,-0.0067064147,0.020090066,-0.024429165,-0.022049917,0.008981428,0.022457097,-0.022707373,-0.024339298,-0.006115165,0.022602044,0.009327646,-0.021621337,-0.008311068,0.016364388,-0.0035406083,0.03332034,-0.005345776,0.026767146,0.007754645,-0.0077742757,-0.016790025,-0.014570125,-0.008832441,-0.028028963,0.010504588,-0.019441398,-0.01816549,-0.030439824,0.009755246,-0.034114487,0.0067140437,-0.016483096,-0.003413431,0.032508057,-0.02989046,-0.0018748955,-0.018656971,0.011885032,-0.028267125,0.0054979,0.0048808795,0.03146212,0.029445926,-0.015537948,-0.03333761,-0.024760095,0.009489352,-0.024352442,-0.012509614,0.007830493,-0.030497976,-0.027937435,0.013408837,0.011227015,0.008776859,-0.0315379,0.035724234,-0.018514214,0.031406112,0.025836539,-0.017197909,0.031471223,0.006281776,0.03385393,0.028786944,-0.015522597,0.01899349,-0.008201725,-0.004560322,-0.0017730544,0.016820692,-0.026194295,0.024978247,-0.035357617,-0.0002028715,0.009620888,0.035002086,-0.035054322,-0.035103098,0.008515776,-0.000679887,0.0064787604,0.033927828,-0.010975163,0.019429618,-0.020166907,0.011623369,0.015912896,-0.0031474824,-0.015139502,-0.00780332,-0.010274056,0.022040546,0.021866301,-0.024737852,-0.02493768,0.014190297,0.019564673,-0.0113107,0.031249786,-0.034474447,0.019740894,-0.006378113,-0.0028785258,0.025731001,0.012604618,-0.021687068,-0.0005390078,0.023549907,-0.008237419,-0.0042303028,-0.021480657,0.015634948,-0.028226178,-0.03225966,0.010317909,0.029798405,-0.014626507,-0.01498501,-0.03276176,-0.004225686,0.034568835,-0.021654258,-8.4468265e-05,-0.008909439,-0.020748993,0.035595663,-0.0063356278,-0.023287335,-0.007404878,-0.0017064743,-0.0047823978,0.020821583,-0.026536494,0.026726177,0.021854306,5.7016718e-05,0.02046381,0.022337684,-0.010835227,0.032036647,-0.03241531,0.008450986,0.0040218546,0.00088156,0.02079393,-0.0116240615,-0.009333206,0.025681833,-0.020093264,0.028545333,-0.027280116,-0.025374638,-0.0022102457,0.028373823,0.0060578715,-0.0061735627,-0.021787547,0.02133466,0.00615287,0.016370896,0.008315695,-0.033035297,-0.02703261,-0.02504401,-0.033260576,-0.013181443,-0.0141123505,0.017718295,-0.019033698,-0.03246291,-0.0009546656,-0.005142989,0.034002945,0.027388614,-0.02762261,-0.0007476414,0.0023956127,-0.012697184,0.0001303351,0.025018254,0.017208975,-0.010698512,-0.033083536,-0.013530469,0.006735206,0.011863388,0.0030591146,-0.018481059,0.02562047,-0.027626498,-0.0018065064,0.008622538,-0.015270144,-0.028355965,-0.023753649,-0.0007256692,-0.004591437,0.005329681,-0.013901336,-0.015891995,-0.0087224785,-0.010043455,0.03199301,-0.0024842985,0.02587761,-0.013456499,-0.017492928,-0.021301521,0.018016238,0.0078908475,0.03009213,-0.004150076,-0.0139233805,0.033068217,-0.004063744,0.032633748,-0.026975513,-0.0066542355,0.027415687,0.015963428,-0.0049890727,0.02864411,-0.011419764,0.004070647,0.006962313,0.017783994,0.0055882977,0.0063447133,-0.0012219455,-0.00075358007,0.027702652,-0.034729097,-0.030749468,0.0140692685,-0.007100933,-0.028480427,-0.030239984,0.009235733,0.0079108635,0.017259564,-0.012697584,0.010748654,-0.020578764,0.03297698,0.0051644854,0.017565634,-0.004992438,0.022302235,-0.0025495854,-0.012202285,0.00074822106,0.015031502,-0.03195645,0.02350043,0.005172239,0.024236474,0.01989328,-0.028754381,0.0028485628,0.013073612,0.0033627609,-0.03399815,0.021094207,-0.017237615,-0.0023375938,-0.0013311352,0.031967625,-0.022195041,0.026539622,0.022716671,-0.028137788,-0.006950829,0.020465624,0.018893385,0.021797048,-0.023677263,-0.028372137,-0.009575465,0.029876439,0.0006869333,-0.02464336,-0.0098367315,-0.014615405,-2.4347011e-05,-0.0006854984,-0.003707975,0.017690059,-0.02926673,-0.034029953,-0.0058374023,-0.021375531,0.017996544,0.009447136,0.016645893,0.0099583175,-0.022396497,-0.031175958,0.035553023,-0.0087542925,-0.0077095125,-0.032960877,0.0055007464,0.025301872,-0.0253368,0.006407286,0.00066259777,0.00063486514,0.012834486,0.011804515,-0.014340901,-0.026662843,0.010293291,0.027426539,0.008452562,-0.0043429914,0.026790606,-0.032430407,0.011987709,0.032309856,-0.025802538,-0.021914277,-0.032264944,-0.029410267,0.0048231534,0.032119546,-0.0083823,-0.0027619042,0.00682614,-0.025575286,-0.010519107,0.012483513,0.029608117,0.031533886,0.007131136,0.0123764835,-0.017885236,-0.009536952,-0.025385754,0.013971921,0.024171012,0.0033745586,-0.02138007,-0.021665407,-0.016591037,-0.014302214,0.03277441,0.0049539413,0.0075104777,0.029849162,0.02456779,0.02885061,0.033442,0.015247656,0.032884564,-0.03131907,0.0063539296,0.028179716,0.02635933,0.03497621,0.030122166,-0.029787572,-0.011549977,-0.0088920165,0.0049308864,-0.021717766,-0.02068028,0.019548805,0.019634433,-0.02634376,-0.030085934,0.018971253,0.016815502,-0.023922611,-0.018747212,-0.027415723,0.006160149,0.02968338,-0.018287612,0.015840016,-0.023109183,-0.031049952,0.0045761503,-0.024124602,-0.0060207713,0.013201453,-0.025944699,-0.029005358,-0.018421357,0.007347332,0.0027257462,-0.0023359316,-0.030074172,-0.008797254,-0.020406498,-0.00095977174,-0.006394282,-0.030685404,-0.009561183,0.02912049,0.02499296,-0.012084721,-0.016063046,-0.001227289,-0.01712774,0.025451416,0.01708266,0.01287307,0.008723497,-0.03566467,0.028203893,-0.017160093
