0.07099283
-0.010907657
-0.020517485
-0.026328357
0.08889731
0.03009143
-0.04022611
0.00851348
0.037938487
0.041366827
0.0031862336
-0.012129341
0.028038083
0.0050316965
-0.028109763
0.011384974
0.011082811
0.056703094
0.026536748
0.13655351
0.03569106
0.014043347
0.0033733454
0.016557267
-0.016923338
-0.0008843072
-0.014685188
-0.014909946
0.06085713
0.011737945
-0.030092992
0.013544327
-0.021038761
-0.012859695
0.097265504
0.006826825
0.051385406
0.014411835
-0.0024261423
-0.06794449
0.019059721
0.0048099007
-0.01665376
-0.011356279
0.04716512
-0.022574516
-0.022859618
0.0014866275
0.057107348
0.034797378
0.008979297
-0.016217496
-0.0006299343
-0.017540181
0.007798333
0.017005038
0.020316303
0.00079497206
0.046916142
-0.0048227613
-0.03378514
0.020687975
0.022444801
0.040559042
0.051686637
0.033793677
0.020319616
0.014189845
0.006130131
0.025981184
0.0008501356
0.06645419
0.06346277
-0.00773552
0.017200988
-0.010755024
-0.008043297
0.014882157
0.028586814
-0.047795903
-0.0010868694
-0.0010514706
0.003596892
0.024607241
0.006435447
0.040513936
0.05545076
0.017796297
-0.050311524
0.002955643
0.055133495
0.031173486
0.08916414
0.031550176
0.04754218
0.0029814146
0.038418792
0.0029576945
-4.410751e-05
0.05764556
