-0.0170495,-0.018369157,-0.015834827,-0.01314887,0.017204396,-0.024264738,-0.014754474,0.01326767,-0.033114422,-0.00014588982,0.016560856,0.018395912,-0.012539253,-0.02680476,0.031107463,0.02007199,0.026236564,0.01873412,-0.001278352,0.017110724,-0.010423994,0.010678757,-0.01145239,-0.018438928,-0.029409844,0.00053692237,0.015470896,-0.023210138,-0.023865335,2.6833266e-05,0.014738195,0.0031905733,0.00047163272,-0.025481943,0.0030397947,-0.024808848,0.0036485735,0.018413862,-0.002239783,0.011647403,0.027483534,-0.031489316,-0.00028973634,0.019724451,-0.036573526,0.028758923,0.015906995,-0.0033931183,0.031566743,0.008165714,0.025752129,-0.032150414,0.021459088,-0.01964874,0.0079375245,-0.013433592,0.007553391,0.015183929,-0.011391214,-0.00923118,0.032482643,-0.029653445,-0.020546185,-0.0063365577,-0.010987239,-0.006174659,0.0062455134,0.01702402,0.030907432,0.0037013527,0.046521552,0.02747914,0.03427372,0.041987434,0.045401506,-0.00013764459,-0.0038052832,0.023017043,-0.025546627,-0.0062994338,0.033006344,-0.026739419,0.02665843,-0.023052609,0.0038077645,-0.03032308,-0.029831128,0.002803417,-0.01575505,-0.002916724,-0.033994548,0.0119386865,0.038618237,0.04190438,-0.0044817347,0.03153945,0.041916203,0.035495777,0.0022172884,-0.022276428,0.0016360367,0.041630816,0.0052372077,0.03771131,0.050429713,0.050326284,0.041233953,0.033375062,0.010559117,0.028463945,0.0060748635,-0.00045858696,0.013681956,-0.0076276953,-0.031824112,0.026097242,0.009356639,0.008875304,-0.014418845,0.008022752,0.03622722,-0.008283759,-0.017913826,0.013630589,-0.014061746,0.009691445,-0.0034978064,-0.05412085,-0.026857002,-0.028303957,-0.020936526,0.03296645,0.014165844,0.019398917,-0.017783007,0.045692164,-0.007391965,0.017407,0.01667424,-0.007723635,-0.031435058,-0.02047323,0.026470244,-0.028321452,-0.012564155,-0.012522745,0.0028860988,9.767143e-05,-0.020446144,-0.025063127,0.030617338,0.0220333,-0.021930479,0.026355967,0.026664158,-0.01186377,0.019402746,0.020396905,0.036219448,0.0052455836,0.04003466,0.0067838943,-0.0040937895,0.0041466444,0.03568526,0.033101924,-0.029131431,-0.020632206,-0.0030750632,-0.01875259,0.03373015,-0.028402595,0.026449662,0.008146608,0.01381357,-0.007150238,0.014415843,0.029668644,0.009407341,0.015213999,0.032539446,-0.0029945977,0.0026372601,0.011613439,0.01724496,0.024035921,-0.020502865,0.0046330476,-0.019050883,-0.0039135367,0.007849033,0.037862822,-0.0009858023,-0.03592944,-0.01627723,0.019374045,-0.021700095,0.034868803,-0.030027129,-0.0163066,-0.015023634,-0.00039783394,0.01861921,-0.014170531,-0.01596755,0.0040476085,0.020930475,0.0012683774,0.006476671,-0.017987277,-0.022980558,-0.035327468,-0.006023046,-5.7000925e-05,-0.025964916,-0.037507523,-0.02079029,-0.04157706,-0.02845209,-0.01176257,0.016312698,-0.02046002,0.0214818,0.011378808,0.027869102,0.0043637385,-0.011402915,-0.04028674,-0.042441275,0.02060957,-0.013911609,0.0055385297,0.031661615,0.016823199,0.026878642,0.022013703,0.013125433,-0.029961197,-0.0013969424,-0.021825792,-0.026242046,-0.033645105,-0.039455548,-0.019341268,-0.01589141,-0.0065490776,-0.011528658,0.005265094,-0.020093145,0.01636989,-0.03231905,0.032583725,0.020710342,0.023966182,-0.023904528,-0.015892124,-0.04262261,0.018724956,-0.012835255,0.0011780912,0.02024695,-0.016418725,0.047104884,0.0092871,-0.01982762,0.013007605,-0.0034660439,-0.037927277,0.006941642,0.008380273,-0.020414174,0.008595237,-0.046589874,-0.02439161,-0.018191146,-0.029015515,-0.056594152,-0.030654578,0.020715248,0.009248319,0.025840303,0.032576703,-0.023230303,-0.030708184,0.015781548,0.003099229,-0.010438602,0.022593064,-0.014839109,0.013047064,-0.0007789296,-0.0017248829,0.027201185,-0.06555822,-0.10058887,-0.072817326,-0.044535287,-0.022983348,-0.044463083,0.015299716,-0.005045899,-0.06394183,-0.0635996,-0.038495384,-0.016452024,-0.0067199697,-0.0313542,0.022380304,0.023894528,-0.011664038,-0.028824735,-0.02888616,0.020366186,-0.03884861,-0.031500183,-0.001784778,0.038673755,0.029735917,0.019098986,0.002891752,0.013630145,-0.08193863,-0.07831565,-0.066399045,-0.039327286,-0.03221827,-0.046643253,-0.04201548,-0.024181142,-0.008885938,-0.01832688,0.0028407266,0.017103052,-0.006669211,0.007110634,-0.033857606,0.03401486,0.012927972,0.02325034,0.003596524,-0.016894802,-0.005435589,0.02453645,-0.018999366,-0.0056572165,0.044160616,0.005602382,0.0075286073,0.044407643,-0.047912657,-0.04747966,0.0026922408,0.018336654,0.014086431,0.008284587,0.02777606,0.006675607,0.042829707,0.04253201,0.043205973,0.008422458,-0.019332785,-0.018438647,0.011103239,-0.009423112,0.0130308205,0.008368209,0.03134261,-0.028020326,3.6482597e-05,0.0007102615,0.008668864,0.05180006,0.07286828,0.06655619,0.058795154,0.030987922,-0.03549195,-0.036252644,0.0367696,0.051797945,0.058015995,0.037874702,0.00636758,-0.024913512,0.044572152,0.060711592,0.05201227,0.036895674,0.027606621,-0.011837058,0.013694747,0.0025071248,0.024727598,0.020859001,0.017344972,-0.021367041,0.055479903,0.040495403,0.07035108,0.08141269,0.023932703,0.045141343,0.064249545,0.029899789,-0.009128237,-0.018300895,0.02693811,0.044035885,0.057729688,0.039008718,0.023728004,0.012355836,0.0069552334,0.045883097,0.03550024,-0.0048014815,0.001033223,0.009735695,0.033414107,-0.03028438,-0.015725482,-0.03137908,0.02640531,-0.0013303806,-0.0041975137,0.06082075,0.047308724,0.042431995,0.046223402,0.08832035,0.035551947,0.035665825,0.013842928,0.029638724,0.040874243,0.051780283,0.07037513,0.052770175,0.03915884,0.039389864,0.021473102,0.03254922,0.009346735,0.036196604,-0.005072585,-0.007804482,0.03429485,0.027951036,-0.027960034,0.008136317,-0.027525835,-0.0172473,-0.006871663,0.046372075,0.054414175,0.091770336,0.09087143,0.04407043,0.09873512,0.013762014,0.06274852,0.04161732,0.078848906,0.0782844,0.07376266,0.02559733,-0.009643006,0.032574873,0.038112495,-0.0044765705,0.034617454,-0.008549887,0.006980114,0.01652554,0.006910745,0.00055903196,0.025745258,-0.015163141,0.020278785,0.006099283,0.011537333,0.02733411,0.06950622,0.07787814,0.030699808,0.026375312,0.0626103,0.028351463,0.016972257,0.05727347,0.06688562,0.07143966,0.044335615,0.04815249,0.032577176,0.04740528,0.037409257,0.0013340446,-0.0009028572,0.008638787,0.01194501,0.011375508,0.004856609,-0.022856647,0.007542913,0.0036250257,-0.019642826,-0.043981243,-0.028302178,0.05051026,0.068831235,0.05200682,0.06735148,0.04479874,0.07767528,0.07329842,0.059484195,0.014212982,0.029438652,0.011062396,0.06231839,0.05798058,0.032260478,0.014665684,0.022855913,0.03150416,0.028091855,0.0049092784,0.025710182,0.008160313,0.012596658,-0.020138169,-0.03554687,0.011058125,0.014037686,-0.015523256,0.01820928,-0.019393979,0.027368192,-0.01752692,-0.025343409,0.03294426,0.05744484,0.07066589,0.06832383,0.057257634,0.072448194,0.029333154,0.05641145,0.044237405,0.0018963238,0.012068722,-0.01317702,-0.0088265,-0.0108505795,-0.019291472,-0.013947148,-0.0093559,-0.019504163,-0.004753802,-0.019597236,-0.002492443,0.00812756,-0.036672898,-0.047233757,-0.041812234,-0.03428712,0.0027675356,-0.033896882,0.039018285,0.015145565,0.054551493,0.06724534,0.04044945,0.04512881,0.063043244,0.045477968,0.036247686,0.01873868,0.009909425,0.022401579,0.0065727406,0.011103415,0.00040722787,-0.026956331,0.013858442,-0.0043898434,-0.023723062,-0.029775904,0.011557691,-0.028944612,-0.019967616,-0.049047086,-0.031834904,-0.02900575,-0.023473825,-0.024138078,0.028267067,0.055630855,0.04556511,0.026897587,0.063613795,0.04729267,0.043760262,0.027488934,-0.0015613574,-0.0028556462,0.009046584,-0.0062757796,-0.017735334,-0.020045862,-0.008366148,-0.016586745,-0.02611496,-0.01672201,-0.021167176,-0.023732515,-0.004796821,0.013223268,-0.018950729,-0.060148247,-0.054387685,-0.048660006,0.012936199,-0.028541958,-0.006823745,0.021956548,0.03140341,-0.00943357,-0.0072420877,0.002646659,-0.018642576,0.034443285,-0.0053289076,0.047067676,0.018266404,-0.006050125,0.034367673,0.014362174,-0.023655893,0.016015464,0.030229876,-0.01904139,-0.013914624,0.019210063,0.021600062,0.02842969,-0.034633666,-0.0019699037,-0.048618264,-0.0115947835,-0.02439234,-0.05402156,-0.031715874,-0.036097527,-0.03545392,-0.017721897,0.004191671,-0.008433265,-0.031900737,0.02871218,0.021912409,-0.012999767,0.051627614,0.027769074,0.005165942,-0.014417983,0.0041076723,0.0052859564,-0.027397254,-0.03181988,0.024555888,0.01776043,-0.0032283498,-0.0068110945,-0.015685046,-0.020265408,-0.033403907,-0.0056794486,-0.03579051,-0.040455475,-0.051262952,-0.041243162,-0.039937805,-0.03835585,0.010688637,0.011392242,0.00086942327,-0.025762457,-0.0029407723,0.014753108,-0.006083717,0.033389617,0.030229395,0.035515253,-0.026773062,-0.0010006467,-0.024194144,0.00012462214,0.0159624,-0.02122364,0.008569918,-0.012148,-0.032956604,-0.033424627,-0.006892695,-0.030601038,-0.03052117,0.000980485,-0.050543282,-0.037682064,-0.03666909,-0.019887628,-0.06638088,0.0054482887,-0.016558921,-0.031456314,-0.0025325697,-0.018377148,0.019919483,-0.0023923833,0.026170984,0.013438129,0.020785194,0.025918456,-0.00060222746,-0.005761951,0.029153947,0.015435368,0.03217199,-0.007996999,0.013536138,-0.010537762,-0.017201087,0.027162129,0.024880351,-0.0005522639,-0.022411475,-0.01380816,-0.035928465,-0.0154195735,0.011150856,-0.046326783,0.0006311757,-0.030529162,0.02341324,-0.01141788,0.019020468,-0.023712471,0.024342304,0.02047851,0.0013209817,0.01780841,0.0017937347,-0.0075691473,-0.027328143,-0.024791187,0.017329846,0.01718375,0.018153494,0.02281693,-0.035756733,0.0049568303,0.014821227,-0.025827292,-0.017383391,-0.027128832,0.024886025,0.01095118,0.012698786,-0.017022105,-0.034733135,-0.0025610006,0.01352235,0.010501511,-0.017799892,0.007189107,-0.0057690064,0.012689732,0.031603213,-0.033260193,0.00024457648,0.032312397
0.017961115,0.02514926,0.007514138,-0.0006527975,0.02103388,0.027233724,-0.022887994,0.003896471,-0.026421255,-0.0180397,0.031472486,0.006435342,-0.013058363,-0.009835608,0.032126497,-0.00020598769,-0.010023054,-0.025581956,-0.027301662,0.013249278,0.004559763,0.0044741295,0.0035008378,0.009211279,0.020526063,0.015433479,-0.0034402348,-0.0004987791,-0.008359449,-0.026794141,-0.032868102,0.017634451,0.023908334,-0.023025028,0.0054307496,-0.011537652,-0.011959991,0.0271553,-0.024423663,-0.012506017,0.024932086,-0.007795589,-0.03335547,0.035026096,-0.031574797,-0.023163551,-0.009583502,0.031179484,0.03339514,0.030082518,0.011513779,-0.027971026,0.02658109,-0.003720466,-0.028551802,-0.0023999773,0.010213006,-0.032092288,-0.011871578,-0.025134036,-0.034784514,-0.025004357,-0.020174727,0.0026811138,0.022026386,-0.015691224,-0.0040112976,-0.00272111,0.024774466,0.005256096,-0.005742426,0.011390747,0.03666442,0.017807433,-0.019530466,-0.017377293,-0.011893139,-0.0045617754,-0.021126343,0.012629786,0.029267244,-0.010429499,0.014865473,-0.011576496,0.030233677,-0.0035458207,-0.022924047,0.03144396,-0.0038948215,0.013058445,0.03344296,-0.022486106,-0.014152437,0.0059867254,-0.016552992,0.0063909846,-0.0098826615,0.01520404,-0.019499727,0.030882642,0.00997526,0.011154979,-0.016435884,0.028001506,-0.0073607676,0.005100112,0.013535608,0.033844735,-0.025937159,-0.034031443,-0.01387992,0.018633068,-0.011802644,0.033579864,0.02676879,-0.032472685,0.00064327026,0.0033511566,0.008677983,0.02430843,-0.009598543,-0.018763188,0.02000698,0.044435546,0.030151276,0.01642801,0.0028654074,0.016306037,-0.021808865,0.01771657,-0.021546127,0.02807466,-0.0012552666,0.006148129,0.022695825,0.026931826,0.018605538,0.007487859,0.02135862,-0.03153413,-0.005669249,0.0036117397,0.019904213,-0.0061859516,0.0026526956,-0.020778032,0.03580902,-0.011234501,0.043838322,-0.012236651,0.013121807,0.0008936415,-0.020132137,0.019003632,0.046471495,-0.0023273453,0.028997364,0.007762114,-0.012810418,0.021933382,-0.012900286,-0.014949809,-0.005196403,-0.025367593,0.019732883,-0.024091896,-0.0016844708,0.026252113,-0.03216022,-0.017835401,-0.010251734,-0.0118659185,-0.01732638,-0.025585309,-0.021445027,0.0032042072,-0.018786483,0.018382493,0.01571494,-0.0025402461,-0.018024966,-0.020409338,-0.024181057,0.025056327,-0.018535685,-0.0022695074,0.012577696,-0.012954667,-0.011734337,-0.0007275236,0.0053393836,-0.01622496,0.003311046,0.011062427,-0.03269102,0.024191903,-0.00045858463,-0.02926096,-0.03220345,0.0013887449,-0.008451911,-0.008491372,0.0128736785,0.013291399,0.003899113,0.040273894,0.007771397,0.034116402,0.022884192,0.029905166,0.0070579182,0.021839965,0.009941551,-0.028578794,-0.03073218,0.01061736,-0.03163779,-0.012999841,0.016470544,-0.014183044,-0.022750817,0.0016137045,-0.018721454,-0.003491005,0.026511418,0.009693417,0.027226677,-0.034625478,0.0010964434,0.027375001,0.03251296,-0.021747053,-0.021057406,0.046969544,0.026383737,-0.00071523,-0.013646712,-0.0017206988,-0.014384195,0.034766547,0.028096234,-0.0032449516,0.007859801,-0.015198385,0.01487846,-0.0062377467,-0.023033297,-0.043644823,-0.056272127,-0.021780487,0.0077330125,-0.024120372,0.0232244,-0.0058433777,0.026128098,-0.024035068,-0.021908663,0.038747568,-0.02314339,0.017822951,-0.012807604,0.016289188,0.012582768,-0.0019329385,0.020707944,-0.015475741,0.020351144,-0.013755216,0.022089493,0.027114678,-0.016304208,-0.018088682,0.007349394,-0.0052095884,0.0072166063,-0.019141048,-0.0020613053,-0.043075096,-0.01968832,-0.028983148,-0.0043598083,-0.031482838,-0.013624213,0.035704587,-0.01861085,-0.017853612,-0.031576328,0.003541491,0.033272486,0.040995993,0.0047710654,0.022510078,-0.0030291642,-0.028936293,-0.012477496,-0.00012700542,-0.018737452,-0.014264979,-0.018479643,-0.0075005004,-0.030694384,0.02176626,-0.006684711,-0.021041421,-0.009034438,0.00481456,0.023561062,0.019759463,0.017775608,0.025570305,0.002381335,0.0012114599,0.012532783,-0.030989591,-0.02081115,0.024323009,-0.02175642,-0.005258314,0.009463322,-0.036433496,-0.02462677,-0.064327285,0.008719385,-0.005615628,-0.009018267,0.0044546598,0.0031621517,-0.015206834,0.029008457,0.0074321316,0.031541426,-0.020151125,-0.01975308,0.020436266,-0.036838938,0.015585851,0.035019215,-0.012510235,-0.009070612,-0.02404986,-0.008246899,-0.021840705,-0.024192244,0.002085263,-0.010647955,-0.043308046,0.008007911,-0.017341532,-0.04687572,-0.046082027,-0.014862437,0.025127193,-0.015668059,0.029370518,-0.012104496,-0.0050264276,0.041463412,0.04308129,0.028467076,0.013972096,0.00854458,0.006150156,-0.03349936,-0.03544884,-0.010543909,-0.013958238,0.003056562,0.020075569,-0.020919504,-0.027581798,0.012979111,-0.0026030557,-0.036635883,0.014254139,0.0008079386,-0.014769735,-0.024361363,-0.0038571698,0.04118696,-0.013222784,0.011795244,0.021924717,0.016953621,0.026717024,-0.0062258285,0.0056900997,0.020157922,0.03626268,0.029509291,-0.000899689,-0.011537266,0.01831434,-0.027129376,0.024940206,0.03466301,-0.01906706,-0.041169096,0.013952479,-0.019344771,0.021271832,-0.025925556,0.0066465554,-0.035290133,0.0045651384,0.0022958915,0.0077910726,0.044436313,-0.004342686,0.043246157,0.03052986,0.03066198,-0.00942326,-0.009131002,-0.010569888,0.029575583,0.0068665184,0.015889384,-0.008734328,0.0078118695,0.015734296,0.015967397,0.008831592,-0.010252336,0.021132194,-0.004449107,-0.030591942,0.0063343397,0.031999726,-0.02481301,0.032514624,0.0053100493,0.016461603,0.022659838,0.055668965,0.012451789,0.06966089,0.014031869,0.01391204,0.034914415,0.015140564,-0.022785021,-0.013795509,-0.012820269,-0.026226928,0.016985392,-0.022948483,-0.020952715,0.009645783,0.023615545,0.012780633,-0.013041999,0.024695382,-0.009947967,0.0030231916,0.008912564,0.010359465,-0.012935567,0.0028106086,0.055089038,0.024993438,0.037190154,0.068362474,0.07708487,0.058548663,0.019511268,0.016530255,-0.022041388,-0.022311023,-0.028563239,-0.025639156,0.035412222,0.023574052,-0.0030927418,-0.0042228983,-0.026412385,0.015573522,0.02698515,0.00805128,0.008176148,0.015116647,-0.020099891,-0.010582168,-0.019716244,-0.018242313,0.040928856,0.028171608,0.05748874,0.048042085,0.07031408,0.023447987,0.07118553,0.060320914,0.020030705,-0.008709576,-0.00954642,0.041212708,0.04201129,0.0374604,-0.005140467,0.010584201,-0.01610651,0.041325547,0.0128975315,0.0071308548,-0.031613123,0.0318007,-0.015673816,0.008565315,-0.002859001,0.01309168,-0.006476684,-0.022378622,-0.0046778144,0.055149086,0.032204736,0.042985942,0.08195095,0.0215905,0.008678952,0.0051398193,-0.0023789098,0.0297911,0.036704604,0.034869507,-0.012477288,0.030282006,0.010370563,0.05112125,-0.004422591,0.015007611,0.0337486,0.01619373,-0.0021076084,0.011489229,0.0021467682,-0.008146697,0.020185757,-0.028565083,0.002202437,0.01851578,-0.0028504562,0.03931979,0.026666563,0.0625625,0.0343746,0.068510324,0.046173945,0.022679359,-0.013330854,0.017658617,-0.01105727,-0.023166124,-0.015690515,0.045571078,0.013394042,-0.009061999,0.050363656,-0.0023192384,0.0103442455,-0.01777867,-0.013775805,-0.01910282,-0.027681716,-0.01574457,0.027837537,-0.013415918,-0.03518081,0.024163442,0.0027831253,-0.018937428,-0.0053579793,0.037729014,0.024248658,0.049783666,0.061095048,-0.009212366,-0.00091047655,-0.009258303,-0.0003754075,0.043793872,0.04092308,0.035517782,0.0069479514,0.03826635,0.031672016,0.011624265,0.018563136,0.0065803407,-0.016315488,0.03425079,0.010418202,0.006733486,0.01201367,-0.020689595,0.011951449,0.00015630672,0.028902018,0.03877953,0.022172403,0.03931851,0.01938879,0.056430437,0.033283733,0.043486614,0.012478966,0.011586637,0.02851414,0.046657875,0.032226503,-0.019472145,-0.012286018,0.047074698,0.031302303,0.03392885,0.033460394,0.02525086,-0.0007098664,0.0132225705,0.02390539,0.0090037165,-0.027798986,-0.011254936,-0.0072153397,0.033236697,0.033940982,0.029938858,0.033004083,0.03217916,0.028372651,0.027916739,-0.011946071,0.004600563,0.0016147684,-0.03131115,0.040259212,-0.0083922995,0.027606545,-0.0049844948,0.03931641,0.04082023,0.009201713,0.024584651,-0.0066253114,0.015248033,0.0046605095,-0.024156086,0.014020314,-0.014017174,0.013908014,0.009027897,-0.005073155,-0.019742552,0.014778127,-0.0043674675,-0.0010591476,-0.0039731823,-0.031006115,0.014856335,-0.024825446,-0.0010107247,0.0103429295,-0.018066453,0.027664196,0.012081833,-0.023054434,0.031393506,-0.022674968,0.008830563,0.027341917,0.010838467,-0.0077247326,-0.024943173,-0.016362932,-0.008667545,0.03399615,0.030711792,-0.021656886,0.009514751,-0.0068265055,-0.0038334986,-0.015019768,0.017025054,-0.035915535,-0.021843541,-0.014340458,0.021374138,0.012938185,0.0009306755,0.008812871,-0.017479142,0.008156837,-0.00089001615,-0.00059743616,0.00037220106,0.031567127,-0.013638819,-0.016020698,-0.0038307635,-0.0100581935,-0.0069249403,0.0030850843,0.016927477,-0.029461363,-0.016427832,0.032710344,0.024142943,0.011701443,-0.032403063,-0.02700341,-0.045133002,0.01413494,-0.039034646,0.017968697,-0.030279031,-0.002083782,-0.018698873,-0.037998557,-0.019071056,-0.011784835,0.013905075,-0.04113718,-0.021325132,0.021530174,0.019029314,-0.029640041,-0.029729404,-0.02136911,0.015259095,-0.028578082,-0.0014512725,0.025474157,-0.0061836373,-0.032675546,-0.018087344,0.0059146974,-0.035153925,0.010492122,0.014224502,0.01918345,-0.028491559,0.008753044,0.022488184,-0.0047152713,-0.02843131,0.0022501207,0.029301705,-0.017526686,-0.014052552,0.0032255352,-0.010189525,0.01992059,0.015203285,-0.025456771,-0.014764595,-0.016259454,-0.022542631,-0.024342883,0.0020137094,-0.0048235096,-0.028082823,0.0014646895,-0.001142939,-0.030132098,0.014653548,0.015850086,-0.018224502,-0.008292387,0.008835274,-0.035414577,0.033099275,0.007619887,0.0190228,0.026619403,-0.0042985943,-0.00833012,0.028796086,-0.023920458,0.03542723,0.03442173,-0.01982444,0.02129021,-0.013297733,-0.03491361,-0.030985344
-0.03481402,-0.022103792,0.021946996,0.006125618,0.025255457,0.013386622,0.014935516,-0.010387033,-0.011907207,0.022360548,0.030657839,0.0040393546,-0.034995988,-0.034381133,0.016210658,-0.032300934,0.018757876,-0.00029235706,-0.01768954,0.0036510564,-0.033702686,0.025866162,0.0053888857,-0.014807241,0.020690355,-0.006668823,-0.029658489,0.024899062,-0.009212026,0.01769536,0.009500571,-0.007571306,-0.030861888,-0.027597478,-0.032106176,-0.013379629,-0.009161426,0.015074731,0.010351133,0.013867696,-0.023091044,0.022882221,-0.011023462,0.018783571,0.0010845801,0.0023060103,-0.006871958,-0.033650037,-0.01251899,-0.024292009,-0.012142919,0.021547584,-0.029828733,-0.009714497,-0.0069438387,0.01733262,-0.035455555,0.01957833,0.023332097,0.0063882815,0.0023121436,0.0070805177,-0.0066133863,0.017879505,0.01621129,-0.015370029,-0.016198587,-0.021766687,-0.0035363927,-0.019912895,-0.02435341,0.0196224,0.006975431,0.03559354,0.035325915,0.03378911,0.010494771,0.011992369,-0.022570763,-0.021599017,-0.0352484,0.01881897,0.0013338514,0.026708119,-0.020229494,0.031939868,-0.024107758,-0.023581155,-0.0072143567,-0.016351404,-0.013237997,-0.010610051,-0.0017904982,0.007295517,-0.00031783318,0.025847092,-0.027274769,0.028277906,-0.0006452167,0.036930386,-0.0046695215,0.021163614,-0.0082627,-0.010758277,-0.022038871,-0.02388879,0.024201596,-0.009214834,-0.033966105,-0.018205477,0.019578246,0.03558125,0.021057978,-0.018128173,-0.029107701,-0.022045413,-0.0033286884,-0.008872934,0.02774579,0.033902664,0.033888597,-0.01947574,-0.015920883,-0.027263138,-0.02138577,-0.019261645,-0.019137265,-0.035237778,0.014376493,0.026283534,-0.016466951,-0.023451898,-0.003767221,-0.021093119,-0.02011625,0.026297662,0.03402765,-0.0151202055,0.01648243,-0.033302218,0.014091417,0.025174394,-0.020203894,-0.008733345,-0.00415437,0.0027659808,0.026778495,0.023979258,0.023345087,-0.006268488,-0.00962458,-0.04060306,-0.02729765,-0.043320637,-0.0015226414,-0.040245403,-0.00787193,0.023200577,0.028583372,0.02487499,0.018917404,0.00275227,0.03286693,-0.024849556,0.027011845,0.029527202,-0.028006734,0.015157073,0.028656755,0.0015577493,-0.0057829497,-0.028829703,0.030440375,-0.016424708,-0.007157005,-0.0002188743,-0.015460773,0.0010046172,-0.034463145,-0.010480942,0.0134731,0.017084112,-0.016623158,-0.034463566,0.019403618,-0.04002128,0.026631352,-0.0062457337,0.007774878,0.016710874,-0.0025087255,-0.015627172,0.019417495,-0.03824201,-0.00589551,-0.03338741,-0.025610872,0.019210886,-0.007720164,-0.025269454,-0.017122438,0.019137157,-0.0024555116,-0.01199589,-0.027898982,-0.042473063,0.0062200148,-0.039329495,-0.0074073495,0.014695898,-0.039044533,-0.0156984,-0.040536765,-0.031530123,-0.03238571,-0.020588582,0.020609187,-0.008583485,-0.0031833395,0.0072675576,-0.019402957,-0.016980158,-0.034860395,0.032191366,-0.007966023,-0.005616736,0.03287572,0.0022305734,0.025275098,0.032153007,-0.016760599,0.027069323,-0.030400127,-0.04685389,0.002375425,0.020284016,-0.01647979,-0.027628945,-0.010392171,-0.006044429,0.01963086,0.025098873,-0.015736505,0.011383457,0.008639426,-0.019669704,0.019387709,-0.016435158,0.014378376,0.015717324,0.008790513,0.024586575,-0.00071778556,-0.0023712984,-0.0057234596,0.016280362,-0.0042567197,0.022580888,0.020317985,-0.02362006,-0.016934631,0.012611907,0.018053016,-0.03170356,0.023740634,-0.029333355,-0.0073332055,0.014405909,-0.009893292,-0.010780513,-0.019658916,-0.0120051075,0.021270584,-0.041168053,-0.034123577,-0.025820702,-0.040918965,0.021122722,-0.0060421126,0.019456936,-0.01203406,-0.033069342,0.024812778,-0.032912888,-0.017031902,0.021466024,-0.019320836,-0.0045330664,-0.013552378,0.016071957,-0.019309876,-0.033774324,0.02806271,0.012846131,0.02660606,-0.00218525,-0.03838482,-0.019052781,-0.01959813,0.032512132,0.005309179,-0.03360259,-0.015563259,-0.028213518,-0.015817028,-0.0135356365,0.03046623,0.012460616,-0.012915831,-0.010435389,0.021715902,-0.014474558,-0.0006927597,0.011532327,0.020668797,-0.01594879,0.020340344,0.0023598473,-0.0127879055,-0.02020363,0.012610166,0.003384259,-0.0020618923,0.013067639,-0.005673498,-0.02528048,-0.0015301012,-0.026989624,-0.031374592,0.016498357,-0.002707981,0.00051436,-0.018455407,-0.022331141,0.032301363,0.005258293,-0.010208672,-0.029452998,0.0345671,0.030889718,-0.004106151,-0.0024058546,-0.014707736,0.0155746145,-0.018045116,0.021298936,-0.004880171,0.03155116,0.0518923,0.03198901,-0.030928666,-0.01210237,0.022060836,-0.014333466,-0.017900221,-0.015633877,0.035551567,-0.0022608014,-0.030131528,0.016393015,0.0016748776,0.0077292267,-0.024531193,0.0342798,-0.00020557876,0.035597928,0.015566129,-0.006145174,0.02377102,0.019177778,0.0047777654,0.03443396,0.0045040795,0.027361201,-0.005306667,0.009803634,0.008839941,-0.0020417196,0.014216404,0.020838596,0.039472822,-0.0015984279,0.011405072,-0.009812554,-0.006324587,-0.016033176,0.034887027,-0.014744105,0.034570068,-0.03538305,0.022276172,-0.006445148,0.008642482,0.032445084,0.02036746,-0.032267377,-0.008200246,0.004868065,0.004007694,0.014398095,0.043432716,0.047201045,0.0053607225,0.06349497,0.0012022213,-0.024069367,-0.010046455,0.022291405,-0.00092102203,-0.012742115,0.02804859,0.004096764,0.037399482,-0.01388187,0.030963795,0.005300239,0.039195977,0.009584832,-0.031983037,-0.028086187,-0.03265194,-0.021437582,-0.010179018,0.013415523,0.013695406,-0.03068354,-0.004630955,0.025770424,-0.014546702,0.05394508,-0.0062652137,0.0018786315,0.040524628,0.022705842,-0.009056241,0.015016816,0.005353339,0.012282642,0.049810633,0.004519687,0.032263033,0.020682896,-0.012303806,-0.021697639,0.025887689,-0.008339112,-0.00997975,0.016941505,-0.014450405,-0.03339034,-0.014304494,-0.0012683982,-0.027613254,0.00218172,0.013808761,0.00015769257,-0.014769018,0.009251902,0.051297236,0.033603247,0.015183352,-0.032116957,-0.016709238,0.030658007,0.041962247,0.036741048,0.008536421,0.055595744,0.03020024,-0.010487816,0.02031953,0.03622659,0.033608057,-0.00031481052,0.028657313,0.008516966,-0.012942826,0.035011508,0.009666835,-0.012396083,0.007600342,0.0105266785,-0.017124733,0.02559677,0.007562787,0.01524339,-0.014642408,-0.023157652,0.0009829989,0.010492205,-0.020241335,0.003192056,0.03151302,-0.0006049754,0.0062224935,0.028957458,0.029566305,-0.0052874763,0.013950729,-0.019710615,0.0066506923,-0.029881401,0.034767713,0.014413755,-0.01608655,-0.01214916,-0.0072260187,-0.020368954,0.029334787,-0.0028702389,-0.01078722,-0.017243197,-0.014166264,0.030511826,0.029794523,0.019176304,0.0032424056,-0.021203626,-0.011699255,-0.005924829,0.05301121,-0.010373878,0.028579382,0.038578067,0.008403427,-0.009669339,-0.018952807,0.0028641257,0.032846954,-0.02388886,0.0045151603,0.008689936,-0.024478357,-0.030861221,0.029984437,0.007943703,0.023723612,-0.024780381,-0.031545214,-0.03396579,-0.015912324,-0.007308438,-0.010279681,0.0035760347,-0.030000625,0.028424265,0.014070339,0.033566304,0.015605134,-0.0142261,0.040017445,-0.017879253,0.025641223,-0.038104206,0.0073801186,-0.0027121003,0.0113411145,-0.0071121138,-0.016964253,0.009336854,-0.0022605136,-0.02635015,-0.006916769,-0.033927534,0.010663557,-0.0051171184,-0.032828454,-0.024184223,0.009496249,0.016846742,0.007704726,0.01808017,0.03894305,-0.00041735437,-0.0012975173,0.04144118,0.016532393,-0.0152984895,-0.024856744,-0.004176649,-0.0147304265,-0.008266336,0.0010013023,-0.0043538087,-0.016737789,0.019681351,0.012067967,-0.011776034,-0.023113722,0.0039177136,-0.029692432,0.02907527,0.0031329999,0.03148978,-0.024078535,-0.014266233,-0.02301796,0.013961071,-0.013294568,0.03583764,0.019323468,0.039568007,-0.008856794,-0.018503595,0.029945947,-0.040776573,-0.03964884,-0.004070111,-0.014236432,-0.01179099,-0.031977963,-0.014200494,0.033314623,0.02615748,0.0010645984,0.029836917,0.015238379,-0.028672533,0.015210188,-0.0054243985,-0.03217304,-0.004965646,-0.018710032,0.02709317,-0.0193037,0.0074904426,-0.034647927,-0.029482571,0.003502558,0.02927237,0.017206848,0.0059378445,0.017784445,-0.046342257,-0.030811464,-0.017470011,0.004458227,-0.016293094,0.012614406,-0.034318257,0.004283625,-0.028609416,-0.0061235297,0.011895062,-0.014923459,0.002552092,0.034430895,0.006304513,-0.016685698,-0.0013605839,0.0043272097,-0.0021942277,-0.0025496131,-0.033510752,0.0064784503,-0.026027754,-0.018678125,0.0149704395,-0.022789894,-0.0021982288,0.021066012,-0.0062738587,-0.020109268,-0.02124611,-0.013409983,0.01530421,-0.019462863,-0.011407952,-0.015922917,-0.024908802,0.01267026,-0.02065672,0.03220212,0.035056632,0.015748804,-0.0031319086,-0.0032415949,-0.0005284327,-0.018004917,-0.002826065,-0.01597611,0.012154654,0.01421298,-0.01800348,0.008484638,0.024864843,-0.029372118,0.019350773,-0.022169856,0.0025008002,-0.006067565,-0.035296608,-0.0041230964,0.0042211926,-0.00880703,0.027142933,0.022306187,0.00060948933,-0.00016917694,0.009031817,0.0032436661,0.020053968,0.005780498,0.02354906,0.02130577,-0.008598771,0.0056705386,-0.00029277563,0.019380119,-0.030119458,0.017863374,-0.015559894,-0.04202788,0.01832731,-0.031228324,-0.015431875,-0.03992367,0.010032694,0.021899953,0.016744992,-0.023567064,0.031588014,-0.030742884,0.019597407,0.021640325,0.0048902687,-0.01594879,-0.01810813,0.029037002,-0.025619116,-0.0026510544,0.018772084,-0.0075185588,-0.016131025,-0.02763788,0.007016336,-0.005358925,-0.036633622,-0.03579315,-0.004722084,0.021578489,0.011137999,-0.0035364593,-0.0073389625,-0.036148205,0.010444398,-0.0094492715,0.015280915,-0.0029289983,0.020709163,-0.0035969315,-0.025558736,-0.011150925,0.007738858,-0.027257103,0.01243588,0.023189917,0.011797365,-0.019341057,-0.022708967,0.028070506,0.034849815,0.009712276,-0.01676052,-0.014387002,-0.028549992,-0.00075348926,0.023051927,-0.0065377336,0.008562809,0.0002505268,0.032118905,-0.0018881669,0.018320384,0.025971875,0.0070242896,0.024090545,0.01888303,0.029713117,-0.028666716,-0.024153426,-0.01877075,-0.02221778,-0.016792048
-0.02994956,0.017836887,0.014718488,0.008245494,0.031825732,-0.027507609,-0.008306593,-0.023539433,0.021203991,0.013663951,-0.015057756,-0.007991105,-0.024929643,0.016515916,0.022648497,0.01742261,0.029935967,-0.024761487,-0.034241993,-0.033928953,-0.013295008,0.011148352,0.030849632,0.0029917993,-0.018812692,-0.013813717,0.026185121,-0.017747391,0.0029416792,-0.015097393,-0.0010952242,0.010053441,-0.0072425967,-0.026258787,0.035122346,-0.01915141,0.00062985753,-0.0055801193,0.012789526,-0.006090239,-0.02731743,-0.021102795,0.0066906484,0.002752845,-0.0287256,0.00965161,0.01355516,-0.031477287,0.02260523,0.033857018,0.03111701,-0.008465298,-0.0075492784,0.008109886,0.013997756,0.029008474,-0.03481164,-0.0020663142,-0.0123596275,0.029392246,0.028916823,-0.008859328,-0.001914065,-0.004048137,0.018689234,0.023082698,-0.028475778,0.024173634,-0.014089189,-0.0139938835,-0.017778628,0.029339306,0.013840281,-0.032113705,-0.007103708,0.0060109356,-0.023359472,-0.014318199,0.028751446,-0.0070521957,0.0096010985,-0.01653814,-0.008928934,-0.03295504,0.0039951466,0.018589824,0.010818202,-0.032132614,-0.028928414,0.0018879173,0.028641691,0.0006873409,-0.0034381135,-0.009134627,0.01402391,-0.009053407,0.020671628,0.0019053919,-0.013951529,0.035901416,0.014752686,0.028932022,0.0023238393,0.010114386,-0.0014557566,-0.011046742,0.019720871,0.022951482,-0.02035392,-0.0084740585,0.0012293458,-0.03432376,0.008861408,-0.019034421,-0.004842106,-0.018915072,0.01375269,-0.0009287207,0.020906687,-0.023305561,0.020651206,-0.0061679254,-0.0044932687,0.028390199,0.032678884,0.02820471,0.023764905,0.015683388,0.03058102,-0.03567604,0.013049085,0.015660906,0.015926125,0.015273383,-0.02194686,0.011654348,0.033264462,0.008987635,0.02765818,-0.027897758,0.025230393,-0.007491393,-0.019997757,-4.7501206e-05,-0.0011288049,0.021890039,-0.032926906,0.010347665,-0.03530014,0.031403523,-0.016010959,0.02017704,-0.015241648,-0.018037869,0.021727681,-0.033217724,-0.012119676,0.03290138,0.019792741,0.019714728,-0.00043764667,-0.0053595835,-0.031700917,-0.024766048,0.02104119,-0.009382531,0.008814783,-0.020305613,-0.0070796907,-0.010051918,-0.022998786,-0.0014343231,-0.005940302,0.017234685,-0.009848473,0.001217201,-0.030724345,-0.0020414144,0.015471276,0.026334887,-0.03207948,-0.003702333,0.015408396,-0.02898112,-0.03130775,0.027811917,-0.020622035,-0.007951982,-0.016977113,-0.009731554,-0.013854013,-0.014105151,0.006385475,-0.0033114355,-0.01949326,-0.009126227,-0.03372254,0.023150187,0.026419442,0.032128982,0.0134526845,-0.002048992,0.015121394,-0.008427237,-0.038253352,-0.027826464,0.033212963,-0.013071712,-0.024408938,0.0029476772,-0.008531713,0.0011647285,-0.010569861,-0.014736319,0.001891778,0.030963162,0.017791837,-0.03356491,-0.0051094363,-0.019462582,-0.011108858,0.018800227,0.014720399,0.005690296,0.021236058,-0.0025106026,0.02106785,-0.030014778,0.011909242,-0.037222624,0.0023421675,0.0039268606,-0.0001776991,0.033066228,0.034016732,0.019657306,-0.011584659,-0.010888328,0.006984451,-0.0038927796,0.008742636,-0.0056914324,0.006101563,-0.037144277,-0.03041302,-0.026623458,0.016767541,0.01566506,0.01942034,0.024138024,-0.014338375,-0.035222434,0.00986216,0.02562457,-0.010395027,-0.0053756004,-0.00074551115,-0.024867717,-0.027675025,-0.016075933,0.021371368,0.00633584,0.014294302,-0.021653352,0.0059327227,0.010365213,-0.0043010283,0.03187335,-0.03874346,-0.018572712,-0.011958116,-0.0025618577,-0.03379559,-0.028628152,-0.009050761,0.028220674,0.024366574,-0.03285147,0.029948728,0.011800439,-0.0029947124,0.032541413,-0.017213251,-0.0038835923,-0.016583644,-0.015148955,0.00033243877,0.01132851,0.041052196,0.00899928,-0.013613462,0.0248892,-0.01866684,-0.010753194,-0.012089718,0.029375108,-0.0061583207,0.0019181556,0.005170474,0.028791212,0.021135582,-0.024140198,-0.017770164,-0.021774905,0.024242999,-0.030099394,0.012430897,0.024915861,0.0025792096,0.027390152,-0.021590402,-0.01621821,0.011336953,-0.013161892,0.03275508,0.010338844,0.01399674,-0.015441411,0.00642143,-0.001437179,-0.033254996,-0.0017775024,0.011206777,-0.014925702,-0.00411573,-0.016101534,-0.019590952,0.03340866,-0.0036569654,0.037632752,0.026499802,0.0052411463,0.031479146,0.004674899,0.005245424,-0.0050168694,-0.019593665,-0.028814085,-0.0006821272,-0.0007088717,-0.03203117,-0.024099642,-0.007909665,-0.032412115,-0.025573615,-0.011817743,0.033272043,-0.0039068875,0.008530995,0.0032124887,0.032918926,0.013298073,0.0071735466,0.0012468384,-0.0032515756,-0.00972376,0.01235516,0.018710071,-0.018968249,0.001503271,0.03216891,0.027917448,0.0011793058,0.014064736,-0.020952266,-0.032855123,0.0023731529,0.0036889403,-0.031014107,0.012660414,0.018069997,0.004044373,0.01071281,0.012870719,-0.024957826,0.0055150115,0.021138972,-0.0071372287,-0.005062603,0.023114946,-0.002209268,-0.013195661,-0.0320589,0.031018445,-0.02337166,0.01496159,0.0048583616,-0.01669403,0.030238118,0.005357665,-0.0070347455,-0.0048618317,-0.013792485,-0.0014915256,0.013873747,-0.034693126,0.01897831,0.008923578,-0.015929434,-0.0061151106,-0.015838189,-0.007254957,0.013530739,0.004700064,0.030769244,0.0172753,-0.001992953,0.00539887,-0.007692298,0.032631163,-0.021383239,0.007978685,-0.0003425,0.01787925,-0.011255099,0.0036824232,0.009715546,0.030569322,0.0015808988,-0.0061011584,-0.01445663,0.03039135,0.002984389,0.031757087,-0.01435712,-0.036038943,0.023196349,0.0068242373,-0.025422528,0.021122064,-0.011875357,0.013036897,0.010063847,0.0097271735,0.040538836,-0.030660361,-0.0036182418,0.011208381,0.009145341,-0.027722891,0.024023864,-0.015558035,-0.025150772,0.020280369,-0.0094303675,0.012890609,0.021292964,-0.0154768005,-0.03265645,0.0038958273,0.026294213,-0.022279717,-0.015261558,-0.017656192,0.019530455,-0.028922742,0.009102241,-0.00482065,0.01613921,0.026890518,0.013220193,-0.004087091,0.019847853,-0.011722285,-0.021679945,0.016564237,0.008449695,0.023204155,-0.031944852,0.027486723,0.018564712,-0.003518551,0.026942367,0.0015037439,0.0037546298,0.008532886,0.026136037,-0.027448554,0.0044342345,0.02064875,0.026253607,-0.033316895,-0.006185154,-0.020622589,0.0035018548,-0.024680685,-0.00015254047,0.0013601367,-0.023427844,0.024196696,-0.009477955,0.0021457933,0.019299133,-0.021570105,-0.017353632,0.023296572,0.027924733,-0.0001530154,0.03767704,0.028478097,0.040626984,0.033965543,-0.03387618,-0.03118783,0.028550314,-0.0022260046,-0.034211732,0.011287278,-0.022084143,-0.0055570686,9.372894e-05,0.0017976365,-0.028900404,0.03545377,0.036549013,0.015223163,0.007738931,-0.0051200935,0.038996294,-0.004871633,0.022135122,-0.031156773,0.0021715078,0.034734495,0.03400923,-0.027981592,-0.002777778,0.037850454,0.02785531,-0.0097924555,-0.023764536,0.03033318,-0.035049208,-0.031663224,0.01121146,-0.012643153,0.016185459,0.030370567,0.031379193,-0.030296002,-0.021638297,-0.010671473,-0.013132196,-0.022747621,-0.007894635,0.0047756177,-0.0011817161,0.0377432,-0.029944729,-0.016585248,-0.01357458,0.0033965628,0.03386335,-0.020317717,0.004103824,0.030400766,0.0080082305,0.034841195,0.02838601,-0.019609872,-0.022190034,-0.033948973,-0.008251886,-4.5996352e-05,-0.028203331,-0.003915476,-0.0243285,-0.026411861,-0.024564823,0.005739768,-0.013972144,0.018757142,-0.014774352,0.04446654,0.021705009,-0.0030492947,0.010338519,0.030031528,0.025464797,0.005870665,-0.0030796162,0.012971401,-0.0023856622,0.029000862,-0.025405634,0.00894011,0.019592188,0.004128188,0.007924655,0.0061853537,0.0321558,0.03441572,0.0027468211,0.028702585,0.0057040243,-0.025178237,0.0044604493,-0.028334271,-0.021368869,-0.026811233,-0.0016807523,0.03551489,0.027804554,-0.031016624,-0.0137386145,0.015612904,-0.01457624,-0.024904942,-0.024099827,0.01843873,0.022667766,-0.015424098,-0.024158817,0.021309614,-0.027136078,-0.033435,-0.01616454,0.0011959875,-0.009117998,-0.0063208025,-0.006565038,0.013181018,0.034444153,0.030615008,-0.0066133016,-0.02184668,0.013154234,0.010018733,0.004379862,-0.012813021,-0.03750759,0.006888042,-0.038137894,0.014697013,-0.025088262,0.008415384,-0.012037839,-0.0032612043,0.034253296,0.022078538,-0.016165935,-0.02547836,0.010113447,-0.00058922794,0.0065042377,0.012877848,0.024597922,-0.034030594,-0.020188201,-0.029218122,0.008383134,0.029866742,-0.0023748053,0.0006937604,-0.033850294,0.0018265076,-0.008488405,0.02520408,-0.022515906,0.031975806,-0.0055791694,-0.014259489,-0.0037036308,-0.033027012,0.012980512,-0.017644536,0.024056602,-0.01133435,-0.018696003,0.006213088,0.008904263,-0.024204668,-0.01355046,-0.006807957,-0.0109621985,-0.005015844,0.025563303,-0.011003504,-0.011987742,-0.020113327,-0.0010938316,0.017153988,-0.036067937,-0.026955254,-0.03128195,-0.035503265,-0.02600551,-0.0026479438,0.026172057,-0.0136635415,0.021680929,-0.03088272,-0.009796184,0.017623544,-0.032837052,-0.032763325,0.024810681,-0.027871216,-0.0017788366,-0.020753145,-0.03153559,-0.006523583,0.019804968,-0.027483154,0.0037301015,-0.033318225,-0.008444135,-0.015586381,-0.0056595365,-0.028759787,0.024351358,-0.006775542,-0.0011726986,-0.02002862,-0.021868547,-0.011877517,0.028748788,-0.020939069,-0.0006003368,0.014064503,-0.009405817,0.0013264994,0.012570265,-0.024229025,-0.022385258,-0.03542411,-0.019661505,0.004874993,0.031037,-0.0055803284,0.02598086,-0.024576485,-0.025533566,0.004786449,0.0064187134,-0.022011748,-0.011893497,0.018830558,-0.02663852,-0.017524796,-0.0007785476,-0.02914567,-0.032819357,-0.0007234073,-0.020747669,0.00037650196,0.00990824,-0.0046381406,-0.027490065,0.014922143,-0.025010668,-0.0022369947,0.0029517876,0.007209692,-0.0020397194,0.020918984,-0.015662938,-0.024880648,0.006928891,-0.0011011995,0.009418521,0.0049515935,0.011565681,0.009587829,0.012292537,-0.025013646,0.025839873,0.017497787,-0.009709822,-0.030727586,0.021136835,-0.011818108,-0.022469232,0.0063596237,0.009227166,-0.015466495,0.027395273,0.030588198,0.027956048,0.016198372,-0.028672718,0.03487331,0.008889355,-0.011040326
0.0071106106,-0.032450017,0.011059161,-0.01623745,-0.01731882,-0.025715688,-0.018224338,0.023089644,-0.007968495,-0.0114970505,0.032126132,0.013196275,-0.013952669,0.013989973,0.013489225,-0.026366496,-0.0022880398,0.015740804,-0.020869847,-0.016839705,-0.03555716,-0.03334384,0.032376323,-0.02024357,0.03535768,0.008190148,0.028447371,0.010772426,-0.007993009,0.0058827326,-0.0033740588,-0.020391643,0.032732338,-0.023159085,-0.011691968,0.0008479371,-0.031586736,-0.014267617,-0.0053728907,-0.027612811,-0.014820385,-0.035326783,-0.020206358,-0.016255353,0.017397605,-0.033133797,0.034029387,-0.01816699,0.022165606,-0.009260522,0.0012693558,0.0034317095,0.02251171,0.03356966,-0.009132288,-0.021437813,-0.014705813,0.01942107,-0.01998124,0.030489262,0.022905773,0.02629323,-0.004720628,-0.028193241,0.0074034533,-0.010894883,-0.019803677,0.0063894955,0.023189666,0.024505703,0.017739136,-0.03628437,0.020652624,-0.014905381,-0.004973286,0.021981176,-0.01552114,-0.037187733,0.0128968265,0.0020392567,-0.015294182,0.0018492988,-0.032783072,0.002600845,-0.024828274,0.008960955,-0.004984753,0.013961156,0.0020961275,0.02015833,-0.004570574,-0.03382009,0.007447651,0.009006237,-0.0035645077,0.006313716,-0.047381684,0.009716176,-0.04018872,-0.038090896,0.004068351,0.007538384,-0.014793382,0.018985195,0.02774775,-0.0028208545,0.003507974,-0.030637015,0.035070654,-0.016060997,0.0052450113,-0.019490898,-0.024064347,0.008127663,-0.030093975,0.001982941,-0.026309768,-0.032595396,-0.0037826758,-0.00068503304,-0.035912517,-0.03809831,0.014692003,-0.03314474,0.019810747,-0.0402287,-0.031447124,0.021557715,0.005309459,-0.027801381,0.019146832,-0.028570538,-0.021322133,-0.0075494302,-0.01950073,0.03761405,-0.0070119672,-0.019234542,0.012756072,-0.02417767,-0.0105423,-0.032301363,0.018370574,0.029143684,-0.024367105,-0.030696433,0.0004199315,0.029858226,-0.02634669,0.046367753,0.026161626,-0.007997704,0.018799867,0.026282009,-0.016373524,0.00917409,-0.0011641582,-0.00041162805,-0.010405625,-0.025450582,0.0075670686,0.018060662,0.012196085,0.03014304,0.03343744,0.026096338,-0.026312772,0.0046518147,0.035426024,-0.012133746,-0.004499623,0.00095242815,0.0010764344,-0.024179548,0.0127158705,0.034480367,0.014302662,0.00468097,0.041381266,0.057382,0.030786587,0.052259445,-0.014096923,-0.023970373,0.01900881,-0.005885251,-0.00089850486,0.033891074,0.018661674,0.025956249,0.040612675,0.052018512,0.04614811,0.015905676,0.01984817,0.0034401552,-0.006316212,0.009390916,0.013068789,-0.012078967,-0.0008034879,-0.0125231445,0.04594192,-0.0036104005,0.031525638,0.03197383,0.035227474,0.053737942,-0.010314574,0.024575526,-0.03642747,0.014126171,-0.01386845,0.0482002,0.043444615,0.00070252694,0.037576005,0.036165997,0.030450787,0.06636599,0.061029237,-0.00073664275,0.03266222,-0.0011008253,-0.025538651,0.01983163,0.010277584,0.021951253,0.015927766,-0.02831567,0.013518853,0.0020505288,0.0031043573,0.017212618,0.023701563,-0.019521266,-0.041813344,-0.03440848,0.00019453412,-0.05053912,0.006226364,0.035107974,0.06257613,0.05050763,0.022466589,0.04284198,0.03716104,0.038676623,0.033585,0.0059214006,0.036353253,-0.021690916,-0.0029591476,0.029248942,0.028233843,0.009929852,0.0007121381,0.018050782,0.032119773,-0.026843127,0.03132938,0.011277058,-0.031207643,0.00010433115,-0.0029064033,-0.013942913,-0.02796709,-0.0037859327,-0.011600438,0.014949377,0.07365268,0.012132254,0.045293853,0.05908314,0.021083264,0.056276068,0.046453845,0.032482803,-0.0013241312,0.010562152,0.029026173,-0.03193908,-0.015398058,-0.021577967,0.0041191964,0.015292715,0.036213648,0.0044012563,0.021217719,-0.03424753,0.0012024521,-0.003822305,-0.010489369,0.004962932,-0.03828768,0.012004493,0.029199997,0.059328873,0.047213823,0.027217675,0.0131008895,0.027324041,0.005572775,-0.0070385993,0.006224365,-0.0076114354,-0.0034384155,-0.029872261,-0.022758063,-0.009172548,0.014906342,-0.012885372,-0.01818812,-0.01544354,0.0017487742,0.02679601,0.017174013,0.02332024,-0.0038143927,0.027245449,0.029020373,0.026338588,-0.049389344,-0.010933015,0.046620116,0.053099018,-0.002248893,-0.030989759,0.015664455,-0.04235288,-0.03221841,-0.042270783,0.008204826,-0.030989,-0.025625419,-0.0213081,-0.0056427508,-0.009940325,0.014200017,0.02454477,0.013917691,0.010688265,0.024878453,0.02776888,-0.004051194,0.037404988,0.03148617,0.044141892,0.045831934,-0.0018802647,0.020264585,0.007531018,-0.012312451,0.004571124,0.025583357,0.023142418,-0.013893419,-0.033317298,-0.04162468,-0.016820516,-0.016088722,0.0042839856,-0.034529552,-0.034629077,-0.022749502,-0.03416918,0.029084502,0.017828781,-0.013508597,0.05032035,0.00091870513,0.05170431,0.01730779,0.0054051387,0.07842598,0.050929368,0.061518252,-0.0151842,-0.017413815,-0.024305407,0.024549326,0.024286812,0.0458732,0.013869076,-0.03090883,0.01206989,-0.000465497,-0.047112796,-0.022419995,0.024921972,0.032319393,-0.031190097,0.01978248,0.009390944,0.031398278,-0.032533206,0.040648125,-0.010331079,0.04798926,0.029162522,0.063168146,0.06472638,0.035604183,0.011644285,0.05448265,0.043571375,0.035593417,-0.009330332,0.010633701,0.013035688,0.067761235,0.042377997,-0.02268276,0.026756676,-0.021529643,0.0038333521,-0.045349304,0.013201643,0.0025236774,0.01722324,0.030100422,-0.025917653,-0.026916899,-0.02685112,-0.020892415,0.016031334,0.011318671,0.04284812,0.046372533,0.06319146,0.028024383,0.04548033,0.04959344,0.024009654,-0.012474704,0.040255174,0.07693163,0.067438625,0.06386545,0.018199122,0.014198746,-0.025707997,0.01996842,-0.014448152,-0.0058533344,0.0073727663,-0.00719926,-0.010465149,0.0110733155,0.008494879,-0.0019140268,-0.012144201,-0.011064321,-0.02364604,0.015194189,-0.014610273,-0.022281008,0.0037900454,-0.02211265,0.030796722,0.05501336,-0.003809548,-0.013470876,0.037915777,0.046800092,0.0767388,0.045188367,0.006230826,0.047354214,0.0040536043,-0.017659945,0.0049020513,-0.021767184,0.0015710593,0.017118862,0.027845688,-0.015244562,0.015126685,0.008644644,0.00762784,-0.02966225,0.038691532,-0.0015830246,0.018239347,0.021357201,-0.016402993,-0.068079844,-0.04729185,0.009738147,-0.017097041,0.042238757,0.023067996,0.027774902,0.06369854,0.035305288,-0.017552866,0.04702901,-0.018316993,0.019760435,0.026154863,-0.03870739,0.017780446,0.031866793,-0.03570464,-0.027593672,0.0027048523,0.03290951,0.016836321,-0.028437406,-0.01628281,0.046066172,0.022208227,-0.035083834,-0.015875498,-0.055510473,-0.06646123,-0.04932335,-0.013652505,0.039011095,0.03114089,0.054628693,-0.007295838,0.003481316,-0.015959792,-0.0028440275,-0.002897974,-0.0008700503,-0.026816094,-0.008623714,0.020944,-0.012670433,-0.0013402951,0.025069254,0.01136869,-0.028836505,0.0048817955,0.030724902,0.02072585,0.02090201,-0.00024549218,-0.02807985,-0.058340553,-0.015641013,-0.009016677,-0.02562357,-0.031048886,0.0007913763,0.028581513,0.0021295992,0.02183572,-0.0191652,-0.01209005,0.019054633,-0.014294072,0.013514349,-0.008115165,0.014725047,-0.019600106,-0.0073985364,0.021040026,-0.033530526,0.005340643,-0.027174665,0.017768528,0.037641276,-0.008771312,0.012751607,0.040412705,0.014899917,-0.025124287,-0.038043693,-0.026489165,0.015357076,-0.045271244,0.01820116,-0.02765899,-0.020352198,0.038077235,-0.024879975,0.039373327,0.027667606,-0.028810097,-0.014699504,0.016867341,-0.02392729,-0.017843226,0.009192559,-0.024974184,0.035423536,-0.030132528,-0.025848474,-0.025861884,0.017539766,-0.018950602,-0.024770264,0.0072752736,0.025581071,-0.019016728,-0.0044707614,-0.04417575,-0.0054402603,-0.0020987105,-0.040995207,-0.027265552,-0.031745058,0.03143296,0.008820406,0.033479773,0.018866641,0.040572688,-0.013358289,0.0033478364,-0.0009921896,-0.031286895,-0.0075829593,0.030019974,-0.009665228,-0.018589616,0.02479276,-0.016198594,0.033835594,-0.019743156,0.0150528615,-0.035776455,-0.036096904,-0.0021865792,0.020484533,0.009939942,-0.00027686186,0.01852436,-0.024282217,0.041567788,-0.0063173496,-0.0019400088,0.0061783595,0.014043056,0.018225327,-0.012276021,-0.016294282,-0.016590903,-0.0073569305,-0.014610459,-0.011088433,-0.010057031,-0.018409794,-0.0062658917,-0.0062494813,-0.016227279,0.036772046,0.012145177,-0.03777969,0.03151734,-0.021328572,-0.019938508,0.016244212,-0.0043789977,-0.024630228,0.03847322,0.020412983,0.009826903,0.009132705,0.011648143,0.00095503294,-0.009443009,0.022482898,0.031596493,0.00305426,-0.0030443708,-0.01846797,0.00024326264,-0.01090008,-0.008420732,0.018244222,-0.012284109,0.013023272,0.030579498,0.02582604,-0.0025661248,0.032056257,0.013389017,0.042325053,-0.008192525,-0.003992831,0.004828414,0.0026246079,0.051490586,0.0037329497,0.03838568,-0.011497736,-0.023710016,0.025906896,0.027285796,0.0082637,0.009888836,0.033761784,0.026563678,0.006616592,-0.0032324404,-0.01593922,0.019971125,0.014782365,-0.023712471,0.0015424357,0.011727951,0.035162784,-0.024404788,-0.016246878,0.005522233,0.03858531,-0.02101303,-0.0044466904,0.014323501,-0.01270242,0.018015457,0.013886512,-0.012541277,-0.012097886,-0.007703827,0.03105634,-0.018998008,0.023983512,0.019487394,-0.011090136,0.00021902697,-0.032926943,0.01964127,-0.008061135,-0.03064174,0.019412361,-0.025486942,-0.022720912,0.008483363,-0.020996626,-0.01101154,0.002500002,-0.025153289,-0.029138839,0.013390902,0.012295544,-3.481165e-06,0.031172864,-0.03282888,-0.03227771,-0.019342307,0.00022271884,-0.023459267,-0.0028876988,0.02613045,0.019335356,0.02720521,-0.013467704,-0.020972623,0.020777177,-0.003716348,-0.031185415,-0.010492798,0.023222584,-0.0064328276,-0.025465745,0.029575672,0.008695192,-0.010051383,-0.031662855,-0.017216979,-0.03565771,-0.014514211,0.019846806,-0.009983929,-4.6105804e-05,-0.03190789,-0.032087594,-0.02750048,0.024375018,0.0016686957,-0.02400599,-0.0069188396,0.02167089,0.004136733,0.018322052,0.022498168,-0.021762602,0.016095866,0.0024979524,0.008940183
-0.021640979,0.029324386,0.013233114,-0.019905755,-0.033338923,-0.003652867,-0.01195341,-0.0018322282,-0.0146416,0.013868235,-0.028799566,-0.030449456,0.029186122,0.029537216,0.032307226,-0.020393467,0.00035068765,0.021703746,-0.00087929517,0.02874032,-0.030521765,-0.018077297,-0.005299948,-0.03216514,-0.011093693,0.030444447,0.0060320757,0.03291062,0.031977262,0.012622211,0.025052685,-0.020434428,0.02134237,0.018133316,0.0037775105,-0.016396224,0.020717096,0.029660141,-0.017724229,-0.029553168,-0.022257356,-0.027371427,-0.0321571,0.030709319,-0.008682497,-0.024133977,0.016266229,-0.011713117,-0.013641947,-0.024502242,-0.033102483,-0.021178741,-0.0117792785,-0.01458817,0.0065113343,0.019213218,0.006697111,-0.029149568,-0.028326416,0.0020059233,0.023738505,-0.0030090327,0.026341125,0.0010842944,-0.033374336,-0.027348135,-0.0344455,-0.024401408,0.028071674,0.007637029,0.0025922046,0.002347548,-0.005362609,-0.020457769,0.016379789,-0.030397095,0.002685251,-0.031794854,-0.008602164,0.019570649,-0.00033361942,0.012576881,0.03038675,-0.026479578,-0.015432473,0.027146224,-0.020815875,0.028024904,-0.027390653,-0.0018188544,-0.007878463,-0.009259895,-0.018102946,-0.026375478,-0.0034391885,-0.006009304,0.0031591975,-0.027580917,0.014690329,-0.014558264,0.01856744,0.014657751,-0.025314773,-0.033404887,0.03170395,0.010164008,-0.027276944,-0.027376397,0.021481346,0.028745802,0.0069783097,0.023470908,-0.01836067,-0.011844981,-0.006086051,-0.012411937,-0.02387408,0.0009787732,0.012227555,-0.013101633,-0.037364777,0.006042342,-0.013647536,0.014655467,0.012645215,-0.029001074,-0.007687211,0.008496958,0.024937818,0.020740766,-0.0008770744,0.028801974,-0.03202053,0.010341028,0.010722255,0.02644442,-0.009607657,0.010193568,0.0035705988,-0.009147262,0.01338527,0.012798272,0.024602873,-0.035623398,0.017917559,-0.03316777,-0.003962328,-0.010326281,0.023915004,-0.026887292,0.032607768,0.021658646,-0.0031239025,0.030383244,0.014315836,-0.028883556,0.00023733945,0.007070882,0.037727218,0.0006949953,0.015354687,0.031735856,0.016962105,0.024221746,-0.00809464,0.009412305,0.0074672448,-0.003759124,-0.02495719,0.012329812,0.023472141,-0.030564522,0.025080996,0.0073662247,-0.023568818,-0.030658353,-0.026867945,0.03790748,-0.021250697,0.03263396,0.032516785,0.01707285,0.03189442,0.063205495,0.047391407,0.0047437004,0.028342962,0.012423195,0.013633349,0.0077955686,0.0277338,0.016213102,-0.016397517,-0.000923478,0.014003052,-0.027669221,0.025996119,-0.012194802,0.031856406,0.0039807996,-0.041900262,-0.021387747,-0.042047553,-0.022925312,0.017964488,0.039075002,0.0070566805,0.0020597877,0.055768453,0.06951752,0.05538495,0.078077935,0.07325124,0.05071079,0.0094608925,0.025859104,-0.0072393473,0.015135156,-0.03198793,-0.00095682335,0.03538667,0.014845171,0.036461767,-0.020490916,0.0065184613,-0.00079990336,0.0140469745,-0.0021509621,-0.03310959,-0.03739693,0.010862297,0.02648614,-0.022358606,0.0132896835,0.0068528345,0.03359459,0.004579538,0.021978293,0.014590411,0.022779118,-0.006756864,-0.019439958,0.033383876,-0.003270069,-0.036295924,-0.0022777582,-0.027639532,0.026330294,-0.0064168717,-0.019452387,0.031405486,0.019147478,-0.022818165,-0.035530746,-0.036939975,-0.011459128,0.019528719,0.0024638937,-0.0037100008,-0.006793408,0.0362847,-0.023287937,0.040603522,-0.0280006,0.0029073968,-0.027925832,-0.040863737,-0.031849932,-0.04784629,-0.03429735,-0.0305315,-0.029682696,-0.03659935,-0.02776487,0.025478981,-0.023603892,-0.009539062,-0.008477431,0.017668955,0.0012483955,0.03243758,0.016765542,0.009661791,-0.024681741,-0.035668142,-0.0032705127,-0.013407515,-0.021617161,-0.0231693,0.04762213,0.011987799,0.03405831,-0.0012335525,-0.021242164,-0.05439203,-0.025138006,-0.0029156727,0.006338533,-0.03125419,-0.010505452,0.033145543,0.030317612,-0.020416504,0.021658432,0.034958296,0.010659724,0.025170796,0.009373531,0.033906013,-0.011925484,0.014721513,-0.012182371,-0.013873266,0.010391423,0.025100648,0.03349598,0.013180978,0.007460298,0.03153879,-0.020386437,-0.0121885855,-0.040625323,-0.004974025,-0.021399036,-0.011571118,-0.007576879,0.046021692,0.02726705,-0.019074164,-0.005559939,0.024214007,0.03144903,0.03035636,0.024438422,0.005557066,-0.018273983,-0.017632496,0.02203648,-0.026367983,-0.007465539,0.02045599,0.03016205,0.05115519,0.018166818,0.036032915,-0.015551336,0.028104026,0.013575745,0.021274516,-0.020819815,0.0041801156,0.01394023,0.0119859,0.0055013485,0.04462439,0.03422848,-0.020145772,-0.030971572,0.036292095,0.0008632357,-0.02069727,-0.021121014,0.028083757,0.0069009946,-9.176734e-05,-0.0034081487,-0.0069889496,-0.0014284624,0.0101420395,0.027442532,0.011389909,0.06557145,0.044375945,0.003904235,-0.015443919,0.04070401,-0.0048737563,-0.022764642,-0.0018906445,0.0033610135,0.010366224,0.01606943,0.0032969278,0.010700143,0.029573804,0.0043596174,0.042771302,0.021993246,-0.005028742,-0.026921913,-0.015268305,0.0010630597,0.024881847,-0.03367463,-0.031374216,0.016789375,-0.00859553,-0.0009551435,0.030907813,0.009718887,0.018436536,-0.00915284,0.029601406,0.017564503,0.033040337,-0.012599597,0.010179001,-0.008930091,0.020456035,0.049421694,0.04982204,-0.030744528,0.02844009,-0.024487445,-0.0035579216,0.037523016,0.007972778,-0.022128195,-0.01235162,0.0076080277,-0.030949444,0.021853065,0.020503195,-0.029496985,-0.0260242,-0.000532826,0.035491098,-0.007993169,0.035565406,0.05165204,0.0019489636,0.022443691,0.04717321,-0.023649165,0.013797031,-0.024508927,-0.024391465,0.04203688,0.021648072,0.030771906,-0.00882317,0.018170597,-0.020800972,-0.029037254,-0.004136769,0.014338357,-0.012566847,0.025168044,-0.016581403,-0.0140263755,-0.0060702334,0.01678293,0.002353412,-0.00024851726,0.01888788,0.027130233,0.034724154,0.02274034,-0.002872651,0.00517361,-0.0054144617,-0.039462596,-0.030738777,0.00024611974,-0.019223731,-0.013093289,0.025731158,-0.02862801,0.03500884,-0.0328729,-0.030094061,0.029017668,-0.011699132,-0.01841364,-0.0326574,-0.03382098,0.016919453,-0.021015635,-0.0035420468,-0.005230148,0.0058762957,0.006183548,0.020113828,-0.023390623,-0.0022529406,-0.019148353,0.032302298,-0.004170312,0.031752024,-0.020808835,-0.064686745,-0.018001521,0.0090866,0.027262654,0.040324874,-0.020158784,0.010241236,-0.0001857721,-0.020366214,-0.004267156,-0.032737702,-0.028891372,0.01983313,0.025502851,-0.022188405,-0.033451024,0.019374361,-0.022795625,-0.017591272,-0.023904808,-0.014712739,-0.01012729,-0.022148257,0.003358653,0.038651228,-0.024155365,-0.026820958,-0.024056805,-0.024876315,0.007868437,-0.013579019,-0.02207814,-0.008923525,0.020704001,-0.0033231622,0.017330602,-0.031786382,0.0049276054,-0.03942068,-0.010594745,-0.022982698,0.03247368,0.035633236,0.03080452,-0.0032783814,0.014331146,-0.041476723,-0.013653926,-0.0058562807,-0.03178264,0.009484729,-0.022807896,0.027836123,-0.043115985,-0.0070325024,-0.06305952,-0.048553113,0.020181479,-0.02320936,0.00868182,-0.009573214,-0.012565266,0.014392146,-0.002123373,-0.039756145,0.026205491,0.026565487,-0.03807182,-0.014923074,-0.03457479,0.02632349,0.0075265868,0.018108739,-0.015901767,0.02792867,-0.03583806,0.025699563,-0.014067799,-0.0006559228,0.0073106065,-0.021319525,-0.042672075,0.011622728,0.011484655,-0.013105046,-0.025914488,0.019101119,0.033566646,-0.030477667,0.014379236,0.0326777,-0.018123481,-0.037428033,0.02002186,0.020367967,-0.0055101053,0.01581956,0.027867349,0.031242264,0.011959398,0.030894043,-0.026285086,-0.018583052,0.0031485069,-0.0015556816,-0.008674382,0.0060022487,-0.024817154,0.00039673576,0.010177622,0.014300716,-0.028760463,-0.027960151,-0.018335482,-0.004375704,0.01475246,-0.0025468876,0.028573435,0.026110902,-0.030172177,-0.0024446328,0.014867101,-0.009551247,-0.026491642,0.028392827,-0.028624738,0.011134734,-0.0020644418,-0.0022623767,0.013684833,-0.039248087,-0.020927241,-0.004722671,-0.022830805,-0.01819334,0.024933048,-0.02585667,0.023607042,0.013836372,0.04523007,0.038363773,0.042557567,0.031010857,-0.0019969228,0.025746427,0.036180396,-0.006159816,0.009987527,0.012457896,0.016938126,-0.014998634,-0.001798807,-0.0132923685,-0.02186143,0.029074643,0.03556264,0.00861116,0.009749332,0.010189743,0.0033020664,0.02235924,-0.030856634,0.021703882,0.041325193,-0.014548357,0.04001749,0.0030561222,0.0359992,0.00043527014,0.0048522158,-0.008056736,0.0042556906,-0.020855831,0.021930555,-0.023667866,0.02563407,0.024671476,0.011469814,0.014101161,-0.008791616,-0.02887952,-0.027580634,0.033965405,-0.013124293,-0.014910024,-0.029765861,-0.031835884,-0.0005803804,0.013490071,0.020547422,-0.013309025,0.043794245,0.032223877,-0.005179831,0.040208686,0.022600397,0.034478538,0.014926598,0.022308394,0.00069229625,-0.0059457393,0.046557665,0.0057806172,0.010670985,-0.029503338,0.0043424373,0.0006093836,0.02212026,-0.00022250488,-0.035251286,0.021581735,-0.0250604,-0.018063823,0.021967335,0.012795939,0.016889198,0.013618303,-0.012907379,-0.0075104265,0.018250192,0.04050344,-0.0128264865,0.036060583,0.024138626,-0.024750588,0.039985716,0.005590536,0.030033799,0.02528628,-0.015302941,0.038937412,-0.027332421,0.02819369,0.022853827,-0.023529988,-0.014273012,-0.024000566,0.0322608,-0.028279936,0.01469015,0.0153926015,-0.004997332,0.028925173,-0.01466687,-0.018132832,0.0253916,0.027560962,0.025838789,-0.028743014,-0.014386093,-0.017217465,-0.023833647,0.024205575,-0.0023528447,0.023180325,-0.011794867,0.002162765,0.033811364,-0.0044194823,0.0071071587,-0.011882209,0.028920846,-0.031021332,0.00040358532,-0.008946633,-0.031989645,0.010675821,-0.019994318,0.0024100207,0.019509245,0.021153534,0.035645258,0.028647559,0.022837449,-0.035528954,-0.009387058,-0.017954977,0.011633131,-0.030097654,0.009158086,-0.019221097,-0.003118863,-0.029795222,-0.00622573,0.010541885,-0.03412093,0.016923198,-0.0116200885,-0.018397575,0.009079591,0.025383677,-0.029717967,-0.009430116,-0.032524854
0.020948533,-0.03296867,0.0287827,0.0148081705,-0.03327482,0.0026953407,-0.025309525,-0.021695718,-0.013458308,-0.009573827,0.015900195,-0.010712475,-0.017149674,-0.029367313,-0.01626343,-0.02924512,-0.020806514,-0.013101773,0.0350161,0.012341328,0.019583616,0.011832584,5.474314e-05,0.020851064,0.011196196,-0.022132892,-0.018727405,0.034737345,-0.019491244,0.0022308119,0.0120531395,-0.009312792,-0.006772891,-0.014004363,-0.008184308,-0.003055107,-0.01117888,-0.02945232,-0.026964428,0.014884841,0.0007042038,0.024242794,0.027934525,0.035985004,-0.02586774,0.021739017,0.020742632,0.009220457,-0.00931749,-0.013537164,-0.02631344,0.018317353,0.0071793795,0.03006589,-0.014416641,-0.019064713,0.020842526,-0.011515116,-0.030804357,-0.0032843968,-0.011830425,0.021566143,-0.027407788,-0.01565684,0.035308607,-0.027927624,0.025912981,0.02109709,-0.025100349,-0.0101742195,-0.006052678,-0.020224858,-0.012623409,0.013291904,-0.033226345,-0.02818724,-0.034660522,0.024340004,-0.035454433,-0.0127120055,0.020711506,0.017023558,-0.025501648,0.025412068,-0.025151467,0.017083004,-0.03283149,-0.024185974,0.0209513,-0.005171679,0.015258303,0.033492096,-0.0029909376,0.010507504,-0.020443669,0.030889178,0.0296819,0.011067991,0.053559832,0.041225683,0.024131287,0.027300663,0.03298864,0.015520096,0.026271261,0.010574716,0.011112776,0.018789394,-0.008853328,0.017398905,-0.017544834,-0.034307644,0.023851547,0.01219814,0.02999162,0.004033757,-0.005101751,0.011092696,0.036460336,-0.018668152,0.0474676,-0.006601491,0.0153080085,0.059501156,0.020753713,0.030180687,0.06581007,0.045497324,-0.0025436794,-0.00044001732,0.029624483,0.02516297,0.02650506,-0.005592883,-0.048028946,-0.01523081,0.02202801,-0.01971175,-0.027349507,-0.007886334,-0.0023242421,-0.026582915,-0.0020921067,-0.024869666,-0.00087538484,0.008549442,0.01513629,0.039016802,0.048984855,0.036898136,0.04290893,0.004893825,0.031845,0.048570473,0.0056136106,0.008481715,0.013649088,-0.011006552,0.0036764706,0.028920714,-0.018723423,0.0014203263,-0.038813956,-0.0023856924,0.015854528,0.012055832,-0.024301482,-0.028751737,-0.034903515,0.0038757266,-0.01784108,-0.0028769812,-0.030628229,-0.00019022237,0.003999181,0.038771298,0.04315524,0.016252907,-3.533323e-05,0.042978916,-0.0051209377,0.009366298,0.023980623,0.057242215,0.0012007284,0.02284803,0.024128618,-0.02533578,0.014597285,0.006156485,-0.029341673,-0.058462024,-0.01847299,-0.033558372,0.0060053077,-0.0349461,0.015912995,0.034223013,0.004202588,0.033832196,0.032005448,0.017586274,-0.0139553975,-0.031713337,0.025309026,0.022222288,-0.022854917,-0.01731146,0.02765218,0.0065674377,0.04706596,0.011589783,0.0065813707,0.018408958,-0.013945566,-0.0141633,0.013655411,-0.041733224,-0.035331707,-0.0426808,-0.03186185,0.018649006,0.011468394,0.031004805,0.0075405017,-0.022646826,0.02809482,0.027448762,0.038186423,0.04000643,-0.017936828,0.013900502,-0.0023145513,-0.036748916,0.03486528,0.017409114,0.035023294,0.047029447,0.008038325,0.016809637,0.021150697,0.03491338,-0.012782879,0.014707967,0.001908054,-0.030123858,-0.02065709,0.0030309637,-0.024131835,0.019014524,-0.010698407,0.0054027024,-0.023137636,-0.029823897,0.010075502,-0.012186012,0.026684605,-0.023135899,0.01746823,-0.020735739,-0.041185472,-0.025310548,-0.02385719,-0.03475122,0.027167467,0.019210089,0.012328109,0.04369588,0.030772561,-0.026429892,-0.001807508,0.023616422,0.009681284,-0.010699921,0.01747567,0.0003944917,-0.02259661,-0.03123588,0.029044319,0.008530145,-0.022539895,-0.005114507,-0.001177704,-0.008967993,0.029504133,-0.031812683,0.0053684036,-0.004126304,-0.050221037,0.0020578292,-0.03652496,-0.024604497,-0.026192248,-0.0052420665,0.0035231016,-0.018879184,0.027179392,0.039069153,-0.019863682,0.038847834,0.0046163127,0.027199285,0.014454839,0.016940843,-0.019287808,-0.025523676,-0.01562855,-0.020538384,-0.035582915,0.0043447213,-0.014050233,0.013495469,0.0074104727,-0.039617784,-0.020495102,-0.02141087,-0.037086036,-0.007133179,-0.062741876,-0.03835005,-0.04060473,-0.024235845,-0.022493098,-0.0132628465,0.0036650596,-0.003631392,0.011246176,0.050466824,-0.0058257184,0.011216856,0.017734814,-0.029313764,0.03809089,0.005540528,-0.0030935328,-0.009913537,-0.01104774,0.030241873,0.0119335465,0.024283344,0.0067705293,-0.020419886,-0.013850507,0.00019525041,-0.014523962,0.006166923,-0.014804109,0.00044790877,0.013272253,0.008988039,0.04340466,-0.01059103,-0.025424112,0.020588165,0.02461232,0.047567464,0.04128592,0.044138744,0.0049045514,0.0188621,-0.0041991435,0.018705118,-0.004484701,-0.004868693,0.01376064,0.03132125,-0.004069399,0.01978874,0.004465018,-0.005541532,-0.04748456,-0.0256802,-0.028878001,-0.04078321,-0.0015033989,-0.0046791513,-0.029890068,0.024861189,0.038021144,0.0012040952,0.0038353475,0.020912109,0.0060778446,0.036981322,8.45705e-05,0.02892221,0.0051866,-0.002492686,-0.025105651,0.012953372,-0.023052968,-0.02646879,0.00052380835,-0.014377758,0.028097253,-0.031165622,2.1198035e-05,-0.015316102,-0.04249557,-0.042338494,-0.009996481,0.020653464,-0.014130757,-0.017360823,0.026572548,-0.000600088,-0.0046983734,-0.0048921397,-0.019114511,-0.021173026,0.016149454,0.020669999,0.03668445,0.01325548,0.014010071,0.006413939,-0.013539064,0.004526983,0.016767174,0.0064051375,-0.015268446,0.0040130042,-0.026648581,0.004618815,0.03043103,0.014656206,-0.019599162,0.006316814,0.013739418,0.0007168826,0.004250162,-0.0026438634,0.021931887,0.03538515,0.026224896,0.023070874,0.0019581956,-0.0010081341,-0.016251078,-0.018037712,-0.0070412937,-0.00060913636,-0.024961503,0.03900841,0.0061326125,0.000794683,0.036804065,0.033355046,0.0061254543,-0.010021771,-0.010209088,0.033943765,-0.006937015,0.011872182,-0.009100461,0.026438095,0.0242605,0.025668692,0.000121180165,0.016623562,-0.018117659,-0.005190218,0.0057212524,-0.017571298,-0.021543948,-0.017820945,-0.032754853,0.029101772,0.022360273,-0.02118222,0.008863934,-0.0069090836,-0.005215453,0.02149312,0.022423172,0.0112985615,0.016177919,-0.03401527,0.006542886,-0.003690878,-0.008964962,-0.02737648,-0.00075896725,0.005029765,-0.03163196,0.036751397,-0.015398696,0.017149433,0.01482661,0.013108471,-0.05396346,-0.03796935,-0.014124758,0.014171107,-0.009365149,0.029094018,0.010912967,-0.0049935365,0.027850285,0.030378932,0.0015561766,0.03834149,0.018882612,0.014607031,-0.005139564,0.00024132583,0.0041843452,-0.010606886,0.04036137,0.020450626,-0.035374563,0.022459257,-0.010849749,0.047865625,0.04942091,0.0120950565,0.031781107,-0.04158444,-0.0089700725,0.0100418,-0.01073204,0.041978747,0.041408293,0.037982356,0.018128691,0.010925414,0.001234573,-0.014721753,0.013873863,-0.017454619,-0.031593665,-0.019426527,-0.009600434,0.013904947,-0.028578574,-0.024548475,0.04396872,0.034523714,-0.011460873,0.01476695,0.018074183,0.012077384,-0.0050546336,0.0034086974,0.019473113,0.012487754,-1.8620115e-06,-0.023306739,0.036887214,0.025611741,0.030458169,0.047265243,0.01955201,0.042027332,-0.009149441,0.021851826,0.00910582,-0.02004709,-0.030736255,0.01119783,-0.014813168,0.004623735,0.0021715087,-0.016464897,0.0051668826,-0.0066023367,-0.0044157323,0.007065628,0.035115767,0.027415575,-0.015138547,0.047913253,-0.0036095,-0.009634537,0.042133793,0.040553443,0.03145107,-0.0030032075,0.040421885,0.014113425,0.002830995,0.02206057,0.021015793,-0.010883844,-0.0006554113,-0.016017953,0.03177224,-0.020105192,0.011979091,0.03102857,0.032205384,0.04070555,0.014633181,0.03700395,0.017841596,-0.0028812804,0.0029967958,0.024425661,-0.006379326,0.031251986,0.0010572611,0.0022445598,-0.00285446,0.008726594,0.008803421,-0.009305599,0.025863323,0.01627799,-0.0151865715,0.011998684,-0.027195849,0.027507473,0.0056627756,-0.032191716,-0.0033152,0.0051644295,0.00069312553,-0.017852172,-0.019536544,0.006870872,0.01771756,-0.0109832045,0.0136141945,0.018021272,-0.0040679174,0.0048018014,0.0076864935,0.03941986,0.00563073,0.032450613,0.033569023,-0.010380795,-0.024909109,0.037018493,0.023457935,0.025617769,-0.024483554,0.012475152,0.033628862,0.0002745332,-0.016766129,-0.01942271,-0.023030436,0.006747447,-0.018165078,-0.025137037,0.022502063,-0.027435599,0.009000034,0.009442666,0.034602184,-0.012362513,0.03234341,-0.023411177,-0.015969176,0.02844539,-0.020842895,0.019312812,0.00096973375,0.020742806,0.0066024456,0.009525256,-0.005897111,0.008963952,-0.006852511,-0.012879683,-0.025438478,0.013117865,-0.026161995,0.013571678,0.023293661,0.00374889,-0.006461676,-0.028610589,-0.03449134,0.008387072,0.019616792,-0.027644685,-0.014437429,0.022232557,-0.0010860852,0.02128034,-0.01968799,0.010558741,-0.0076312427,-0.022531444,0.022907875,0.025289627,0.0130533865,-0.00028541684,-0.0016065022,-0.013480334,0.0070973514,-0.03688075,-0.019398807,-0.034955766,-0.0018952304,-0.016818663,0.026553143,-0.026124477,-0.018184999,0.035325725,0.0048687095,-0.0108566815,0.018679036,-0.009201288,0.022966465,-0.007875334,0.011652692,0.009077607,0.008674939,0.02744207,-0.017183062,0.027872743,0.017971087,-0.023344263,0.023641042,-0.019769965,0.037023686,0.021282585,0.0019657684,-0.020279726,-0.021606563,0.015328955,0.02030798,0.010648352,-0.034747414,0.01339883,0.028325822,0.030017216,0.019356813,-0.0054751523,-0.024508733,0.031162033,-0.009516301,0.016961176,-0.01667799,0.023707107,-0.025254576,0.0317418,0.011653423,0.027249837,0.017462753,-0.028035995,-0.025482183,0.04058066,-0.028865878,-0.015647676,-0.033086184,0.025336597,-0.0339957,0.0073375576,-0.012838045,0.01137448,0.022588048,0.010996267,0.000783626,0.01869953,-0.023075417,-0.010593321,-0.03157714,-0.024806203,0.006394373,0.03482119,0.0039943242,-0.008822293,-0.008627338,-0.005903312,-0.0012444753,0.011251254,-0.007889885,-0.01737702,-0.028982038,0.03030693,-0.021445075,-0.016394112,-0.025460938,-0.021937678,0.0012463352,-0.016570011,-0.0011821389,0.034303736,-0.03401993,0.0089545995
-0.030770248,-0.02602198,0.034208935,-0.016005982,-0.00374344,-0.024310313,0.028341118,-0.02635865,0.022605076,0.029503498,-0.034057684,0.004481606,0.01183967,-0.011463792,0.03439172,0.023640782,-0.014240913,-0.02384409,0.017357908,0.017844416,0.021379735,-0.016937345,0.011490453,0.0019082129,-0.0028225519,0.0068329275,0.024336059,-0.0021451823,-0.03541104,0.026002962,0.00016610697,0.0037990734,-3.3967142e-05,-0.004543255,-0.0010889333,-0.01469912,-0.0039960737,-0.016264262,0.024164481,0.03212409,0.004493059,0.014496074,-0.029251905,-0.017986946,-0.028139789,-0.022631567,-0.0076529006,-0.026814777,0.0042758174,0.009106341,-0.025204571,-0.0076404884,-0.009738587,-0.012229247,0.01148843,0.028316114,-0.02267702,0.022500873,-0.025515666,0.029756479,-0.025895352,0.016993497,-0.01970726,-0.010583069,-0.02428571,0.02551425,-0.024523651,0.02621054,-0.027164934,-0.016588358,-0.017025318,-0.015462906,-0.034129832,0.017481294,-0.020988235,-0.004946395,0.02019772,-0.032804396,0.02900371,-0.0064790277,0.01375916,0.016162174,-0.0098854825,0.0030821972,0.011250693,-0.011913156,0.014964048,0.024193032,0.012297012,0.017837798,-0.011837957,-0.016813982,-0.023483422,-0.02059733,0.023576273,-0.031494536,-0.010487619,-0.00204296,0.021882681,0.037064563,-0.025417667,0.037250683,0.022009097,0.019431025,-0.023789933,-0.002444119,-0.013203154,-0.00962147,0.02762465,0.012435006,0.00045615406,0.025374185,0.022087425,0.004197985,0.026591023,-0.010571361,-0.03327222,-0.020179687,0.029408945,-0.013609046,0.022956342,-0.029320179,-0.010078487,0.028029053,-0.017985923,0.016078148,0.028089056,-0.032312304,-0.0048643583,0.027396789,-0.012443832,-0.022586502,-0.021271212,-0.035133403,-0.006214558,-0.034738153,0.012513839,-0.033267867,0.026987046,0.03282649,0.023772825,-0.023859844,-0.0032803528,-0.019971838,-0.017698914,-0.0070475983,9.3474504e-05,0.017407544,0.008979591,-0.03617968,-0.017020965,-0.0017490081,-0.026728982,-0.004920431,0.023541292,-0.029419294,0.015053631,0.0089061055,-0.02839487,-0.032689556,0.0059849503,-0.0029292768,0.00977369,-0.024261143,-0.009999581,0.018609429,-0.0073937145,-0.027269349,-0.0037900172,0.016365785,-0.0337029,0.0061591053,0.0034055673,-0.023920761,0.0042945584,-0.0142692635,0.009570418,0.013390274,0.00039982065,-0.0323239,0.009185187,-0.043247655,-0.0024543419,-0.041394576,-0.012151189,-0.029801404,0.021241859,-0.037281025,0.004405773,-0.013093841,-0.018119263,-0.031660154,-0.02275075,-0.028287433,-0.033105206,0.026291512,0.034338128,-0.021357413,0.022549734,-0.023121675,-0.034152765,-0.029718729,0.0050895866,0.024537645,0.010702794,-0.0077103726,-0.015879123,-0.03155938,-0.03288869,0.0030223788,-0.05396237,-0.03848396,0.00021263225,-0.010025642,-0.029580323,0.017653424,-0.028421445,0.017816128,0.009551993,-0.0022385353,-0.027942467,-0.009988767,0.007538213,-0.030593947,-0.011035868,0.009511609,-0.008389818,-0.009796222,-0.025017254,-0.014394691,-0.0013936918,0.018604804,-0.0073576495,0.0050023156,-0.0035848296,-0.0074955644,0.016403712,-0.016321646,0.019759214,0.010582724,-0.04179245,-0.0010722037,0.013949075,-0.038088106,0.02592657,0.015262585,0.021459881,0.019882448,-0.019015431,0.022961963,-0.013971726,-0.0016806507,0.023088716,0.026869891,-0.0018838317,0.025723556,0.03405083,0.0027497038,0.030685185,5.072818e-05,-0.0012017246,0.01263173,0.015582663,0.022694062,0.0223052,0.015072029,-0.028272284,0.031859487,0.030075628,-0.014169378,0.0046528457,0.024700804,0.01262887,-0.0070839305,-0.014981658,0.013809917,0.04795896,-0.019375011,0.017640295,-0.027242707,0.02507673,0.032077305,0.02791144,0.0034893558,0.017933454,0.016810136,0.015648704,-0.01033652,0.028055547,0.031246213,0.03034723,0.016810527,-0.0045324634,-0.0004768133,0.033548538,0.023297697,0.033457868,0.009426165,0.018189015,0.0042201374,-0.0033069027,-0.012766787,-0.007827694,0.003180617,0.043831278,0.03154221,0.017574009,-0.012558428,-0.021827795,-0.0046587433,-0.00976517,-0.01906253,-0.009122995,0.0058192434,0.031422935,0.016956734,0.02340641,-0.032041833,0.027452106,0.00080269837,0.023729334,0.028260138,0.046549775,0.020619316,0.029730711,0.016785996,0.031779896,-0.0017144313,0.006882961,0.005665147,-0.029647894,0.005259814,0.010287249,-0.014623216,0.03330631,0.012044596,0.017814698,-0.00051845587,0.023829218,-0.019239737,0.022665665,0.014263709,-0.026494896,0.003908953,0.02131425,0.026438449,-0.0016562236,0.023343276,0.023578012,0.032518666,0.01796515,-0.011838858,-0.030454615,-0.021921564,-0.038972344,-0.0004829031,0.0018330306,0.009490869,-0.01767113,-0.008458074,0.024593905,-0.019086506,0.030999845,-0.024481047,-0.0155206695,0.03401846,-0.014063104,0.028547412,0.0056483643,0.01029383,0.022843609,-0.004933439,0.007881807,-0.014613062,0.003943966,0.032587636,-0.028713668,0.031448394,0.02276283,-0.041293293,0.008107182,0.005467448,-0.02787373,-0.007014891,-0.039263647,0.013670091,0.031166589,0.005593198,0.010995496,1.6387487e-05,0.0013583187,0.011879197,0.03013074,5.406836e-05,-0.020082312,-0.029207768,-0.025172396,0.008950221,-0.012977071,-0.016345756,-0.0059498074,0.035569355,0.029993225,0.0017479595,0.012453384,0.0042620064,-0.039531507,-0.03729283,-0.03732321,-0.032847494,-0.0046270187,0.027901273,0.027245037,-0.011173468,0.02567767,0.020361733,-0.008344241,-0.017547455,-0.026571631,-0.021548042,-0.0064925617,-0.006402254,0.012357108,0.021910166,-0.00860616,0.011330503,-0.03378298,0.014046094,0.023238564,-0.017579375,0.011652617,0.028826775,-0.0036632905,-0.015430647,0.010518913,0.020749144,0.026887722,-0.029256484,-0.02917971,0.008494288,-0.00308587,0.0052883998,-0.010755888,0.018959884,-0.022353655,-0.007148222,0.008531522,0.011540431,-0.010956169,0.029851772,0.031896114,0.00091749005,-0.008144076,-0.009871877,-0.018472943,0.01860283,0.024530048,-0.028366426,0.0033065504,-0.0068965573,-0.030076418,-0.0269217,0.00615722,0.0013631299,0.014185894,0.03157218,0.008501072,0.015319874,-0.038059756,-0.010753257,-0.030982535,0.03554852,0.038495094,0.0117470585,0.028316764,0.0039746603,0.015468657,-0.02524305,-0.010098937,0.003669299,0.026778338,0.008046651,-0.012141328,0.023119112,-0.009179691,0.0283068,0.0017907241,-0.014293997,0.0072635533,0.026462823,0.015620495,0.020862482,-0.021009298,0.0052886466,0.03270933,0.017850563,-0.023938794,0.012266803,0.014924529,-0.029762508,0.0007948369,-0.012731161,0.0017842771,0.03223261,-0.019536108,-0.03247352,-0.023301903,0.002563247,-0.02110903,-0.010863987,0.04650684,0.023527613,0.027573222,0.026554095,0.015588938,0.00060491014,-0.0065793344,0.0076144966,0.026073582,0.009842338,0.009150872,0.0195206,0.019844484,0.030501602,-0.029527007,-0.017568335,-0.02637999,-0.017492777,0.00605652,-0.013858351,0.0086707575,0.02084828,-0.029371839,-0.016172392,0.031598646,-0.013737776,0.00499136,0.03585882,-0.016626345,-0.018044163,0.0036070282,0.022993146,0.0044980566,0.03151422,0.025404356,0.021598669,0.031153785,0.009528906,-0.01474424,-0.03250923,0.011644284,-0.03824588,0.013812985,-0.0064546843,0.024422562,0.032239858,-0.01166351,0.023360536,-0.01531999,-0.033254627,-0.032975715,0.024448983,0.03582601,-0.008076519,0.0036825957,0.039444868,-0.023882559,-0.015860084,0.040990856,0.026504181,-0.017748801,-0.016637465,-0.0033734613,0.021171631,-0.021080224,-0.042373378,-0.041941296,0.010560775,-0.015588298,-0.019923454,0.007280957,0.012562831,-0.015919587,0.027350705,-0.01758744,-0.0012584357,-0.008006439,-0.0055387616,0.021507753,-0.022732357,0.01995956,-0.025758535,-0.020421058,0.005065692,-0.010011825,-0.022157356,-0.014364182,-0.011771194,-0.009146653,-0.0026480495,-0.040151596,-0.02260974,-0.01515337,-0.0113118375,-0.036629602,-0.027125139,-0.041940533,-0.028936159,-0.0016376314,-0.009006014,0.01875926,-0.030645667,-0.016813736,0.027198061,-0.0031819155,0.008436889,-0.0050017345,-0.026463795,-0.012980198,0.023930505,0.0127596855,0.011319982,0.026883423,0.011259752,0.03112257,-0.019646138,-0.03799359,0.011353202,-0.030352889,-0.024013774,-0.045978542,-0.03474653,0.006956717,-0.0054326793,0.011923786,0.018644236,-0.02807501,0.026843915,0.014730794,-0.021184428,-0.025433969,-0.03482407,0.005929829,0.0040176013,-0.0019694604,-0.018803699,-0.035142824,-0.014170357,-0.005367124,-0.021258956,-0.019107595,0.008925564,0.028759252,-0.005050533,-0.020008823,-0.0020348653,-0.03682325,0.015510763,-0.022471605,0.014787432,-0.03638222,-0.002125278,0.018992975,-0.012636765,-0.029004155,-0.012990075,-0.012621887,-0.024681948,0.03520947,0.018737784,0.017018544,0.03269082,0.0010398105,0.027848583,-0.03009634,0.028416228,-0.025912516,-0.029671408,-0.01589448,0.019907849,0.012840478,-0.02680197,0.032031603,-0.008290829,-0.023376634,0.0028196957,-0.02388778,0.021022385,0.019469159,-0.007346072,-0.006961295,-0.00061195693,-0.033700623,0.009214842,-0.017877324,0.03138494,-0.031413544,0.023289502,0.010350216,0.010889165,0.010426484,0.019154172,0.0062449737,-0.033543978,-0.017883087,-0.029885866,-0.00038362035,0.012369733,0.018625442,-0.0014222086,-0.010362772,0.030512229,-0.01683412,-0.009815545,0.036503028,0.020181637,0.025202924,-0.03504914,0.00073846785,-0.004626356,0.01706947,-0.01447544,0.03519611,0.016012523,0.025577484,0.010638694,-0.007013017,0.035298858,0.0010954477,-0.009166919,-0.025814082,0.023596201,0.025740625,-0.00665075,-0.009362525,-0.025315415,-0.017913703,-0.033067465,-0.0077550816,0.012799551,0.023777599,0.00833349,-0.013845792,0.01525892,-0.03145999,0.027000343,0.032157037,0.003022714,-0.025312727,0.027191645,-0.014690984,-0.0054579987,0.022643048,-0.020970922,0.02902871,0.006417401,-0.005548695,0.02534848,-0.015180793,-0.025265351,0.0352512,-0.034234665,-0.019529011,-0.013951379,-0.03556792,-0.032481667,0.01990662,0.01965507,0.013864035,0.033603482,0.0002097939,0.023403542,-0.00057338644,0.0048943413,0.0038343517,0.018378224,0.0065408708,-0.0056894496,0.011477561,0.029388268,0.016987957,-0.0217911,-0.00062095,-0.020000484
-0.011987023,0.022258267,0.028473105,-0.013093634,0.0003545843,-0.0082722865,-0.028311454,-0.026128745,0.01924514,-0.019012162,0.02492702,0.01351871,0.021661919,0.0011087322,-0.014004282,-0.02950574,-0.022959705,-0.030920822,-0.02752325,-0.021184888,0.020283356,0.006932318,-0.010097275,0.009308759,0.017325923,-0.0101062525,-0.035023835,0.018764436,0.013957784,-0.015659835,0.0063451417,-0.019973619,0.03364205,-0.021294624,-0.00885468,0.00043660685,-0.007886269,-0.032525428,-0.030437995,0.0340938,0.016272727,0.020874435,0.030042257,0.010165716,-0.030807769,-0.03457448,0.028511632,0.021325016,0.013037097,-0.006336321,-0.010725993,-0.027999,0.009435087,-0.024990713,0.030118775,-0.023435019,-0.030050386,0.03245594,0.03425673,-0.0155808665,0.032940518,-0.033872996,0.011685491,-0.02095563,-0.006635806,0.008773782,0.029411465,0.00094494264,0.011735403,-0.009040759,-0.021179473,-0.030988516,-0.0033101472,0.0062828427,-0.019880949,0.014778445,-0.003255682,0.0032853398,0.00616296,0.0021804043,-8.537587e-05,-0.016147457,-0.009582417,-0.014218578,-0.019909663,-0.028894447,-0.004214862,-0.03533796,-0.03426205,0.02745569,-0.016171087,-0.014216623,-0.022028876,0.0026832852,-0.02767713,0.011687834,0.03133844,-0.032880716,0.02436094,-0.013218136,-0.02647775,-0.0157626,0.0096658645,-0.023440983,-0.02978495,0.025860861,0.017518101,0.009006521,-0.0057079545,-0.016218884,0.030177986,0.033668827,0.018818539,0.024797672,-0.009688781,-0.015528503,0.009120086,-0.026881296,0.01646166,0.029351206,-0.033508196,0.032598518,-0.007349386,0.0080289235,-0.019176785,0.031473372,-0.0076969475,0.010213184,-0.03138624,0.022607785,0.013960996,-0.007634205,0.004579443,0.023740958,0.022307655,-0.001741368,-0.03273791,-0.022541763,0.035508897,-0.0313242,-0.028195987,-0.02326389,-0.0074634827,0.005901723,-0.031910904,0.0030593039,-0.005961792,-0.010317119,0.01047233,-0.016779706,-0.019698065,-0.021293512,-0.011853558,-0.035805203,-0.014617702,-0.015362034,-0.015065402,0.010183552,0.03711631,-0.0059435195,-0.008293207,-2.446424e-06,-0.01725101,0.025462639,0.025155917,0.01475041,0.0054088715,0.03374741,-0.014238924,-0.01840245,0.030635439,-0.014042327,-0.018049361,-0.034359895,0.033626292,0.020133143,-0.035694126,-0.009488796,0.007813604,0.019759694,-0.0061809598,-0.01783098,-0.004710355,0.01581836,-0.014731941,0.031040922,0.03791749,-0.01905237,-0.0035982786,0.018462354,-0.012870491,-0.016350375,-0.012069233,0.023417775,0.012361671,-0.005915709,0.028558496,0.018336104,0.0129264295,0.009751211,-0.027339663,-0.029306991,-0.024847036,-0.020858038,0.0052787545,-0.013307669,-0.039861064,8.166034e-05,0.0244202,0.013897232,0.054528404,0.05850972,0.009938724,0.055234574,0.024280194,0.04389131,0.013810777,-0.028971944,0.020305188,-0.007641114,-0.01673648,-0.0036022197,-0.0115442015,0.016305074,0.015674325,-0.024732707,0.019477163,-0.009417106,0.003653087,0.0013197713,-0.005918627,-0.019140573,0.0113627575,-0.0077636344,-0.031262584,0.015709583,-0.029744163,-0.00234418,0.0018002237,0.018028295,0.009497004,0.0135718165,0.0045643216,-0.03439697,-0.021206379,-0.018693361,0.018337345,0.0017828998,0.010785485,0.021435466,-0.017269356,0.018125698,-0.02903196,-0.016934225,-0.01409723,0.014978062,-0.015504173,0.021094866,-0.013569081,-0.04667568,0.016554207,-0.030515945,-0.03113122,-0.0025828779,-0.0037826882,-0.030123979,-0.0271144,0.035368573,0.011676523,0.015692119,0.0054685925,0.033181656,0.02303312,0.015027756,-0.0049117687,0.015556817,0.01055533,0.022492142,-0.004830224,-0.022712223,0.0016101259,0.012649904,-0.003594868,0.030467866,0.017332643,-0.007798236,0.009386599,0.010873406,-0.0025057131,-0.038254037,-0.000949841,-0.040584106,-0.035793282,-0.025825247,-0.018090168,0.015258768,0.033816308,0.001784651,0.029693902,0.014902145,0.027287483,-0.022360926,-0.012016472,-0.0011412817,0.014685173,0.012605715,0.0064696125,-0.031406097,0.02209029,0.012517897,-0.020131322,0.03261119,0.0314129,0.012044471,-0.005724726,-0.03374298,0.02243766,-0.004805881,-0.013933016,0.0075467383,0.0061606066,-0.028309848,-0.020874262,0.037168544,0.021043504,0.014854695,0.0034405042,-0.019735934,-0.016871238,-0.0040726247,-0.038547296,0.021716096,0.018645706,0.029414348,0.005225742,-0.031708136,0.02925802,-0.0022678438,0.007150002,0.01743276,-0.00507862,-0.028143873,0.011454758,-0.004423467,-0.02365487,0.007897418,-0.024189465,0.010033485,-0.017816573,-0.014100228,0.02702162,0.018995307,0.009852406,0.00713315,-0.024410652,-0.013292425,0.011883237,0.005136158,-0.02943254,-0.02310312,0.029225508,-0.015540014,0.016230457,0.03151367,-0.014296263,0.033283543,0.031951554,0.019235427,0.025542561,0.03668956,0.002296981,0.03959024,0.013344691,-0.004472507,0.024810156,0.00522072,-0.0113436,0.026871065,-0.0032537587,0.03158616,-0.014773863,-0.0048166127,-0.019185467,-0.001909557,-0.0021770927,0.016967664,0.005871048,-0.008673842,0.0073897885,0.031590085,0.008720402,-0.02329826,0.030843033,0.026767775,-0.032152846,-0.024459982,-0.010526944,0.028328573,0.042779822,0.028486343,0.037577566,0.047373593,0.046432156,-0.015056186,0.047486708,0.033528663,0.014971573,-0.0059582563,0.04754533,0.01944172,0.0304708,-0.0077912663,-0.025414536,0.012714386,0.0016577179,0.016347086,0.026943462,-0.024787286,-0.02945634,-0.026622377,-0.012690569,0.007464364,0.025035437,0.033876296,0.035739478,-0.013946861,0.018647382,0.005935172,0.04824187,0.0343377,0.025732117,0.034267955,-0.0076908986,0.04174328,-0.0006020301,-0.022606637,-0.0002901955,-0.0026996937,0.0053010955,0.034921307,-0.022356182,-0.0052171685,-0.017183213,0.0064270534,0.004603426,0.027290443,0.028570475,0.0013079795,-0.0040256493,0.008040722,0.019707125,0.034135666,-0.012844588,-0.0058484944,0.042307056,0.022953074,0.038730644,0.020193104,0.010554249,-0.012494013,-0.020171786,0.02056571,0.0048196632,0.013014018,0.023223395,-0.015769228,0.04050358,-0.0009852129,0.009866527,0.03854962,0.028932845,-0.010105998,0.025793055,-0.017905459,0.00042077823,0.023331502,0.016868945,-0.016877918,0.021045325,0.011845443,0.009926818,-0.02768453,0.0059107468,0.025941985,0.0028959808,-0.0380693,0.023440963,0.0063687833,-0.003181172,-0.0024287736,0.006849682,-0.0015010003,0.017861532,0.026392234,-0.008926179,0.01228665,-0.0053624823,-0.028274886,0.017317498,-0.025874272,-0.0017886931,0.0008230452,-0.0019867201,-0.03367648,-0.019384682,0.027081419,0.008881808,-0.017848115,0.019865904,0.0001872503,0.00456553,-0.029823786,-0.027375696,-0.01930698,-0.046738703,-0.023783749,-0.041882526,-0.036494706,-0.019758986,0.033251528,-0.0067558037,0.0061508254,0.0068030213,0.016358674,-0.019998485,-0.02054308,-0.019077646,-0.002585144,-0.009008604,-0.008446853,-0.03163706,-0.03108786,0.016589114,-0.0020665291,-0.011497754,0.029126797,0.02723915,0.0122841755,-0.012214631,0.017992303,-0.008333974,-0.007315339,-0.016089955,-0.024032693,0.0037078068,0.026523275,-0.0024385513,-0.002592822,-0.0075622024,0.0047209086,0.015029285,0.042908188,0.0019327111,0.018744951,-0.020784494,-0.040660057,-0.014300059,-0.014775643,0.003739867,0.011532454,-0.026594128,0.014609478,-0.017469188,0.019972645,0.010226312,0.00847034,0.020819083,-0.041249216,0.015548979,-0.01219783,0.0041874107,-0.012006289,0.006528198,0.032751657,0.005157064,0.010263473,0.05017737,0.015985489,0.004408985,0.017449679,-0.019303648,-0.040960442,0.013179583,-0.013592714,0.025983825,0.0044167885,-0.020841286,0.020766882,-0.013069548,0.027616922,0.012539535,0.036989402,0.008664092,-0.014547434,0.023131656,-0.031706333,-0.015524329,-0.026612757,0.022438543,-0.010750579,-0.028274298,0.013981449,0.018282143,0.022791592,-0.017917674,0.004504251,0.020309841,-0.009596642,0.0037290002,-0.040207993,0.00837139,0.003047201,0.023147844,0.010463793,0.03280867,-0.016435906,0.026662478,0.015996559,-0.013612548,-0.0019149675,-0.008903521,0.007896988,-0.028918752,-0.007111139,-0.018330049,-0.013004826,0.026545694,0.011597227,-0.007830978,-0.0292412,-0.019777885,-0.010706987,0.014910263,-0.030459851,-0.009134174,-0.03698977,-0.01153232,-0.018322522,-0.03963415,0.018059975,0.027234798,-0.0019395779,-0.030426195,0.0065751164,0.021525085,-0.03157377,-0.034351915,0.0035025787,0.03388329,-0.017924106,0.0014986603,0.04063561,-0.0085198125,0.00088459393,0.012027783,0.006772485,-0.01769626,-0.05150454,-0.0024821092,-0.044335514,-0.04282749,-0.03553294,-0.009514165,-0.036763817,-0.009901856,-0.00994503,0.010375922,-0.011334891,-0.03366302,0.030125633,-0.011271976,-0.024333045,-0.020258844,-0.012362467,0.0029024584,-0.011672911,-0.015478662,0.0029246968,0.032206632,-0.02045918,0.024187205,-0.02767428,0.008934972,0.01775904,0.010301723,0.016544262,0.009927485,-0.018041136,-0.02735821,0.018780077,-0.012227372,0.0067114322,-0.022714157,0.0033012128,-0.007877526,0.035968717,0.022098267,0.0050932644,-0.00867534,-0.0021626838,-0.031501647,-0.001328934,-0.022780972,0.017496035,0.023341538,-0.034010194,-0.025001986,-0.017596541,-0.029340548,-0.029435316,-0.013151833,0.023813304,-0.028752707,0.018979978,0.009330793,-0.037617125,0.010549031,0.032923438,-0.009972508,-0.0069729127,-0.0005498647,-0.025587019,-0.017986726,-0.007163629,0.00034205234,-0.015490024,0.018757142,0.019539911,0.007885713,0.02162094,-0.023482766,-0.031844225,-0.012789632,0.01542848,-0.032319564,0.02340508,-0.012630576,-0.024537992,0.0037821336,-0.03051109,-0.007246229,0.0018234847,0.015924323,0.033932604,-0.007449945,-0.027725505,0.008951104,-0.031250454,0.0025373097,0.010491638,0.010185681,-0.026042324,0.0025895573,-0.033663508,0.017692823,0.021769062,-0.010556446,-0.003927596,-0.012036413,0.023034692,0.025769666,0.028509911,0.018646559,0.027126137,-0.02094854,0.020267377,-0.00665363,-0.02096018,-0.02921535,-0.012184023,0.031109456,-0.0030902491,0.02570651,0.013558473,-0.0037749952,-0.016057204,0.009590189,-0.0025868877,0.027635869,0.03183838,-0.010738485,0.015751235,-0.017286714,-0.029563125
-0.0044855513,0.00719963,0.00679332,0.033938047,-0.012054814,-0.0310182,0.035505686,-0.021058459,-0.021992743,0.023082718,0.018348236,0.0018026233,0.03302584,-0.011511768,0.015889278,0.029353824,0.017546866,-0.009531239,-0.025935106,0.03508723,0.0073428415,0.020700108,-0.02160525,-0.01826816,-0.01975269,-0.03415314,0.010614589,-0.032968298,0.008414749,0.0067941733,-0.018029124,0.01854894,-0.026012802,-0.019625636,0.0007904667,-0.0034798686,0.017624438,0.027512817,0.0047312514,-0.010493683,-0.0119732665,0.007440841,-0.01314411,0.025370033,-0.0072579794,-0.0043234173,-0.014832677,-0.018698571,-0.011224096,-0.03281396,-0.004770595,0.033077057,-0.026310675,-0.034577556,0.030917566,-0.02231982,-0.019550826,-0.010658108,-0.027536416,-0.0130346995,0.023105046,0.0006918475,-0.033016793,0.0010012009,-0.01802704,0.014336601,0.005861626,-0.034536134,-0.03171761,0.016771002,-0.009178943,-0.019748593,0.017110832,0.013152152,0.004979083,0.002931477,0.01961887,0.024005158,-0.0028184166,0.008713919,-0.023413833,-0.03206015,-0.019090641,0.015378058,-0.031700104,-0.0063014887,-0.019364437,0.03060928,0.025898784,-0.0230926,0.006679928,0.023138069,-0.014086663,-0.031942688,-0.00328185,-0.026017131,0.020897944,0.001967948,-0.009052013,0.029434297,0.035408046,-0.017178075,-0.017718202,0.025682641,0.026566647,0.005988478,0.032973066,-0.033334933,0.01897582,-0.010349721,-0.018288013,0.024293564,0.008021224,0.0051136925,-0.009376124,-0.024293583,0.01102242,0.010997665,-0.016179739,-0.008077537,0.013566601,0.04186157,-0.0077782613,0.0124899065,-0.012460243,0.035675533,-0.0029688587,-0.04676305,-0.036995023,0.024344161,0.018196935,0.021076366,-0.0209997,0.03064291,0.006487042,-0.037494358,-0.036877744,-0.01065253,0.0073096114,-0.016904203,-0.026286568,0.0028910674,-0.010018728,0.0088716755,-0.0050817174,0.026463542,-0.0075326436,0.00071136723,0.02258482,0.048634745,0.04412131,0.015457942,0.022339769,0.043462988,-0.0012582741,0.018630527,0.046697415,0.015143395,-0.0057636593,-0.03474931,0.00450295,-0.009777198,0.022197567,-0.046098147,0.009015975,0.005558934,-0.024539266,0.0022780485,0.028504122,0.013032263,-0.0044118194,-0.022164294,0.018703396,-0.0040259603,0.0075067612,0.03749866,0.027678987,0.0020495763,0.045278165,0.027707804,-0.0018202952,0.01818817,0.016469702,0.026061835,0.03316862,0.012748204,-0.0032787444,-0.022508565,0.023686958,-0.030500382,-0.0030945798,-0.059220616,0.0020018325,-0.04070797,-0.0038578387,-0.01957908,-0.008642042,0.010796503,-0.0012443147,-0.008410711,-0.0071101477,-0.012110621,0.059343033,0.033990655,0.04831782,0.023546899,3.9030634e-05,0.035741363,0.02279018,0.027150495,-0.035854958,0.0039840383,-0.01718382,-0.028079892,-0.021760106,0.03995526,-0.017182235,-0.016086403,-0.044994317,-0.071209945,-0.04343066,0.0076872213,0.027598992,-0.033474583,0.015343902,0.026375629,0.033085793,0.021804767,0.03598806,0.048186924,0.052345306,-0.005205328,0.019285554,-0.01322489,-0.015306544,-0.0014034478,-0.030773519,-0.028840974,-0.018408163,0.027371544,-0.023968123,0.022416815,0.027996214,0.050315082,0.018642887,-0.012718211,-0.01624925,-0.05426152,-0.08470088,-0.06183364,-0.01967785,0.012965567,0.015191468,-0.0054104254,-0.024781547,-0.0053706653,-0.0025079057,0.056328375,0.030532133,0.010220155,0.0012336402,0.03510428,0.026568295,-0.042351678,0.0035405878,-0.0566562,0.017378984,0.028223485,0.024461254,0.034922495,0.055367082,0.06269316,0.053173743,0.0065543223,-0.06721406,-0.052463505,-0.04905482,-0.052425385,0.007867097,-0.017455678,-0.03348958,-0.015781645,0.024527786,-0.017347844,0.025758414,0.036189843,-0.0121948235,0.003715003,0.01097823,-0.019170532,-0.055947017,-0.009845457,-0.023679584,-0.06699701,-0.045394897,0.025838235,0.008590748,0.02034385,0.047914326,0.03335249,0.01488086,0.033601716,-0.012909319,-0.04190614,-0.06961021,-0.04131025,-0.02263893,-0.0011708266,0.03572598,0.03292724,0.008190997,-0.009731601,0.007075249,0.0039171497,0.009834538,-0.00967806,-0.03281742,-0.004026461,-0.009798869,-0.011257933,-0.05333114,-0.0809283,-0.014948822,0.021384763,0.072355784,0.06789642,0.03674755,0.034836642,0.040558476,-0.006888047,0.0044391886,-0.0031068525,-0.0575022,0.00961123,0.0258276,0.013353697,0.015557479,0.009548326,0.013367966,0.018811513,0.0011691838,0.02209069,-0.02270076,-0.018811543,-0.013296951,0.01982927,0.026109286,-0.025981981,-0.051863845,-0.040733423,-0.023210462,0.034185357,0.093925506,0.09089508,0.055973448,0.034466602,0.03320434,0.031255417,0.015030056,-0.033526566,-0.03146092,-0.010913402,-0.032004975,-0.009781909,0.032877024,0.016086882,0.012451172,-0.015460613,0.0004703123,-0.00895277,-0.051727504,0.007096767,0.013761074,0.0045343935,0.03493234,-0.020273345,-0.03770489,0.007460511,0.006244762,0.033885486,0.08482424,0.055818427,0.041914318,0.06658209,0.03592819,0.013294083,-0.0025032195,-0.04552411,-0.030461414,0.031575795,-0.0047428636,-0.0076162773,0.0098327035,-0.029134559,-0.013879411,0.010527167,0.0079233125,0.03444835,0.013172408,0.014671181,0.034659695,0.014687862,0.03624893,0.051239915,0.029861094,0.020012954,0.04574628,0.07784258,0.10810185,0.09987527,0.035201445,0.06901873,0.006307488,0.00852205,0.011992586,0.02128861,-0.013818512,-0.009165173,0.010383766,0.02704641,-0.011345006,0.011600256,0.0054909177,0.020758698,0.04455777,0.0078067603,0.008449536,0.04544239,0.015469192,0.0046609314,0.011285072,0.038311116,0.05043036,0.030611936,0.06700229,0.09778574,0.12547222,0.106240086,0.04431181,0.035157055,0.04641024,0.0236409,0.022297312,-0.040405154,-0.00595718,-0.027933428,0.036783952,-0.021786777,0.02266078,0.0101529695,0.029864369,-0.0032908937,-0.016758248,0.041496515,0.059256513,0.034489065,0.017919013,0.023499386,0.0041660946,0.017198062,0.011584401,0.075669006,0.08471517,0.08415235,0.11493205,0.10494961,0.03115037,0.007336843,0.036386255,0.013842324,-0.019149281,0.02611023,0.024593206,0.019901836,0.0034316496,0.013725893,0.032336045,-0.013596367,-0.0016911238,0.011492265,-0.013717597,0.010668561,0.038573984,0.017122911,0.032201484,0.047076598,0.037024144,0.025576668,0.060502227,0.0873715,0.06198689,0.07525445,0.042025868,0.045494195,0.02228609,0.006883841,0.021482956,0.012536606,-0.0044985395,0.0031824706,-0.0213552,0.003967847,-0.006152931,-0.0038046804,0.0333091,0.014384237,0.0051074107,-0.030977836,0.019928185,0.01853656,-0.048987754,-0.008304543,-0.025279865,-0.030519437,-0.019125171,0.017867748,0.030513717,0.04849759,0.069732316,0.025573067,0.063413836,0.009384577,-0.012843086,0.014368922,-0.0023182118,-0.031658754,0.021977374,-0.0110438345,0.031093175,0.006098231,0.015596078,-0.030598445,-0.023277791,0.010473973,-0.03608536,-0.006236727,-0.0038360434,-0.0004622794,-0.030751036,-0.011491649,0.00069769577,-0.026956217,-0.049252544,-0.034380786,0.0026331146,0.029410772,-0.0030987482,0.03417194,-0.014043757,0.04264374,-0.026515037,0.009389879,-0.02447082,-0.037600294,-0.027391369,0.028871255,0.033090416,0.01551142,-0.009688177,-0.009928533,-0.021840598,-0.012320378,-0.01712025,-0.018805787,0.019263681,-0.019379582,-0.015206116,-0.028497381,-0.04656142,-0.039839093,-0.063140914,-0.013082438,0.0046305046,-0.04296047,0.026068548,0.00804929,0.023411743,-0.010769067,0.021518763,-0.0014517194,-0.005812413,-0.030923845,0.019101605,-0.0067810593,0.027307743,0.009907168,0.0044293385,-0.016960204,0.011818765,0.014464814,-0.027903302,-0.0018434462,-0.026258511,-0.0004271342,-0.01840877,0.0031253656,-0.0152184,0.005445265,-0.01370368,-0.004750538,0.010451587,0.005462506,0.026779888,-0.017368652,0.017421285,0.004914322,0.001250042,0.052750878,-0.017041527,-0.01663805,-0.019305019,-0.021127965,-0.02260522,-0.028986868,0.034393433,-0.023327082,0.011295887,0.00093207404,-0.00040343692,-0.024372587,0.018300585,0.009255196,-0.0116483625,0.0010553362,-0.0075225336,0.013159268,0.017977674,0.0162831,-0.038561903,0.0012266784,0.017823186,0.013847153,0.030082423,0.025167389,-0.024392797,-0.0123691065,-0.014229609,-0.0060597984,-0.023848465,-0.0075181895,-0.022432154,0.0012434814,-0.0059980555,-0.019776506,0.00045463815,-0.027983854,-0.03154497,-0.019555354,0.012699778,-0.004563537,0.027475512,0.032894824,-0.032764744,-0.004721422,0.008099511,-0.035499405,-0.010018191,-0.020898154,0.0011993469,-0.0054896316,-0.03229675,0.023097891,-0.007912558,-0.016407453,0.01250518,0.008267312,0.020152181,0.0003244979,-0.027645541,0.01109329,0.026860956,-0.00067893416,0.02849624,0.002662588,-0.029773174,-0.027656775,-0.027763244,0.01812998,-0.02805882,-0.026159557,-0.029129457,-0.020195985,0.010931254,-0.0018908838,-0.042958006,-0.029527787,-0.03288599,-0.038312625,0.0057849227,-0.028332772,-0.008128535,-0.039244436,-0.01243085,-0.03369504,-0.034145623,-0.019860957,0.022677055,-0.022393994,-0.027523898,-0.012680322,0.0007734895,-0.017032245,0.005822967,0.0087732,-0.015034216,-0.011089699,0.018087896,0.006184673,0.03692184,-0.006237388,0.017156204,-0.011133527,0.0035267563,-0.009220927,-0.015798377,-0.021971526,0.003150355,-0.030235156,-0.045638464,0.0066114124,-0.0062019206,-0.01692144,-0.032317027,0.014289752,0.0056450632,-0.026990162,0.013561689,-0.017270936,0.012570914,0.029405128,0.035594944,-0.029275872,-0.009097228,-0.022950971,0.029246947,-0.015011303,-0.004492079,0.011031736,0.0061460915,-0.015004383,6.0268758e-05,-0.021621391,0.02051146,-0.019692801,-0.024875322,0.02772677,0.026399503,-0.0055237063,-0.012997925,-0.02872194,-0.031963192,0.013832884,0.0122096855,0.0035604092,-0.008559803,-0.008731352,0.002437465,-0.011550533,-0.028726652,0.021020759,0.026830472,-0.030504225,-0.0070846514,0.030248279,-0.032690834,-0.01206881,-0.0050505647,0.019456428,-0.029609645,-0.0101635,0.033968218,-0.008911458,0.01231084,-0.018284189,0.0032400168,0.03518134,-0.017137604,0.0005978951,-0.030562645,0.006364124,-0.0017601028,-0.033710267,0.015136696,0.012508873
